//Numpy array shape [64, 1]
//Min -0.628560662270
//Max 0.283483713865
//Number of zeros 0

#ifndef W15_H_
#define W15_H_

#ifndef __SYNTHESIS__
dense_3_weight_t w15[64];
#else
dense_3_weight_t w15[64] = {-0.2728721499, 0.0841171965, 0.2339321226, 0.2519502938, 0.0181973502, 0.0929848179, 0.1351428479, -0.0528353639, -0.2343716621, -0.1053181738, -0.2876018286, 0.2042648196, -0.2311741859, -0.5865299702, -0.5305910110, 0.1244877949, 0.1583872288, -0.2802748680, -0.2721835375, 0.1148484424, 0.2834837139, -0.0256743543, 0.2331246287, -0.2994069755, -0.0132423975, 0.1944850683, -0.3785371482, 0.2168849111, -0.1176761389, 0.1078708917, -0.3999624848, 0.1013466343, 0.2634434104, -0.5725077987, 0.1795877665, 0.1881118715, -0.6285606623, 0.1524082124, -0.4371058643, 0.0694703907, -0.2873589993, -0.1125944108, -0.2975762784, 0.1568059176, -0.1347955018, -0.4330675304, 0.1996640861, 0.2479160726, -0.0000983842, 0.1284442991, 0.1165492907, 0.1376409233, 0.0619926900, 0.1279646456, -0.3040493429, 0.2495024651, 0.0161027629, 0.1270446926, 0.0913938209, -0.2934184968, 0.1267216802, -0.4310879111, 0.1302260309, -0.2223913074};

#endif

#endif
