//Numpy array shape [2048, 16]
//Min -0.488623589277
//Max 0.363042145967
//Number of zeros 0

#ifndef W12_H_
#define W12_H_

#ifndef __SYNTHESIS__
dense_weight_t w12[32768];
#else
dense_weight_t w12[32768] = {-0.0196763221, -0.0092872251, -0.0533779785, -0.0283805784, 0.0355700999, -0.0070958682, 0.0323917791, -0.0333176255, 0.0322836861, -0.0017827918, 0.0411246307, 0.0526857600, -0.0117715681, -0.0413070135, 0.0008340771, 0.0244624615, 0.0504517704, 0.0374187715, -0.0589384437, -0.0610037707, 0.0022191743, 0.0463257805, -0.0472389273, -0.0540514067, -0.0283930153, 0.0179698486, -0.0154256606, -0.0396713689, 0.0345469043, -0.0000046841, -0.0213780832, -0.0535957329, -0.0555754155, -0.0884257928, 0.0065463502, -0.0299730506, -0.0199511889, 0.0019601695, -0.0068175071, 0.0292473882, 0.0545727909, -0.0457397439, -0.0080524525, 0.0336153433, -0.0087595014, 0.0376817733, 0.0336461589, 0.0032475782, -0.0117616290, 0.1311293691, -0.0214133859, -0.0535991602, -0.0284421165, -0.0602789968, -0.0373907089, 0.0180647578, -0.0662595779, -0.0700931996, -0.0424856022, -0.0133352792, 0.1423801482, -0.0159691088, 0.0191244204, -0.0487986542, 0.0216562226, 0.0413104147, 0.0557433777, 0.0131750759, 0.0493076891, -0.0062407367, -0.0324548893, -0.0388713777, -0.0062516313, -0.0075133592, -0.0024640122, 0.0201056898, -0.0018672924, 0.0161298271, 0.0107229650, 0.0432087779, 0.0715758726, -0.0620270260, 0.0228312854, 0.0259942729, -0.0204057526, 0.0320440009, -0.0759332478, -0.0591809154, 0.0288013779, -0.0712406561, 0.0316800214, -0.0154596251, -0.0396116562, 0.0687705800, 0.0439201668, -0.0541067533, 0.0460319184, 0.0347286947, -0.0206161570, -0.0322185457, 0.0180280618, -0.0259899199, 0.0674191192, -0.0100615947, 0.0298438184, 0.0203667525, -0.0218531210, 0.0185319223, -0.0613892749, -0.0249230564, 0.0394329987, 0.0020710146, 0.0133113610, 0.0579922535, -0.0044884598, 0.0258972310, -0.0559498407, 0.0034945887, -0.0375336111, 0.0153470552, -0.0409054868, -0.0073373974, 0.0377329588, -0.0199167747, -0.1143105403, -0.0499746464, 0.0271986127, -0.0576879419, -0.0301397629, -0.0119315237, 0.0454668365, 0.0163156297, -0.0279106945, 0.0219675507, -0.0076972274, 0.0423516035, 0.0100027230, -0.0387644954, 0.0153719513, 0.0242095180, 0.0508965924, -0.0038703636, 0.0183141697, 0.0377960838, -0.0279285163, -0.0649127215, 0.0584736057, 0.0278884210, -0.0345791131, -0.0548271723, 0.0738140345, 0.0115017090, -0.0102609321, 0.0958028212, 0.0485813022, -0.0012134425, 0.0882466957, -0.0075305207, -0.0437235460, 0.0740129650, -0.0152914478, -0.0766189024, 0.1456897855, 0.0229558926, -0.0169771835, 0.0144240856, 0.0384311453, 0.0151477279, 0.0759910867, -0.0262301937, -0.0241512693, -0.0460143387, -0.0241474975, 0.0443494953, -0.0375059508, -0.0180636514, 0.0380096324, -0.0335192867, 0.0624592230, 0.0362310112, -0.0472262241, 0.0278171264, 0.0018758530, 0.0049341000, -0.0161181036, 0.0175706390, 0.0785835087, -0.0593771525, -0.0246804338, 0.0611831173, -0.0570531785, -0.0332557447, -0.0660760775, 0.0508566499, -0.1472464055, -0.0162003674, -0.0204457212, 0.0090044877, -0.0629869029, -0.0658666193, -0.0814417377, -0.0721638575, -0.0334537365, 0.0122200726, 0.1329755336, -0.0450848639, -0.0307847466, 0.0042735459, 0.0314499773, 0.0955019146, 0.0026521934, 0.0196530111, 0.0350569002, 0.0478243828, -0.0386590026, -0.0497092642, -0.0444920138, 0.0034300573, -0.0306311026, -0.0177866966, -0.0004822163, 0.0067235650, -0.0452765822, -0.0703392848, 0.0211508963, -0.0368815325, -0.0086722998, 0.0241642278, -0.0945010260, 0.0184649583, 0.0285670646, -0.0461670943, 0.0274909139, -0.0123667344, -0.0382179357, -0.0184990857, -0.0218105074, 0.0043168622, -0.0229462963, -0.0237844624, 0.0262508728, 0.0920034572, 0.0277769845, 0.0169191603, -0.0165237617, 0.0343751125, 0.0358995572, -0.0216302592, -0.0289009623, -0.0407069996, -0.0037496733, -0.0369211473, -0.0545841344, 0.0721550286, 0.0407399982, 0.0212270562, 0.0118324589, 0.0438551009, -0.0369897634, 0.0412203707, -0.0044507710, -0.0513766296, -0.0246169828, 0.0147167528, -0.0341732018, -0.0389118493, 0.0375301428, 0.0128235919, 0.0424723402, -0.0654856861, -0.0473911129, -0.0320720933, -0.0030628254, -0.1563269645, -0.0111459540, -0.0051727085, -0.0511737131, -0.0006875276, 0.0437385365, 0.0292149782, 0.0398345999, 0.0215566494, 0.0732661337, 0.0141329123, -0.0669460446, 0.0967151150, 0.0155936293, 0.0003068067, 0.0008442996, -0.0464415886, 0.0306753088, 0.0153008904, -0.0473227724, -0.0260890536, -0.0594094843, 0.0555414036, -0.0209899005, -0.0008388791, 0.0529784188, -0.0072405008, -0.0942867622, 0.1258315742, 0.0038919093, -0.0664376467, -0.0430103093, -0.0079673808, 0.0426389538, 0.0151544260, -0.0363798067, -0.0116248149, -0.0400456451, -0.0374736525, -0.0572268702, 0.0110185063, 0.0128970295, 0.0432756729, -0.0807019621, 0.1134350747, -0.0053046029, -0.0640779436, -0.0609633252, -0.0259840116, 0.0053622369, 0.0310905091, 0.0543332621, 0.0448190197, 0.0085359747, -0.0479606055, -0.0320468247, 0.0170028433, 0.0031925885, -0.0340302959, -0.0679782405, 0.0367572159, 0.0172990039, 0.0155824674, 0.0168333240, -0.0822440609, -0.0052955919, -0.0225171316, -0.0538816527, -0.0501125418, -0.0475035906, -0.0122413309, 0.0100171650, -0.0266308207, 0.0432964973, 0.0108561097, -0.0354099348, 0.0133480011, 0.0015060632, -0.0415977240, 0.0048652501, 0.0481829904, -0.0286327116, -0.0198506024, -0.0608583316, 0.0089340117, -0.0176363848, -0.0364723802, -0.0571089461, -0.0657156259, 0.0536237732, 0.0077426261, 0.0171459019, 0.0264216978, -0.0340051353, 0.0055872491, 0.0143089034, 0.0207228716, -0.0703464672, -0.0340358242, -0.0118017560, -0.0519183353, 0.0141837010, -0.0887105539, 0.0014369239, -0.0468031578, -0.0148957605, -0.0396629497, 0.1102777496, 0.0154830515, -0.0462426580, -0.0563452058, 0.0489849038, -0.0432858802, 0.0302580874, 0.0434045829, -0.0016821082, 0.0238868352, 0.0554086640, -0.0312765278, 0.0848800391, 0.0533361509, 0.0621225536, 0.0484745614, 0.0417207517, 0.0377262570, 0.0439189933, 0.0080466419, 0.0123535907, -0.0017369353, -0.0016318427, -0.0111921690, 0.0023046562, -0.0617390536, -0.0149186859, -0.0351047926, -0.0136805875, -0.0086028501, 0.0283891354, -0.0114705972, 0.1114801839, -0.0513594486, -0.0446648560, -0.0687819049, 0.0457889996, -0.0415581949, -0.0731056854, -0.0433334894, -0.0489785150, -0.0706048161, -0.0283074435, -0.0417339727, -0.0506251492, -0.0858002603, 0.1128048599, -0.0077269170, 0.0188086350, 0.0854567885, 0.0477123335, 0.0207888000, -0.0028650132, 0.0599553809, 0.0628931150, -0.0039594183, -0.0119748497, 0.0441407710, -0.0441192724, 0.0313231125, -0.0725567639, 0.0257878006, -0.0066004572, -0.0256539211, -0.0071939100, -0.0181733016, -0.0480290279, -0.0328615941, 0.0117790317, 0.0930979028, 0.0028439611, 0.0233811140, -0.0595079884, 0.0374863334, -0.0593680665, -0.0823689401, 0.0412938185, 0.0024867537, 0.0345870703, 0.0475298241, 0.0322293043, 0.0125027131, 0.0275502522, -0.0083447425, 0.0170863438, 0.0410493799, 0.0399352573, -0.0383317918, -0.0633061826, -0.0412234850, 0.0376068689, 0.0205843244, 0.0340125449, 0.0372374542, 0.0508846864, -0.0112567190, 0.0722675100, -0.0042166868, -0.0448656902, 0.0187727511, 0.0108584473, 0.0001692742, -0.0349799916, -0.0340618342, -0.0242950991, 0.0037053577, -0.0169173572, -0.0141977109, -0.0618389547, -0.0357028656, 0.0243133623, -0.0034798195, 0.0817092434, 0.0013502392, 0.0275867563, 0.0176173262, -0.0592048317, -0.0431963094, 0.0639737695, -0.0217344481, -0.0670076236, -0.0557824522, -0.0083378265, 0.0018751810, -0.0285044592, -0.0025389695, -0.0176802296, 0.0584837757, -0.0215881858, -0.0491441414, 0.0020106309, 0.0240305066, -0.0099066310, -0.0304639973, 0.0696352050, -0.0507481880, -0.0827071816, -0.0253851619, -0.0243486110, 0.0395223126, -0.0022649313, 0.0240394510, 0.0943726823, -0.0166318920, -0.0367534012, 0.1578827798, 0.0313367993, 0.0064316844, 0.0218732376, 0.0322249979, -0.0182121098, -0.0550612509, -0.0534781367, -0.0062596495, -0.0005998100, -0.0557035543, 0.0284731817, -0.0305187367, -0.0516337231, -0.0403992869, -0.0310517401, -0.0032595098, -0.0574418306, 0.0095286369, 0.0071830535, -0.1466406286, -0.0299724322, 0.0399555825, 0.0056028017, -0.0410763212, -0.0287436321, -0.0046545919, 0.0809943154, 0.0329749286, 0.0517055951, -0.0209161527, 0.0431087129, 0.0549108386, -0.0280344244, -0.0569352992, -0.0193029754, 0.0654638112, -0.0189836007, -0.0435036235, -0.0223899465, 0.0121455304, 0.0335640870, -0.0535998866, 0.0476833880, -0.0193199478, 0.0255969353, 0.0111007765, 0.0480608232, 0.0144860242, 0.0109088290, -0.0059711654, 0.0257323831, 0.0118560018, -0.0087339059, 0.0333562754, 0.0409876816, -0.0370104685, -0.0251083523, 0.0023630019, 0.0480132326, 0.0606310591, 0.0590995885, -0.0470561162, -0.0178816263, -0.0179525446, 0.0221246630, 0.0535699204, 0.0117883030, -0.0141042043, 0.0731573626, 0.0071670148, -0.0329810567, -0.0262217391, 0.0770206377, -0.0155422017, 0.0450136214, -0.0029524199, 0.0071377684, -0.0160688534, -0.0526610948, 0.0209240895, 0.0349541232, -0.0355775058, 0.0331485569, 0.0335730128, -0.0145064611, 0.0000389149, -0.0373620018, -0.0466700904, 0.0342720300, -0.0353573970, -0.0550101958, -0.0279587414, 0.0770814419, 0.0226016548, -0.0834171772, 0.0859209374, 0.0350187086, 0.0387064368, -0.0527943075, 0.0526819155, 0.0012051244, 0.0438753143, -0.0343236998, -0.0083964765, -0.0157797895, 0.0320429616, 0.0645054877, 0.0179064162, -0.0294273570, -0.0220924020, -0.0675234422, -0.0471667349, 0.0149124041, 0.0340093523, -0.0469343439, -0.0206859522, -0.0142457113, -0.0299232658, 0.0039003133, -0.0317355059, 0.0078502819, -0.0213677790, -0.0026589583, 0.0407063365, 0.0227698833, -0.0009475491, -0.0418198109, 0.0188352615, 0.0442762189, 0.0481638871, 0.0290118288, -0.0462190434, -0.0172854345, -0.0278733745, -0.0588897653, -0.0727567449, 0.0086444439, 0.0329538547, 0.0477670915, 0.0208123345, 0.0968510285, -0.0026762001, -0.0168653727, -0.0125012668, -0.0511987433, 0.0595848635, 0.0151402550, 0.0244912971, 0.0444285125, -0.0191450715, 0.0190475956, -0.0469552204, 0.0028651336, -0.0378844701, 0.0576508678, 0.0331312604, 0.1032907963, -0.0328471251, -0.0078240177, 0.0229293369, 0.0315124243, -0.0471784920, -0.0341117196, -0.0218129270, 0.1260420233, -0.0653357357, 0.0003843735, 0.0162611660, 0.0151143195, 0.0436943211, 0.0324529223, -0.0422280356, -0.0155630726, -0.0023054914, -0.0820710883, 0.1086935103, -0.0449821725, 0.0110281035, 0.0045976555, 0.1001065895, -0.0607289635, -0.0716630891, -0.0474934094, 0.0195123889, -0.0643780977, -0.0363955498, -0.0670014173, -0.0671286806, -0.0595049970, 0.0118204523, 0.1237699538, 0.0052936068, -0.0049520060, -0.0575407892, -0.0077934251, 0.0375941657, 0.0541761369, 0.0326237008, -0.0388848558, -0.0513823479, -0.0625764877, 0.0448075980, -0.0073726904, 0.0418983959, 0.0390110463, 0.0015687126, -0.1542631984, 0.1529487520, -0.0008893741, -0.0426337980, -0.0068041254, -0.0393343456, -0.0223899242, 0.0206041932, -0.0690578446, 0.0096489061, -0.0475439169, -0.0316462964, -0.0084849950, -0.0041822717, -0.0076069501, -0.0456165932, 0.0772518516, 0.0280786697, -0.0324708894, -0.0343837813, 0.0520191528, 0.0744196400, 0.0541898832, -0.0545800030, 0.0021909922, -0.0203234460, -0.0525344871, -0.0355533697, -0.0080293557, -0.0512374304, -0.0350451916, -0.0132414885, -0.0194356814, 0.0353329182, -0.0377424844, -0.0343564190, 0.0647335052, -0.0640314221, 0.0188328177, 0.0262769796, -0.0012356490, -0.0580359772, 0.0130880633, 0.0141527299, 0.0064730244, 0.0235044826, 0.0502651855, -0.0007148953, -0.1244840771, 0.0744234994, -0.0523773134, -0.0291390587, 0.0779009014, -0.1257412136, 0.0676820502, 0.0312536471, 0.0134008424, 0.0414407849, -0.0207985006, -0.0254996214, 0.0595577806, -0.0166051127, 0.0696179271, -0.0504879542, -0.0132576935, 0.0647969693, -0.0562629811, -0.0745295510, 0.0563837476, -0.0358106680, -0.0235405508, -0.0015560406, -0.0776585862, -0.0063228267, -0.0392555743, -0.0047303550, 0.1065187454, -0.0319811143, 0.2131405324, -0.0247703474, -0.1882268488, 0.1653486490, -0.0350655317, -0.0169058274, -0.0396094918, -0.0247555003, -0.0004096159, -0.0041510863, -0.0769507587, -0.0434443988, -0.0031798177, -0.0480946414, 0.0270181168, -0.0275270455, 0.0742452517, 0.0362242907, -0.0855042413, 0.0372320116, 0.0231692083, -0.0678396076, -0.0305637103, 0.1070314273, -0.0119885765, 0.0330005325, -0.0171172787, 0.0004296324, 0.0289486051, -0.0153123494, -0.0478501022, -0.0180253778, 0.1216871291, 0.0213955641, -0.1051751673, 0.0546622723, -0.0379128158, 0.0234004110, 0.1592986137, -0.1462339014, 0.0447249822, -0.0596564524, 0.0147353662, 0.0201876387, 0.0219952539, -0.0174986236, 0.0643968433, -0.0615654886, 0.1313126236, -0.0309405588, -0.1152412668, 0.1822770983, 0.0109580047, -0.0493047461, -0.0266731940, 0.0703097805, -0.1033173278, 0.0098967766, -0.0214232728, -0.0041675754, -0.0565508604, -0.0380922109, 0.0209353808, -0.0572057292, -0.0159406550, 0.0149685992, 0.0163448080, 0.0312751047, 0.0352066532, -0.0578481853, 0.0511395335, 0.0808893815, -0.1317644566, -0.0761406124, -0.0539662465, -0.0215853732, -0.0450938158, -0.0739726648, -0.0447655916, -0.0347080640, -0.0399225764, -0.0368714072, 0.0790215135, -0.0475777425, 0.0358960107, -0.0296824537, 0.0021744759, 0.0151818907, -0.0761077404, -0.0541210324, 0.0437499695, 0.0374165475, -0.0045313216, 0.0067389417, -0.0185402092, -0.0310298987, -0.1009511724, 0.0041062050, 0.0307782069, -0.0567782149, -0.0048924582, -0.0328634940, 0.0138040874, 0.1497404575, -0.1546677798, -0.0582181513, -0.0686840117, -0.0627557710, -0.0125907585, -0.0874569044, -0.0434293114, -0.0422382727, -0.0389336944, 0.0425690264, 0.0016648211, -0.0542439893, 0.0200930331, 0.0315090939, 0.0015054567, 0.0258010626, -0.1099915504, -0.0614425279, 0.0231006686, 0.0275862440, -0.0765230730, 0.0046943533, -0.0081915334, -0.0106737893, -0.0466279797, 0.0151037164, 0.0094330851, 0.0603273101, -0.0076716151, 0.0050792750, 0.0528269745, -0.0459724963, 0.0493379869, -0.0121299475, 0.0096667511, -0.0216889642, -0.0294266678, 0.0662278011, -0.0004843343, 0.0054892516, 0.0596270263, 0.0294409487, 0.0472230017, 0.0843120441, -0.0459252559, -0.0346363932, -0.0126817590, -0.0127266580, 0.0091480529, -0.0115327835, -0.0518031865, 0.0277805999, 0.0364205241, -0.0241782628, 0.0389348529, -0.0366841629, -0.0321173929, 0.0155341495, -0.0532980710, 0.0655334890, 0.0238266606, -0.0516087115, 0.0538012758, -0.1183002964, 0.0858831257, -0.0156457871, 0.0409301408, -0.0266645532, -0.0023208428, 0.0463999957, 0.0489803590, -0.0186688863, 0.0908922777, -0.0062065953, 0.0353045128, 0.1293547004, 0.0126435831, -0.0222102087, -0.0270202179, 0.0855120867, -0.0928448215, -0.0710235983, -0.0194496885, 0.0026070515, -0.0821978897, -0.0732028037, 0.0389972925, -0.1081002876, -0.0047560632, -0.0364965498, 0.0067041432, 0.0392603986, 0.0006853219, 0.0176957808, -0.0250133518, 0.0500513799, 0.0029906200, -0.0083160941, -0.0451067016, -0.0267608427, 0.0032845917, -0.0000502116, -0.0513715819, 0.0011392469, -0.0366107002, -0.0482557490, 0.0047192825, 0.0011645943, -0.0442156196, -0.0440079905, 0.0746218413, -0.0576422587, -0.0015028078, -0.0585239604, -0.0330705717, -0.0316806287, -0.0261796769, -0.0464187004, 0.0289834291, 0.0093403533, -0.0246977620, 0.0587467887, -0.0566891134, 0.1168744937, -0.0095456103, 0.0164114516, -0.0571953692, -0.0208008420, 0.0350543372, 0.0193109140, 0.0277296640, 0.0290920790, -0.0140009224, 0.0175361037, -0.0373708159, 0.0063737682, -0.0919602588, 0.0226724651, 0.0697852895, -0.0736785010, -0.0150972586, 0.0253398363, 0.0122779077, -0.0048367307, 0.0110131754, -0.0239640642, 0.0272048134, 0.0366217494, 0.0701310039, -0.0680857003, -0.0241384469, -0.0073663276, 0.0024271000, -0.0024808806, 0.0071106157, -0.0335005559, -0.0138922967, 0.0522022098, -0.0116782635, -0.0103577618, -0.0076317303, -0.0544489697, -0.0405107811, -0.0017637480, -0.0044109286, -0.1121734008, 0.0214483645, -0.0425035991, 0.1433973461, -0.0185638778, 0.0757370070, -0.0185494125, -0.0480845273, 0.0152764134, -0.0022424324, 0.0404742621, 0.0140895564, 0.0412048548, -0.0068544755, -0.0129865054, -0.0535201542, 0.0056941435, -0.0756911039, -0.0454573892, -0.0241389759, -0.0044492455, 0.0869003087, -0.0211972818, 0.0093515189, -0.0433591530, -0.0139648532, -0.0103109172, 0.0290323626, 0.0204507615, -0.0663908795, -0.0406020507, -0.0105089610, -0.0295060892, -0.0007402508, -0.0019147780, 0.0392996110, 0.0017566887, 0.0659652203, -0.0720427111, 0.0469298847, -0.0702597201, -0.0025697793, 0.0849136114, 0.0251426101, -0.0119200610, -0.0327706188, 0.0183894970, -0.0661179423, 0.0283062886, -0.0329752490, -0.0743092746, 0.0369437896, 0.0213723145, -0.0018412358, 0.0504090376, -0.0032619121, -0.0213324688, 0.0597132966, -0.0494905151, 0.0111801773, -0.0391817316, -0.0158876795, -0.0238296278, 0.0380734205, -0.0718319863, 0.0098143816, 0.0132771693, 0.0355328619, 0.0169585608, -0.1056537256, 0.0755729750, 0.0063643223, -0.0265721753, -0.0099878991, 0.0167857409, -0.0351882838, 0.0526265390, 0.0329899229, -0.0510361567, -0.0057493844, 0.0169145092, -0.0023740018, -0.0161105040, -0.0391417220, 0.0345054790, 0.0439227298, 0.0054710093, 0.0146113513, -0.0365066081, 0.0121690091, 0.0014145973, -0.0623347759, 0.0298281442, 0.0488243662, -0.0492979437, 0.0198957901, 0.0132440664, -0.0128229978, -0.0378315896, 0.0112648904, 0.0316737965, 0.0829979479, -0.0182258077, 0.0228231922, -0.0667922944, -0.0226114709, 0.0431903526, 0.0752649084, -0.0104943672, -0.0460063107, 0.0285613295, -0.0131336134, -0.0254931003, 0.0574493147, -0.0223195069, -0.0021311068, 0.0369443223, -0.0294334069, -0.0019812426, -0.0152027654, -0.0501841195, 0.0851305425, -0.1300794780, 0.0170742515, 0.0662607774, -0.0003381453, -0.0092883594, 0.0212032143, -0.0428155623, 0.0062050447, -0.0309542101, 0.0329964943, -0.0083160419, 0.0652951300, -0.0223653205, -0.0264533497, 0.0462121479, 0.0162211526, 0.0564584136, -0.0317018777, -0.0024870217, -0.0554320849, 0.0031832850, -0.1137777790, -0.0582275465, -0.0252848454, -0.0615471713, 0.0208378378, 0.0245068632, 0.0220574383, -0.0371201076, -0.0196730811, -0.0579213463, 0.0425533727, -0.0430169329, -0.0744369626, -0.0284512918, -0.0776910707, 0.0067289285, -0.0222845003, -0.0470249429, 0.0330483541, 0.0046354416, 0.0227610152, -0.0061423304, -0.0645778775, 0.0987507477, 0.0261583403, 0.0187601801, -0.0347585157, 0.0457918346, -0.0223087054, 0.0074847578, -0.0829361081, 0.0245035272, -0.0115236342, -0.0634171367, 0.0230283923, -0.0202058051, -0.0226652510, -0.0570608377, 0.0094058635, -0.0033892852, -0.0017073865, -0.0681265369, -0.0367137901, -0.0593378581, -0.1081224605, -0.0256857276, -0.0349713378, 0.0119113112, -0.0631834641, 0.0364194550, 0.0334741995, 0.0256697424, 0.0805148929, -0.0553486682, -0.0534948967, 0.0463075452, 0.0226586219, -0.0043568658, -0.0209651664, 0.0506504551, -0.0204233136, 0.0247893743, -0.0426575691, 0.0328278467, 0.0348251127, 0.0317808762, 0.0112401927, 0.0196701661, 0.0721705779, -0.0387881845, -0.0132333571, -0.0336378329, -0.0370391421, -0.0586775653, 0.0107511021, -0.0806609988, -0.0059124413, 0.0204547569, -0.0186940525, -0.0243576318, 0.0412552990, -0.0435599945, 0.0370150618, -0.0574011467, 0.0197354928, -0.0529154092, 0.0808126479, -0.0665586889, -0.0131736854, 0.0211859215, 0.0907649621, -0.0396602489, 0.0729019418, 0.0394318812, -0.0060598017, -0.0506264865, -0.0509164482, -0.0309126228, 0.1592055559, 0.0387589335, 0.2103793323, 0.0379124172, -0.1640812755, 0.1025738567, -0.0038268333, -0.0056825154, 0.0160497129, -0.0456374250, -0.0281951111, -0.0388335139, -0.0105174631, -0.0273414142, 0.0269752387, 0.0271381289, 0.0137829436, -0.0191273224, 0.0365419798, -0.0270605553, -0.1054080799, 0.0669819564, 0.0190367848, -0.0502486490, 0.0404791422, 0.0536129922, 0.0060205813, 0.0341899432, -0.0908484459, -0.0147283021, 0.0467213541, -0.0655638054, 0.0267068315, -0.0514497943, 0.0821150988, -0.0194365382, 0.0154189477, -0.0280830264, 0.0192035679, -0.0337861776, 0.1587046385, -0.1837121397, 0.0005315100, -0.0503516644, -0.0760888010, 0.0065415301, -0.0001039012, 0.0021368479, 0.1202010438, -0.0202087257, 0.1263630390, -0.0187975969, -0.1047404334, 0.1397483945, 0.0186899975, 0.0404747501, 0.0161356311, 0.0456720516, -0.0110022686, -0.0655902773, -0.0067535657, -0.0560698695, -0.0680507123, -0.0661630109, -0.0133263813, 0.0091139777, -0.0055785449, -0.0087077003, 0.0413985066, -0.0161175951, 0.0264739823, -0.0416133143, -0.0388833024, 0.0600150898, -0.0297381040, -0.0122204246, 0.0074128364, -0.0321499407, -0.0373192243, -0.0334588401, 0.0204905607, 0.0010449028, -0.0178837217, 0.0404509939, 0.0576344132, 0.0132833291, -0.0550591126, 0.0179990027, -0.0140359169, 0.0272163916, 0.0175990686, 0.0283743329, -0.0092628477, 0.0338600576, 0.0330675840, 0.0586471781, 0.0136085451, 0.0296151750, 0.0222357307, 0.0419015437, -0.0738462731, 0.0144120250, -0.0210347194, -0.0377215184, -0.0007453103, 0.0520450994, -0.1488008350, -0.0492501445, -0.0375506058, 0.0207559187, -0.0588664934, -0.0198219959, -0.0035025920, 0.0077495058, 0.0414681062, -0.0135471942, 0.0174630433, -0.0108819176, 0.0349021032, 0.0278358087, 0.0061528618, 0.0267036129, -0.0013940809, 0.0128121637, -0.0623872504, -0.0140713109, -0.0491986908, 0.0327040367, 0.0259053186, 0.0591489710, -0.0146270934, 0.0032676405, 0.0370960981, -0.0357891396, -0.0365217067, 0.0055818576, -0.0106642833, 0.0209710188, 0.0726869702, 0.0157734193, -0.0592474043, -0.0382343605, 0.0288106259, -0.0916067734, 0.0460558981, -0.0441866480, 0.0775032789, 0.0074572419, 0.0537854582, -0.0666771606, -0.0236255955, -0.0304029658, 0.0323397778, -0.0048923474, -0.0321485586, 0.0546260998, 0.0034438856, -0.0411665700, -0.0398372859, -0.0676634610, -0.0494712628, -0.0178047903, 0.0022170097, 0.0026737915, 0.0530345254, -0.0000194710, -0.0135975452, -0.0062706452, -0.0018613753, 0.0693131760, -0.0707995966, -0.0099740541, 0.0363236107, -0.0060463003, -0.0650521517, 0.1003269628, -0.0300063454, -0.0047123171, 0.0134033514, 0.0276314262, 0.1013284326, 0.0457928553, -0.0234359782, 0.0087155299, -0.0079265358, 0.0010173252, -0.0914473608, 0.0105315614, -0.0011741868, -0.0084161405, -0.0969030261, -0.0526211746, 0.0509052016, -0.0486682206, 0.0521294102, -0.0023273216, 0.0322745740, 0.0593285561, 0.0263411086, -0.0563149974, 0.0618815459, -0.0234724730, 0.0110300258, 0.0147317545, -0.0005414503, -0.0479750633, -0.0352617428, 0.0133117530, -0.0060237506, -0.0368943624, 0.0806435347, 0.0439397022, 0.0231172703, -0.0912731141, -0.0085384743, -0.0025693171, 0.1048143879, -0.0418005586, -0.0307320394, -0.0496933050, -0.0447623543, -0.0244910996, -0.0201787613, 0.0299132876, 0.0620218627, 0.0230831243, 0.1359197646, -0.0165220089, -0.1631154567, 0.1889833808, 0.0140947280, -0.0566426404, -0.0122573795, 0.0481505394, 0.0045803497, 0.0424839444, -0.0455500707, 0.0179275703, -0.0238595065, -0.0312853791, 0.0085985214, -0.0594714023, 0.0090186950, -0.0354411118, -0.0819323882, -0.0239313543, -0.0129663339, -0.0140308375, 0.0179894473, -0.0202838685, 0.0333233438, 0.0185349137, 0.0252236128, 0.0053175553, -0.0062935231, 0.0211238340, -0.0157338716, -0.0251561720, 0.0509006269, 0.0160857178, 0.0304822233, 0.0050585005, 0.0336137339, 0.0547276735, -0.0001288190, 0.0052531371, 0.0401372015, -0.0140957162, -0.0005302055, -0.0197849087, -0.0207633581, 0.0190018862, -0.0793866515, 0.0040793843, 0.1277593672, 0.0132229757, 0.0803237408, -0.0029444022, -0.0579400547, -0.0240788572, 0.0390878208, 0.0860847905, -0.0083835199, -0.0208807439, 0.0526438281, -0.0418101624, -0.0467487462, 0.0181405153, -0.0210357625, 0.0221951790, -0.0015434901, 0.0090931477, -0.0984078944, 0.0700381845, 0.0002174317, 0.0038322066, 0.0386943258, -0.0064758183, -0.0273492355, -0.0560836568, -0.0738100335, -0.0162345637, -0.0040073204, -0.0546869636, -0.0023367838, -0.0738593042, 0.0019340906, -0.0092751822, 0.0926171243, -0.0325693227, 0.0251004603, 0.0255279317, 0.0214670692, 0.0110169649, 0.0206561815, 0.0039332951, -0.0933311731, 0.0345457830, -0.0038559400, 0.0026371211, 0.0573184825, -0.0168729313, 0.1159486920, -0.0404791199, -0.1403467208, 0.0830226168, 0.0327479281, 0.0335916318, 0.0611031614, -0.0237915721, 0.0285619460, -0.0482440405, -0.0137517108, -0.0455099232, -0.0019036224, -0.0491554514, 0.0019135411, -0.0131932087, 0.0955561697, -0.0578924157, -0.1073709354, 0.0856981203, -0.0136738457, -0.0082599614, -0.0057844152, -0.0455648229, 0.0521917529, -0.0084447991, 0.0412588939, 0.0146102365, -0.0374667943, 0.0573395565, -0.0309548490, 0.0209102426, -0.0332907252, 0.0126219066, -0.0505097844, -0.0275152251, -0.0501697809, 0.0101875989, 0.0513590127, 0.0985001996, -0.0869885460, -0.0753239840, -0.0306089073, -0.0630491599, -0.0976385847, -0.0291577559, -0.0118187312, -0.0785002261, 0.0216704886, -0.0093312217, -0.0143812755, -0.0121875033, -0.0501358472, -0.0011455383, 0.0172606483, 0.0105256988, 0.0472408198, 0.0054456950, -0.0533261970, -0.0531439856, -0.0365354419, 0.0102098156, -0.0424088836, -0.0409922265, 0.0837536976, 0.0265643653, 0.0113725029, 0.0131775914, 0.0055590104, 0.0158731937, 0.0785584301, -0.0288037434, 0.0313099287, -0.0186202116, -0.0211769585, 0.0121412063, -0.0301428530, -0.0223332103, 0.1030548662, -0.0566824079, 0.1325292289, -0.0210166685, -0.0182061289, -0.0696489587, 0.0050408700, -0.0321446732, -0.0030019644, -0.0252010878, -0.0145917684, -0.0198573712, -0.0875619128, -0.0061277198, -0.0380741693, -0.0239181649, 0.0608138740, 0.0261923242, 0.0606565811, 0.0239961222, 0.0146771092, 0.0211534072, -0.0079110786, -0.0530063324, 0.0179098360, -0.0650757924, 0.0032897855, 0.0398999304, -0.0528457984, -0.0540173538, -0.0293361172, -0.0571074933, 0.0573511049, -0.0356289707, 0.0470606461, 0.0270135272, -0.2160472274, 0.0556148663, -0.0533925705, -0.0371054150, 0.0103634540, -0.0594284981, -0.0166399237, -0.0616057143, -0.0141046857, 0.0295829009, 0.0349360146, -0.0196935944, -0.0289924499, 0.0136517566, -0.0024978016, -0.0372289941, 0.0011483571, 0.0207516216, 0.0292402692, -0.0725027546, 0.0661362633, -0.0379574783, 0.0254701655, 0.0233664624, -0.0623202883, -0.0425650254, -0.0787193105, -0.0136263464, 0.0143724214, 0.0086118951, 0.0202387683, -0.0240430292, -0.0068120155, -0.0214907341, -0.0126730809, -0.0159147587, 0.0655888692, 0.0142815784, 0.0065859966, -0.0527596623, -0.0384631604, 0.0286680218, -0.0627235174, -0.0164562501, 0.0663264766, 0.0088319071, 0.0863103941, -0.0000749549, -0.1388856322, 0.0396677516, -0.0192438830, -0.0370568074, -0.0192959756, 0.0241338946, 0.0481118411, -0.0295649003, 0.0184999574, -0.0305364151, -0.0303507838, -0.0288011208, 0.0735530928, -0.0116014900, 0.1002597734, 0.0461113863, -0.0086888876, -0.0687607825, -0.0209818501, -0.0531285964, 0.1418085247, -0.0779139772, 0.1014419720, 0.0322952233, -0.0440903082, -0.0047262614, 0.0265460573, -0.0119184367, 0.0679380819, 0.0253672246, 0.2740239203, -0.0136952382, -0.2808029056, 0.1339013129, 0.0371501409, -0.0228849649, 0.0154893631, -0.0970929340, -0.0098998379, -0.0509815328, -0.0640039966, 0.0207786262, -0.0006972905, -0.0351575054, 0.0518902242, -0.0639243424, 0.0677626207, 0.0006915798, -0.0404894650, 0.0170095041, 0.0138472626, -0.0605758093, 0.1020870283, 0.0311764013, -0.0031619628, -0.0032004933, -0.0292848665, -0.0400550626, -0.0372995697, -0.0574848987, 0.0912881941, -0.0523183644, 0.2091336250, -0.0297982693, -0.1242810115, 0.0210216790, 0.0407113992, 0.0015300155, 0.2109241784, -0.2421328872, -0.0443450361, 0.0310303606, 0.0136295483, -0.0355218537, -0.0164851062, 0.0405797362, 0.1630518585, -0.0680620372, 0.2662384510, 0.0398553275, -0.2477912754, 0.0935708508, -0.0245183613, -0.0118067255, -0.0261513684, -0.0114919208, -0.0496355444, -0.0222787894, -0.0478487313, -0.0123128416, -0.0061292872, -0.0448860563, -0.0039730887, 0.0059960466, 0.0333413407, -0.0328250378, 0.0514309406, 0.0045765052, 0.0119610662, 0.0175833516, 0.0317343473, 0.0439229123, -0.0381742120, -0.0793187618, 0.0408610515, 0.0301187634, -0.0577468649, -0.0354910642, 0.0428143255, 0.0337263383, -0.0251863319, -0.0169997849, -0.0035253256, 0.0358421057, 0.0279553682, -0.0199695043, 0.0295588281, -0.0282230191, 0.0065450207, 0.0233596172, -0.0137600498, -0.0306543093, -0.0192751959, -0.0061364761, 0.0594837628, 0.0480831936, 0.0212447941, -0.0564170703, -0.0767118633, 0.0168896522, -0.0453599133, 0.0674744323, 0.0610648952, -0.0818236321, -0.1523383558, 0.0074733170, -0.0442111641, -0.0432742275, -0.0206966400, -0.0196783636, 0.0739357919, 0.0179817472, 0.1579573303, 0.0361568406, -0.0762085095, -0.0100252880, 0.0248286556, -0.0574741811, -0.0132445265, -0.0224151257, -0.1076549366, -0.0396024622, 0.0213815235, -0.0362884514, -0.0010031515, -0.0255649127, 0.0227518808, -0.0306035932, 0.0822785646, -0.0042094262, -0.0133516109, 0.0549252965, 0.0131132379, 0.0011730428, 0.0481633395, -0.0163089018, -0.0203340147, -0.0015799410, -0.0503358394, -0.0174171887, 0.0443877168, 0.0191233791, 0.0196964741, 0.0517206453, 0.0667808652, -0.0334146246, 0.0543320216, -0.0500477664, -0.0128662949, 0.0020423473, 0.0228934549, -0.0027269421, -0.0366698578, 0.0527333058, 0.0373209640, 0.0058268649, 0.0170971714, -0.0640557185, -0.0638996735, -0.0172593929, 0.0211468991, -0.0144615034, 0.0720632002, -0.0623718537, -0.0378227383, 0.0336128101, -0.0321781039, 0.0625756904, -0.0915300995, -0.0090129375, -0.0426531956, -0.0253185499, -0.0901978239, -0.0018718339, 0.0106020942, -0.0646278858, -0.0828362331, 0.0498057529, 0.1767196804, 0.0179448240, 0.0378726572, -0.0221469458, 0.0272085425, -0.0285019074, -0.1049099341, 0.0021777283, -0.0559212156, -0.0237539914, -0.0797625408, -0.0383420959, 0.0677548051, 0.0621606372, 0.1085911989, -0.0532328635, -0.0553189255, 0.0281825587, -0.0141223148, -0.0344292857, 0.0287498068, 0.0383249074, -0.0161007252, -0.0133613059, -0.0052606007, -0.0118203005, 0.0219788309, -0.0093014902, -0.0048767552, -0.0757532865, 0.0256237760, 0.0054923124, 0.0294614639, 0.0160124637, 0.0469822399, 0.0299509075, 0.0723651350, -0.0907006413, 0.0413235202, -0.0070809149, 0.0310338177, -0.0284251850, -0.0548628345, -0.0256995894, 0.0955498666, 0.0074991095, 0.1780529618, -0.0597877651, -0.2057574391, 0.1928309947, 0.0257431194, -0.0071004801, -0.0464148559, -0.0099752760, -0.0474983081, 0.0425132141, 0.0149027864, 0.0379034057, 0.0252276063, 0.0220492072, -0.0174288545, -0.0314244069, -0.0601173677, 0.0088008679, 0.0142896064, -0.0486722179, 0.0248020925, 0.0218975432, -0.0561793819, 0.0053560082, 0.0437866449, -0.0210762862, -0.0626810044, -0.0154401381, 0.0100791166, 0.0141421333, -0.0501988754, 0.0187301319, 0.1530534774, 0.0090787802, -0.0606450699, 0.0757160932, 0.0226480179, -0.0419766046, 0.0539430939, -0.0137281055, -0.0222690199, -0.0753070861, -0.0348866880, 0.0214960072, 0.0208483506, 0.0173546914, -0.0357492231, -0.0308122430, 0.0740127340, 0.0348407216, 0.1012844145, -0.0319148339, -0.0331798978, -0.0604703389, 0.0035314907, 0.0555498153, -0.0569743253, -0.0208822377, -0.0261192061, 0.0332005955, 0.0448175333, 0.0401697829, 0.0160682574, 0.0279051289, 0.0321798176, 0.0218777396, -0.0278401058, -0.0035831491, -0.0193132218, 0.0426608399, 0.0606213957, 0.0366000831, 0.0459748730, -0.0362267718, -0.0173726026, -0.0369362347, -0.0570849217, -0.0011609694, 0.0673617199, 0.0503288247, 0.0282028671, -0.0005097239, 0.0536660068, -0.0442983769, -0.0068639480, -0.0177723523, 0.1100700423, -0.0182329416, -0.0108282035, -0.0247558486, -0.0586779751, -0.0150783584, 0.0237133950, -0.0175325312, 0.1059468612, 0.0196128637, 0.1297056824, -0.0410465896, -0.1629461795, 0.1309907436, 0.0199803114, -0.0436277650, 0.0153606413, 0.0359043106, -0.0189071633, 0.0018036083, 0.0011939981, -0.0382004753, 0.0531283692, 0.0119719887, -0.0147307627, -0.0149923041, 0.0234450642, 0.0186122023, 0.0554107875, 0.0029333278, 0.0186576229, 0.0437456816, -0.0365808867, 0.0132035539, -0.0381907374, 0.0391199104, -0.0490310527, 0.0440307111, -0.0364786088, -0.0377349518, 0.0213607289, -0.0014371537, 0.0499521382, 0.0465963855, 0.0529888347, 0.0246023461, -0.0522541776, 0.0528657846, 0.0531661771, 0.0709556639, -0.0581832789, -0.0772181153, -0.0173507240, -0.0459569730, -0.0883357450, -0.0177810136, 0.0082357042, -0.0808157697, 0.0261224136, -0.0230812170, 0.0367827825, 0.0351384096, 0.0275448803, 0.0051358235, 0.0482094064, 0.0691784918, -0.0064603710, 0.0148168076, -0.0424110517, -0.0453079902, 0.0242697652, -0.0424409360, 0.0015618856, -0.0039503565, 0.0287122410, -0.0226908848, 0.0302840006, -0.0127324415, -0.0184173789, -0.0440120921, 0.0606764965, -0.0913060308, 0.0321433321, -0.0190082081, 0.0258178953, -0.0112934541, 0.0652428716, 0.0279303845, 0.0073532355, -0.0080538047, 0.0778171644, 0.0327972509, 0.0337697566, 0.0155761633, 0.0425669476, 0.0404403061, 0.0183255114, 0.0141920596, -0.0931108296, -0.0343957730, -0.0833466053, 0.0244655814, -0.0496130958, 0.0069587985, 0.0464369208, -0.1162455603, -0.0228960924, -0.0336495414, -0.0124123106, 0.0312225688, -0.0428930372, -0.0441895649, 0.0015910025, -0.0501324050, 0.0684100091, -0.0505052842, -0.0221166015, -0.0262589753, -0.0278420281, -0.0225321501, 0.0170915443, 0.0048573171, 0.0693863258, -0.0032643720, -0.3627668619, 0.1196841672, -0.0524845794, 0.0254785735, 0.0503668040, -0.0499156229, 0.0220190194, -0.0268028360, -0.0726888329, -0.0113827791, -0.0477207825, -0.0551392362, 0.0506217964, -0.0183670782, 0.0659171790, 0.0005197722, -0.0338203050, 0.0672018081, 0.0100079505, -0.0713896230, 0.0435073785, -0.0392094478, 0.0680169612, 0.0146861225, -0.0409922823, 0.0216522105, 0.0118059926, -0.0250661708, 0.0325862095, -0.0646003559, 0.1280943304, -0.0457864292, 0.0264903754, 0.0380269699, 0.0135847665, -0.0342521854, 0.0662367865, 0.0057948455, -0.0072585405, -0.0382090546, 0.0456535555, 0.0160253514, -0.0069992570, -0.0440109856, 0.0449058227, 0.0011316254, 0.0402355082, 0.0088356901, -0.1195906550, 0.1136534810, 0.0234084055, -0.0145233357, 0.0375430658, -0.0702648759, 0.0144536458, -0.0194100849, 0.0222628284, 0.0116280951, 0.0440219343, 0.0366637260, 0.0035714929, 0.0317111276, 0.0777184665, 0.0040184683, 0.0269197468, -0.0759460852, 0.0473819301, -0.0024735234, 0.1208833009, -0.0594336018, 0.1598289311, -0.0253640898, 0.0128609389, 0.0175061002, -0.0382556990, 0.0057395711, 0.0497740991, -0.0051871478, 0.1157406345, -0.0438004844, -0.1354568005, 0.1236875206, -0.0114741400, -0.0554342121, 0.0450431742, -0.0564463176, -0.0599504672, 0.0110699115, -0.0440424569, -0.0356422104, -0.0437004827, 0.0213565025, -0.0081644338, -0.0185592361, 0.0268258676, 0.0256449319, 0.0004208985, 0.0206763595, -0.0327410065, -0.0323563404, 0.0702412352, -0.0269482378, -0.0423578434, 0.0006367040, 0.0198983606, -0.0270085949, 0.0117394570, 0.0211352278, 0.1118249372, -0.0330814905, 0.2589195371, 0.0297201108, -0.2164257318, 0.1051437035, 0.0238331705, -0.0291644949, 0.1569935232, -0.2012099326, -0.0178251788, 0.0506608412, 0.0267613251, 0.0153193008, 0.0594620109, 0.0135927489, 0.1384234577, -0.0055980114, 0.3060615361, 0.0042204717, -0.2619837224, 0.2264361829, -0.0010487728, 0.0227969307, -0.1017234474, -0.0396141075, -0.0408922322, -0.0895164907, -0.0675316080, -0.0021235894, 0.0045419787, -0.0406031311, 0.0264207106, -0.0604944676, -0.0012582381, -0.0171950776, 0.0578492843, 0.0925841108, 0.0127465799, 0.0111702299, 0.0710619614, -0.0062905485, -0.0733441859, -0.0598046631, -0.0366840884, -0.0219336972, 0.0214400012, 0.0085867774, 0.0770702660, -0.0610505715, -0.0656616166, 0.0338427685, 0.0060641360, 0.0480113290, 0.0107603725, -0.0043228124, 0.0413700975, -0.0128908893, 0.0027874033, -0.0207557082, -0.0406387746, 0.0048399651, -0.0195724033, -0.0086340439, 0.0821940526, -0.0413117036, 0.0193386767, -0.0513007827, -0.0602201186, -0.0036691939, -0.0423809588, 0.0122881746, 0.1153840050, -0.0639698580, -0.0586361252, -0.0538235754, -0.0448165871, -0.0600313470, -0.0292440485, -0.0216738191, 0.0956816077, 0.0184082873, 0.2416801155, 0.0228683557, -0.1304682344, 0.1042606756, -0.0185717624, -0.0018154583, -0.0511179529, 0.0598713383, -0.0255690161, -0.0591855682, -0.0326317139, 0.0103751989, -0.0431389585, -0.0365616642, -0.0625611842, -0.0501077324, -0.0655722022, -0.0513191633, 0.1405286938, 0.0067712874, 0.0426770374, -0.0115496302, 0.0654446632, -0.0535164848, 0.0366602391, -0.0018175414, -0.0621639974, 0.0107360398, -0.0293796677, 0.0270360447, 0.0883870870, 0.0083174305, 0.1466102153, -0.0398472175, -0.0303993281, 0.0275645107, -0.0036147796, -0.0542425960, 0.0192852505, 0.0067128674, -0.0535992458, 0.0574817024, 0.0389013365, -0.0504504070, -0.0206620768, 0.0106666358, 0.0427933298, 0.0286440458, 0.0810430944, -0.0228720158, 0.1010799408, -0.1104521230, -0.0345140547, 0.0510668680, -0.0353456959, 0.0480654947, 0.0107900463, 0.0314170457, 0.0224513337, -0.0297246128, -0.0794756040, 0.0645129159, -0.0151366312, 0.0718231201, -0.0364556201, 0.0393810347, 0.1254707873, 0.0390339568, 0.0290854201, -0.0602494329, -0.0065822504, 0.0033472546, -0.0267360415, 0.0140419882, -0.0460310243, 0.0143568870, -0.0706047043, 0.0094423043, -0.0012616720, -0.0379305631, -0.1004856005, 0.0140707567, 0.0478491113, -0.0029392752, -0.0526608042, -0.0527303368, -0.0600930080, 0.0747207254, -0.0654545352, 0.0241913088, 0.0164182857, -0.0492949523, -0.0318529271, -0.0437587798, 0.0299769677, -0.0288159009, -0.0480886586, -0.0581248030, 0.1094404235, -0.0855298117, -0.0459973551, -0.0463277921, 0.0232963730, -0.0669665933, 0.0383018851, 0.0018565839, -0.0405055173, 0.0113641601, 0.0380013920, 0.0140842665, 0.0540184379, -0.0212064497, 0.1055976003, 0.0128684817, -0.2601287365, 0.1705369949, 0.0031403317, 0.0259548780, -0.0201116633, 0.0373089500, 0.0310924482, -0.0394279696, 0.0318238288, -0.0141177494, -0.0288897641, -0.0029464208, -0.0205164701, 0.0417203680, 0.0426765159, -0.0131902592, -0.0164969694, -0.0222017225, 0.0355452523, -0.0053808582, -0.0291572511, -0.0453071408, 0.0028210555, -0.0038185129, -0.0226610899, 0.0245937686, 0.0057414705, -0.0210692007, 0.0453608297, 0.0608846806, 0.0060402914, -0.0102376910, -0.0028327641, 0.0892935321, -0.0035635645, -0.0098252734, 0.0406472310, 0.0101288278, 0.0636118948, -0.0216423608, -0.0588512458, 0.0097841676, 0.0367839746, -0.0167261176, 0.0577973165, -0.0469934717, 0.0382379629, -0.0177206583, 0.0731016621, 0.0656378344, -0.0037137077, -0.0346240178, -0.0583251864, 0.0730696619, -0.0394754559, -0.0386730619, -0.0052794688, 0.0038486063, 0.0416011699, -0.0078713000, -0.0527936295, -0.0233700313, 0.0060858415, -0.0339979753, 0.0113958996, -0.0828332826, 0.0321221501, -0.0188750904, 0.0815737769, -0.0333256647, 0.0095875533, 0.0216144100, -0.0660774410, -0.0495971292, -0.0045293663, -0.0037125000, 0.0667963922, 0.0283218864, 0.0574999899, -0.0339976251, -0.0031112290, 0.0686128289, -0.0568591468, -0.0078237941, 0.0694486275, -0.0571097732, 0.0287906863, -0.0315552987, -0.0261846483, -0.0184267666, -0.0142799495, -0.0307229832, 0.0815734342, -0.0618206598, 0.1841276735, 0.0370820202, -0.2440932691, 0.1242848635, 0.0103299171, 0.0330927372, -0.0630653128, 0.0030084455, 0.0492808856, 0.0285548475, 0.0240571350, -0.0125952400, 0.0354444385, -0.0186026804, -0.0686454996, -0.0312829092, -0.0397007018, 0.0241796076, 0.0248773731, 0.0148933465, -0.0136174373, 0.0285304338, -0.0314305946, 0.0170524660, -0.0199642647, 0.0188474134, 0.0500351004, 0.0189983994, 0.0371027477, -0.0049520736, -0.0008848149, -0.0447507128, -0.0196933262, 0.0301109031, 0.0320187435, -0.0394347236, 0.0380932391, -0.0398711935, -0.0759766400, 0.0960142314, -0.0025935168, -0.0364141762, -0.0539157875, 0.0026397717, -0.0851264745, -0.0207796134, -0.0447154455, -0.0608343668, -0.0337031037, 0.0176154785, 0.0789151043, 0.0246916804, -0.0442318022, -0.0712611228, 0.0150531149, -0.0700206459, 0.0216284711, -0.0445005894, 0.0436620601, -0.0304790009, -0.0832503289, -0.0044881944, 0.0292302985, -0.0442435108, 0.0365722477, 0.0051000146, 0.0174325462, 0.0941739008, -0.0173110943, -0.0396520719, 0.0940340608, -0.0320189074, 0.0212649908, -0.0026261725, -0.0031765779, -0.0368172824, 0.0316178352, 0.0089482637, 0.0208559651, 0.0030532938, 0.0466813296, -0.0211333502, -0.0343053490, 0.0014022164, -0.0007822880, 0.0161382481, -0.0679132342, 0.0778642222, -0.1186255440, 0.0193463899, -0.0325812474, -0.0559609681, -0.0593689606, -0.0051856092, 0.0027145774, -0.0279528722, -0.0680140182, -0.0421469547, 0.0394893065, 0.0121476157, -0.0260406751, -0.0399809927, -0.0054398058, 0.0030768297, 0.0379735939, -0.0526156686, -0.0523306541, -0.0081665311, 0.0107798046, -0.0547525100, 0.0313192308, -0.0228363778, 0.0640690401, -0.0127916122, -0.3141583800, 0.1527243108, -0.0006167607, -0.0332701616, 0.0157634448, -0.0711523816, 0.0601022951, -0.0520275906, -0.0222170074, -0.0391141772, 0.0005840714, 0.0225518253, 0.0768256560, 0.0026837885, -0.0533424951, 0.0062968601, 0.0311008375, 0.0641552210, -0.0273570903, 0.0006061587, 0.0525198840, 0.0013523638, 0.0597014315, -0.0170741137, 0.0100694830, -0.0447964519, -0.0333453342, 0.0115405358, 0.0551678129, 0.0090167234, 0.0628250167, -0.0040325415, 0.0542130284, 0.0399241447, -0.0035532236, -0.0216490496, -0.0133408187, -0.0095307641, -0.0396061577, -0.0096555548, 0.0336257741, -0.0071142376, -0.0577864759, -0.0421240106, -0.0308728274, 0.0464999340, 0.0985049978, -0.0047036489, -0.1627174616, 0.0816223770, -0.0214868635, 0.0124327345, 0.0497970246, -0.0257303547, -0.0101414146, 0.0350963250, -0.0546646938, -0.0528679714, -0.0130715501, -0.0048572975, 0.0284057986, 0.0370795093, 0.0266827960, 0.0403956100, 0.0249088984, 0.0860602260, 0.0116906920, -0.0580632947, 0.1029784903, 0.0379310101, 0.0845163018, 0.0504074283, 0.0329206400, -0.0576242767, 0.0548218340, 0.0316486582, -0.0219946858, -0.0257031564, 0.1087244526, -0.0087651871, -0.1805697381, 0.1003355682, 0.0333632752, -0.0052264160, 0.0495880023, -0.0484521389, 0.0038903509, -0.0067574061, -0.0670191571, 0.0127328755, -0.0250615273, 0.0026637116, 0.0390402526, 0.1010641530, 0.0043250611, 0.0121834585, -0.0475647151, 0.0551844649, -0.0428313203, -0.0223572403, 0.0910401419, -0.0972287804, 0.0187838171, -0.0250873696, 0.0138504952, 0.0229959916, 0.0285688210, -0.0341966413, 0.0355327092, 0.0129756834, 0.2029896379, -0.0443249121, -0.1581132412, 0.0580486879, -0.0515879840, 0.0088705812, 0.1764166802, -0.0871453658, -0.0222110096, -0.0105671873, 0.0077052573, 0.0177055355, 0.0554249622, -0.0400917642, 0.1082120016, 0.0120064002, 0.2187422663, 0.0123652723, -0.2931823134, 0.2083457857, -0.0498224683, -0.0270767491, -0.1197418123, -0.0346663371, -0.0933995396, -0.0289732814, -0.0082390485, -0.0515659340, -0.0027319218, -0.0619305186, -0.0805381909, -0.0521867424, 0.0496384539, -0.0169599727, -0.0039323210, -0.0447751358, 0.0040619671, 0.0053864336, 0.0503801964, -0.0264959373, -0.1008386165, -0.0610074997, 0.0026244582, -0.0037697533, 0.0734724179, -0.0469783731, 0.0619974174, -0.0397778265, 0.0576273203, 0.0013541693, 0.0206199605, 0.0186640862, 0.0455091633, 0.0138310790, -0.0040289275, 0.0307478663, -0.0529828742, -0.0397178568, -0.0428973287, 0.0442534722, -0.0257855561, 0.0166864265, 0.0187713429, -0.0209944360, -0.0077966130, -0.0152758760, -0.0061711343, 0.0054226066, -0.0376035497, 0.0177331790, 0.1543201655, -0.0756361410, 0.0349166207, 0.0458339863, -0.0221383274, 0.0426862799, 0.0467123538, -0.0268023629, 0.1248803958, -0.0123725273, 0.1308333725, 0.0165294111, -0.1282274574, 0.0930235460, -0.0096907215, -0.0237503815, -0.0436583459, -0.0051803938, -0.0794010833, -0.0637592226, -0.0294564720, -0.0452280007, -0.0216360688, -0.0408583805, -0.0588263087, -0.0119161550, -0.0861160532, -0.0483892411, 0.0777640641, -0.0389483273, -0.0291402861, -0.0188392177, 0.0549394265, 0.0638007745, 0.0242292862, 0.0597651899, 0.0046969377, -0.0415400229, 0.0336159654, 0.0614698939, 0.0457764231, -0.0238163732, 0.0737051442, -0.0301373564, 0.0540764891, 0.0626070723, 0.0365107320, -0.0156194512, 0.0300551020, -0.0693177804, -0.0180673338, -0.0367652401, -0.0436962843, 0.0512576178, 0.0160718840, -0.0484288931, 0.0209233742, -0.0404506773, 0.0857158229, 0.0299107432, -0.0459655263, -0.0034382525, 0.0320924520, -0.0079281060, -0.0350315422, 0.0002391361, -0.0716416761, -0.0052079563, -0.0588563234, -0.0180135909, -0.0405902900, 0.0044880626, 0.0537032746, 0.0191375036, -0.0843137726, 0.0383155942, 0.0939840451, 0.0652233288, -0.0259890296, 0.0189588666, -0.0640385896, 0.0038803138, -0.0776491463, -0.0040359218, 0.0370654315, 0.0442290008, 0.0317553766, -0.0566150174, 0.0344396122, 0.0014825447, 0.0072775017, -0.0192381721, 0.0194693338, -0.0203617364, -0.0167942382, 0.0110597890, -0.0325853936, 0.1171669960, -0.0718199983, 0.0311831851, 0.0023879693, 0.0388373658, 0.0204074401, 0.0177309159, -0.0671328306, -0.0198869444, -0.0205812287, -0.0183568485, 0.0906918049, -0.0957186148, 0.0077505815, -0.0489309356, -0.0012279917, 0.0193475075, 0.0103904177, -0.0306842849, -0.0152569823, -0.0082484698, 0.0378092192, 0.0211022068, 0.0049441988, -0.0092731584, 0.0543063395, 0.0342635550, -0.2034370303, 0.1947664022, -0.0403340645, -0.0797161162, -0.0016245031, -0.0780960992, -0.0832465738, -0.0163052678, 0.0213095788, -0.0237155240, 0.0056497161, 0.0514081381, -0.0297268648, 0.0174907148, -0.0061783246, -0.0575197227, -0.0204587225, 0.0302375108, 0.0144746257, 0.0319082476, 0.0809693485, 0.0290703289, 0.0009534045, 0.0657836869, -0.0118944272, -0.0694021285, -0.0187573228, -0.0181104131, 0.0032418710, -0.0553747602, 0.0039550513, -0.0228186529, -0.0019975398, 0.0159331132, -0.0253036879, -0.0315773413, 0.0681564882, -0.1292513609, 0.0958547741, -0.0013645664, -0.0017446498, -0.0504707508, 0.0077672615, -0.0880629644, 0.0478311032, -0.0631509721, -0.0440178066, 0.0027934059, 0.0604699291, 0.1092663109, -0.0209753923, -0.0081779463, 0.0042301933, 0.0878085047, -0.0010153091, -0.0225720722, 0.0554619543, 0.0368147306, 0.0395786092, -0.0352598205, -0.0758233964, 0.0159934796, -0.0354431942, -0.0436310470, 0.0572197028, -0.0296349227, -0.0227127727, 0.0119808782, 0.0434365198, 0.1365173161, -0.0205027834, -0.0111638838, -0.0802867115, 0.0215626806, -0.0075344834, -0.0219592135, 0.0178266019, -0.0444068238, 0.0749491006, 0.0106250821, -0.0200972408, 0.0645490065, 0.0331153236, -0.0313771665, 0.0689904764, -0.0127795469, 0.0751499981, -0.0089795245, -0.0465625674, -0.0238634106, -0.0506643914, -0.0263177380, 0.0937614888, 0.0239787456, 0.1019810662, 0.0114492187, -0.2032145411, 0.1477350444, -0.0456939936, 0.0278163571, 0.0141019104, 0.0215439163, 0.0237723123, -0.0012827677, 0.0032692172, -0.0201064628, -0.0299840290, -0.0326980054, -0.0370887294, 0.0437041223, -0.0084771849, 0.0222034436, -0.0167391840, 0.0339575708, 0.0160911065, -0.0337163955, -0.0082267001, 0.0206937362, -0.0361705199, -0.0017836563, -0.0449207164, 0.0052612238, 0.0071438071, 0.0008139981, 0.0581562035, -0.0058073811, -0.0197381284, 0.0109177679, 0.0376415700, 0.0448398367, -0.0400349647, -0.0478215329, -0.0375995375, 0.1402741671, 0.0094515160, -0.0710499957, -0.0010917778, -0.0334836878, -0.0818227828, -0.1028008163, -0.1035240740, -0.0446169525, -0.0320314616, 0.0507128015, 0.1459777802, -0.0345972404, 0.0305903591, -0.0488034338, 0.0717997625, -0.0213844348, 0.0284553245, 0.0264201406, -0.0335331112, 0.0448361151, 0.0026609921, 0.0017311597, 0.0586667396, -0.0391157493, -0.0237947386, -0.0203168057, -0.0467513576, 0.0770227239, 0.0333963633, 0.0201495476, -0.0170034189, 0.0553343706, 0.0404479243, -0.0529876016, -0.0926664621, 0.0251577813, -0.0102446023, 0.0184178967, -0.0127699990, -0.0198709220, -0.0179610942, -0.0405157097, 0.0192780588, 0.0782921985, -0.0397475474, -0.0012176273, 0.0250202511, 0.0727944002, -0.0860336721, 0.0193805639, -0.0594992302, 0.0017736063, -0.0321627781, -0.0500238016, -0.0319712944, -0.0254893489, -0.0167983379, 0.0191910248, 0.0679176301, -0.0107347211, 0.0142275114, 0.0212390665, 0.0283848755, 0.0254512448, 0.0584055893, 0.0213041119, -0.0257628262, -0.0121470047, -0.0344828106, 0.0473898314, -0.0480084568, 0.0553004146, -0.0681291223, -0.0180528294, -0.1737288088, 0.0355865508, -0.0338206850, 0.0058536967, -0.0040391958, -0.0649291947, 0.0739514530, -0.0187238101, 0.0233752299, 0.0304417256, -0.0028779586, -0.0411562920, 0.0897512436, 0.0018935499, -0.0212655701, 0.0111379847, 0.0568854772, 0.0173788033, 0.0381232351, 0.0296585690, -0.0343598761, 0.0327502303, -0.0624135062, 0.0080087464, 0.0339713804, -0.0402544849, -0.0617221780, 0.0563260652, -0.0272424184, -0.0545320734, 0.0127863931, 0.0172379445, 0.0263581034, 0.0291624982, -0.0061864215, -0.0061073815, 0.0064036679, 0.0186996013, 0.0147187579, 0.0009780448, 0.0031098207, -0.0356458649, -0.0418669358, -0.0494456366, 0.0094161285, -0.0123829497, -0.0481290706, 0.0032782231, -0.1463924348, 0.0374008529, -0.0474438928, 0.0062245480, 0.0111516751, 0.0866883546, 0.0283296574, 0.0093648778, -0.0365982093, -0.0225753952, -0.0348563567, -0.0109173199, 0.0286793076, -0.0483681783, 0.0054299333, -0.0117218737, 0.0269484539, 0.0303475112, -0.0084878486, -0.0051343176, -0.0310824197, 0.0997307599, 0.1207371131, -0.0673035011, -0.0230658315, 0.0347749777, 0.0254514571, -0.0016687990, -0.0196084604, 0.0060803876, 0.0369692631, 0.0530955344, -0.1562736779, 0.0537625737, -0.0070342161, -0.0131348697, 0.0472325757, -0.0049198619, 0.0399323590, 0.0101492805, -0.0225015748, -0.0097462228, 0.0316313840, 0.0154964542, 0.0591484606, 0.0250965320, -0.0062477691, -0.0437150002, -0.0851741731, 0.0879094079, -0.0222083554, 0.0106421448, 0.0241470486, -0.0192869939, 0.0416309722, 0.0219491031, -0.0241677035, 0.0071718125, 0.0083857449, 0.0487394668, 0.0326125920, -0.0495825484, 0.1127543598, -0.0479945689, -0.1023600698, 0.0608189218, 0.0063465596, -0.0233310461, 0.0397869796, 0.0411145724, 0.0038990895, -0.0205645412, 0.0007823984, 0.0052132653, 0.0116888499, 0.0252903979, 0.0643693730, 0.0158788040, 0.0085275983, 0.0143057844, -0.2528412938, 0.0372193493, 0.0430247821, -0.0389415547, -0.0695271045, 0.0365372524, -0.0317324288, -0.0508726016, -0.0913435295, 0.0185870361, 0.0171831325, -0.0359178483, 0.0307148546, -0.0657436624, 0.0400855504, -0.0595166460, 0.0193756968, -0.0196702965, 0.0205636006, 0.0295225549, -0.0347533077, -0.0449975468, -0.0647556931, -0.0418648869, -0.0695236921, -0.0278780740, -0.0062080342, -0.0095536597, -0.0213403217, 0.0353468992, -0.0437818505, 0.0335621238, -0.0174015854, -0.0068198969, -0.0242202505, -0.0384065770, 0.0302863549, 0.0402344577, -0.0431699455, 0.0279145744, 0.0031712982, 0.0040648095, -0.0491563268, -0.0663766488, 0.0073601040, -0.0517317578, -0.0652163997, 0.0015377674, -0.0100760506, 0.0067880903, -0.0319884717, -0.0135014066, 0.0343348384, -0.0830175802, 0.0159206614, -0.0004523891, -0.0280170050, 0.0001227862, -0.0152596040, -0.0396751426, 0.0633653626, 0.0280462094, 0.0178422891, 0.0151190432, -0.0443260968, 0.1419118792, -0.0488147587, 0.0044554290, -0.0708988681, 0.0400445759, -0.0022097556, -0.0247182325, -0.0318822302, -0.0251279045, 0.0300877057, -0.0240207817, -0.0035609100, -0.0315808095, -0.0829646885, 0.0126705281, 0.1275715828, -0.0017755653, 0.0453988202, 0.0266143605, 0.0024403650, 0.0858009830, -0.0020717171, -0.0552082993, 0.0174704306, 0.0456618294, -0.0584917404, -0.0161218792, 0.0567400195, 0.0174930021, -0.0382123329, 0.0432719588, 0.0139682675, 0.0866496861, -0.0575740263, -0.0673923269, 0.0322473608, -0.0342208743, -0.0136965401, 0.0161588397, 0.0216390342, -0.0515758470, 0.0304548480, 0.0237357114, -0.0526717864, -0.0316502266, 0.0117952013, 0.0265737846, -0.0674048066, -0.0773698390, 0.0295846239, 0.0132150827, 0.0537403598, 0.0274190661, 0.0620438866, 0.0453295298, 0.0265361108, -0.0023746542, 0.0336755738, -0.0385011248, 0.0396523401, -0.0092282668, -0.0348834246, 0.0091547230, 0.1400864571, 0.0302135982, 0.0080619315, -0.0965506136, -0.0546914414, 0.0040397421, 0.0550125539, -0.0395382307, -0.0513137318, -0.0595811084, 0.0612481311, 0.0171424709, -0.0877494663, -0.0477237180, -0.0145467846, 0.0394994877, 0.0233529843, -0.0015224312, -0.0548806936, 0.0492555238, -0.0680614337, 0.0758394897, -0.0038790829, -0.0223602708, -0.0334897190, 0.0367103443, 0.0036960144, -0.0460985824, -0.0288527384, 0.0072418000, -0.0221160147, -0.0491953902, 0.1257196367, -0.0465177670, -0.0459467508, 0.0213557333, 0.0299957860, 0.0281253774, 0.0353351235, -0.0486047156, -0.0727049410, 0.0458721705, 0.0041445317, -0.0489952080, 0.0313381776, 0.0268108975, -0.0639747083, 0.0370074399, 0.0711100847, 0.0314235315, 0.0394197889, 0.0053614257, 0.0343100727, -0.1039503813, 0.0006049742, 0.0313044190, 0.0274237581, 0.0192968901, -0.0307614245, 0.0013110705, 0.1297781169, 0.0175766423, 0.0917273387, 0.0009556499, -0.0372368023, 0.0305914562, -0.0289817788, 0.0061125108, -0.0606207401, 0.0265813600, 0.0585122183, 0.0054685930, -0.0521549433, -0.0094520766, 0.0544760376, 0.0088558178, 0.0370364189, -0.0663078725, -0.0910777152, 0.0221675411, 0.1135015115, 0.0000649064, 0.0398072228, 0.0359776765, 0.0207879264, 0.0430024303, -0.0096059479, 0.0478595570, -0.0659645721, -0.0246591456, -0.0031283565, 0.0048917555, 0.0155506209, -0.0089628873, -0.0109099820, 0.0037958419, 0.0929703563, 0.1017440259, 0.0126400562, -0.0148650184, -0.0563228764, 0.0481170863, 0.0287937317, 0.0545797944, 0.0317239426, -0.0336122476, 0.0079735285, 0.0556475371, -0.0155417733, 0.0403602719, 0.0313464962, -0.0166108645, -0.0128586097, 0.0202942789, -0.0188610423, 0.0222623143, -0.0284433793, 0.1295010746, 0.0532851890, 0.0132049378, -0.0216213241, 0.0379679501, -0.0898711681, -0.0485395528, -0.0621469729, -0.0819445848, -0.0198176745, -0.0311135463, 0.0881418511, 0.0551617257, 0.0339217857, 0.0368452966, 0.0278491620, -0.0232286863, 0.0219091307, -0.0042094556, -0.0348612368, 0.0473920889, 0.0171863809, -0.0322349370, 0.0501523092, -0.0219326485, -0.0258146636, -0.0222224388, 0.0030302545, -0.0012261228, -0.0248798952, 0.0271911211, -0.0813210979, 0.0587394834, 0.0531992391, -0.0441868566, 0.0563345179, -0.0065189931, -0.0707780123, 0.0115475822, -0.0146521628, -0.0455743186, -0.0484133065, -0.0086777499, -0.0417726263, 0.0578147583, 0.0367444381, -0.0029950724, -0.0073882537, 0.0344195478, -0.0128366696, -0.0219426565, -0.0404954329, 0.0247411504, 0.0195931811, 0.0228449311, 0.0414804593, -0.0498529784, -0.0151154939, 0.0285958871, 0.0343450531, 0.0437079184, -0.0296113323, -0.0231166855, 0.0098657189, 0.0781202614, -0.0379823521, -0.0019490314, 0.0194885265, -0.0265677143, -0.0151824504, -0.0229889732, 0.0233150758, 0.0081663439, -0.0553351715, 0.0034255672, 0.1209110618, 0.0316815861, 0.0350032859, 0.0034972378, 0.0093359808, -0.0404631756, 0.1183326170, 0.0021319683, 0.0168859623, 0.0035685408, -0.0206212234, 0.0206567924, 0.0668392628, 0.0415930375, 0.0508574806, -0.0092897052, -0.0904135108, 0.1774910837, 0.0303902123, 0.0423300304, -0.0734523907, 0.0184684172, 0.0378877595, -0.0232471507, -0.0329597965, 0.0285958480, -0.0659980476, -0.0566930547, -0.0164079983, -0.0312850624, -0.0840869173, -0.0058411337, -0.0091287000, 0.0103826271, -0.0390768759, -0.0368524715, -0.0084485896, 0.0030113801, -0.0355862714, -0.0050786943, -0.0098859016, 0.0106782047, -0.0619833097, -0.0647243932, -0.0021163824, -0.0678493604, 0.0529239364, -0.0591370240, 0.0380105227, 0.0221970621, 0.0209462885, -0.0089595765, -0.0107327895, 0.0684929639, 0.0304971430, -0.0041892487, -0.0012409096, 0.0007994941, -0.0494419448, 0.0467213690, 0.0037473890, 0.0406141765, -0.0079266317, -0.0323864520, -0.0705475956, 0.1338903457, -0.0369658247, -0.0138536906, 0.0343326777, -0.0200513080, 0.0507066473, -0.0122564984, -0.0309159439, 0.0044174511, 0.0436593331, -0.0426736772, 0.0529948287, -0.0173167698, -0.0446197055, -0.0270002447, 0.0977214426, 0.0147992857, 0.0097480342, 0.0156555232, -0.0087103657, 0.0217156950, 0.0793866366, -0.0545551591, 0.0356839746, 0.0225712303, -0.0457472838, 0.0413434841, -0.0236178618, 0.0100807128, -0.0610705353, 0.0046560997, 0.0292406306, 0.0210675951, -0.0240278263, 0.0135552445, -0.0597052015, -0.0330872983, -0.0246865805, -0.0390095003, 0.0098252436, -0.0095493011, -0.0461617038, -0.0235270597, 0.0337440446, 0.0043054880, 0.0700396672, 0.0059122038, 0.0470471270, 0.0344912782, -0.0013420841, 0.0295897815, 0.0202461183, 0.1222129464, 0.0695574433, -0.0691266358, -0.0262835789, 0.0314538442, -0.0502591170, -0.0013424412, -0.0229343604, -0.0344406553, -0.1808451563, -0.0235428065, 0.0978163257, -0.0041067973, 0.0381054431, -0.0116678225, -0.0660999045, 0.0149484351, -0.0486090556, -0.0578972176, -0.0338379219, -0.0020421073, 0.0160875134, 0.0096887574, -0.0217307601, -0.0355219990, 0.0195316058, 0.0170179084, -0.0681142434, -0.0198525153, 0.0513269156, -0.0357990637, 0.0064925966, 0.0257043839, 0.0982251987, 0.0469903238, 0.0543212444, 0.0225387402, 0.0399105251, 0.0030544035, -0.0032922029, -0.0481322855, -0.0545554236, -0.0253347624, 0.0638495907, 0.0640190989, -0.0380532891, 0.0123294182, 0.0179222822, -0.0548508577, -0.0268627778, 0.0436986461, 0.0003856265, -0.0130657637, 0.0038652949, 0.0523737222, 0.0461378917, 0.0009196681, 0.0503243804, 0.0235969499, -0.0083046937, 0.0766222626, 0.0079112044, -0.0015165994, 0.0697535500, -0.0903073549, 0.0534848012, 0.0351054072, -0.0342436768, -0.0108386483, 0.0212456957, -0.0221069418, 0.0545087121, -0.0461381562, -0.0425852388, -0.0571105555, -0.1362340003, 0.0990368277, -0.0185911283, -0.0236387961, 0.0450798161, -0.0003988206, -0.0193220563, -0.0623471476, -0.0861162618, 0.0040826350, -0.0060188766, -0.0120239248, 0.0167937297, -0.0231226888, 0.0314364545, -0.0080856029, 0.0822010189, -0.0322991535, 0.0209211521, 0.0126668736, 0.0656066462, -0.0575291328, -0.0671947524, -0.0240784213, 0.0234903526, -0.0087662051, -0.0350916088, -0.0074922349, 0.0040619979, -0.0444446541, 0.0750382170, -0.0476228967, -0.0033956426, 0.0579986200, -0.0157566741, -0.0129849100, 0.0543398671, -0.0551480614, 0.0354150869, 0.0026931514, -0.0387484543, 0.0181432813, -0.0452078208, 0.0335296132, -0.0205271188, -0.0046188617, -0.0429751649, -0.0304669179, 0.0609083772, -0.0520762354, -0.0518107042, 0.0439630896, -0.0341971740, -0.0073200203, 0.1008757427, -0.0294408631, 0.0325259790, -0.0281772781, 0.0079120146, 0.0307413135, -0.0059094643, 0.0207908880, -0.0599788092, -0.0499072634, -0.0364685431, 0.0239743553, -0.0099866670, -0.0463461652, 0.0445168838, -0.0422763675, -0.0127182370, -0.0054521649, -0.0298733711, -0.0089150658, -0.0591186807, -0.0223643593, 0.0600411110, -0.0306125525, -0.0001969765, -0.0008692362, -0.0627832487, 0.0524719283, 0.0432260893, -0.0356016606, -0.0155352009, 0.0379839167, 0.0463073961, -0.0101646418, 0.0053816927, -0.0025476406, -0.0050561503, -0.0518549196, -0.0514839739, -0.0273512118, -0.0787349790, 0.0386333503, 0.0172755979, 0.1104037166, -0.0379573368, -0.0325594991, 0.0663297623, 0.0512936972, 0.0423668772, -0.0144273769, -0.0399120338, -0.0005891025, 0.0217523053, 0.0255405996, -0.0009956934, -0.0187653825, 0.0810198337, 0.0446533486, 0.0395234525, -0.0250177961, -0.0389401093, 0.0515493117, -0.0064211050, -0.0052496525, 0.1197488010, 0.0030330122, 0.0430459753, 0.0315957665, 0.0712547749, -0.0001674814, 0.0051867319, -0.0584933236, -0.0712124333, 0.0192228276, 0.0765000731, -0.0095525980, 0.0092072487, -0.0111946715, -0.0408042297, 0.0531226657, -0.0553102829, 0.0101164179, 0.0071223546, -0.0498622581, -0.0807667449, -0.0551866256, 0.0401956216, -0.0646140426, 0.0351586342, -0.0382543728, 0.0818418562, -0.0186588280, 0.0278892312, -0.0196694359, 0.0336684510, -0.0549354106, 0.0426129811, 0.0001954731, 0.0019019218, 0.0434164964, -0.0200177841, -0.0083548566, 0.0606189072, 0.0303010549, 0.0141530074, 0.0346049108, 0.0162107814, -0.0289270189, 0.0094001284, -0.0117081050, -0.0367834643, 0.0514234304, -0.0333782956, -0.0602032095, -0.0454865992, 0.0152220270, -0.0435216315, 0.0402823947, -0.0207423624, -0.0409324840, 0.0282252077, 0.0098067978, -0.0881710276, 0.0898717269, 0.0088715842, -0.0605795309, 0.0197689906, -0.0323738307, 0.0378790461, -0.0625297353, 0.0115280086, 0.0238528475, -0.0108531313, 0.0103792856, -0.0135304667, 0.0192280449, -0.0168729052, 0.0115898419, -0.0302566942, 0.0618922636, -0.0071792668, -0.0046659592, 0.0532020219, -0.0920842141, 0.0612309091, 0.0169511214, 0.0081477370, 0.0290362425, -0.0106803216, 0.0006908005, 0.0220960192, -0.0683181658, 0.0094410814, 0.0157713424, -0.0108813094, 0.0940609276, -0.0225433931, 0.0234759692, 0.0114265541, 0.1611327380, -0.0450212844, -0.0417618714, 0.0057117520, -0.0505863540, 0.0160306282, -0.0726795495, 0.0204440951, -0.0427347310, -0.0551273674, 0.0223718453, 0.1035236642, -0.0163635556, -0.0446774885, -0.1028474197, 0.0424740724, -0.0932724625, 0.0191401970, -0.0069295350, 0.0520964265, -0.0437227786, 0.0405677073, -0.0018835507, 0.0673369765, -0.0039877277, 0.0128837265, 0.0317481682, -0.0879098400, -0.0029053036, -0.0025180615, -0.0051821177, -0.0305625722, -0.0324595496, 0.0193682257, 0.0001644244, -0.0281891543, -0.0261101630, 0.0299554188, -0.0477044024, 0.0040404354, -0.0367555469, -0.0073792757, -0.0153247695, -0.0517425835, -0.0179948639, 0.0157650467, -0.0170270335, -0.0044135307, -0.0281898733, 0.0288931802, -0.0566724315, -0.0145550827, 0.0070050112, 0.0129189258, 0.0054195337, 0.0805395097, -0.0621346347, 0.1337175071, -0.0074593541, -0.1741643399, 0.1141674817, -0.0527711548, -0.0046297819, 0.0114835436, -0.1047278419, 0.0924798995, 0.0557825789, 0.0076215519, -0.0035339280, -0.0350775532, -0.0052737803, 0.0232750922, -0.0353731290, -0.0319823883, -0.0083389506, -0.0311547685, 0.0218349323, -0.0095479498, -0.0321512260, -0.0095323753, -0.0042465664, 0.0214712359, -0.0211507380, -0.0207501631, -0.0093411664, 0.0364183411, -0.0117668398, 0.0116086770, -0.0505958721, 0.0256163087, 0.0411313660, -0.0310806464, 0.0338661782, 0.0075569833, 0.0101402169, 0.0477538183, -0.1139081940, -0.0866966695, -0.0119086988, 0.0906050205, -0.0297243521, -0.0286486614, -0.0149211511, 0.1149410382, 0.0320372432, 0.0043715592, 0.0013379529, -0.0451408029, 0.0675780177, 0.0054727606, 0.0298402440, -0.0001488449, -0.0975220203, -0.0045546615, 0.0577917062, 0.0182256531, -0.0152985444, -0.0460052192, 0.0317231305, 0.0235167127, 0.0025163409, -0.0379392654, -0.0198225714, 0.0644819140, 0.0937451795, -0.0120912381, -0.0416873060, 0.0452094190, 0.0531139076, 0.0260378700, -0.0167008694, -0.0507515483, -0.0399147980, -0.0329319835, 0.0143562322, 0.0401205048, -0.0417934172, 0.0738377944, 0.0178605020, -0.0804035738, 0.0924479961, -0.0039393152, 0.0310145766, -0.0180049427, 0.1572478563, -0.0637350008, -0.0671578720, -0.0416916125, -0.0595611930, -0.0482679419, -0.0257893428, -0.0754175037, -0.1114328653, -0.0665259287, 0.0442576632, 0.0182598345, 0.0152609162, -0.0588187017, 0.0156409480, 0.0149090458, 0.0366327465, -0.0313516743, -0.0066889320, 0.0288469512, 0.0308082942, -0.0284292046, 0.0453365780, -0.0359429941, -0.0499978587, -0.0420195162, 0.0392827801, -0.2114401907, 0.0238703322, -0.0573345572, -0.0318840370, 0.0481513366, 0.0331704617, 0.0261981692, 0.0230274759, -0.0373830460, -0.0099383062, -0.0342128947, 0.0228551328, 0.0727631897, -0.0272327941, -0.0292204767, 0.0323186330, 0.0146644441, 0.0103085237, -0.0518408604, -0.0123371081, -0.0285425968, 0.0060112700, 0.0295016747, -0.0096507901, -0.0607036836, 0.0471109636, -0.0587219596, 0.0026607350, 0.0374443717, 0.0467113815, 0.0379910283, 0.0384908058, 0.0464320593, 0.0754162520, -0.0438943133, 0.0288978349, 0.0788621008, -0.0409152135, -0.0569366403, 0.0348544791, -0.0078486037, 0.0448053703, 0.0239422731, 0.0156102097, 0.0262667611, -0.0418501385, 0.0369420573, -0.0088194460, -0.1582593918, 0.1150803864, 0.0049203192, -0.0470267236, 0.0627313107, -0.0927186832, -0.0124073010, 0.0219944455, 0.0406044759, 0.0456107184, 0.0450640582, -0.0174128506, 0.0263294578, 0.0539910570, 0.0666268393, 0.0087024979, -0.1371281445, 0.0919938236, -0.0125315962, -0.0416014269, 0.0258934945, -0.1224101856, 0.0075095613, -0.0202709325, -0.0174004138, 0.0414238125, -0.0295392219, -0.0054926388, 0.0132185007, -0.0224811211, 0.0513666831, -0.0298579820, -0.0790101811, 0.0929785147, 0.0460462198, 0.0087271389, 0.0152285341, 0.0670641214, 0.0511974320, -0.0438611433, 0.0001263479, -0.0246198978, -0.0590278506, -0.0637115017, 0.0264624991, -0.0531854555, 0.0786130503, -0.0132944426, -0.1487856060, 0.0957342610, 0.0054111411, -0.0120704938, 0.0086245369, 0.0387865975, -0.0348319225, -0.0216983650, -0.0360217281, 0.0003089162, 0.0368987732, -0.0016566846, -0.0010928721, -0.0134615339, 0.1733641624, 0.0126875043, -0.0402293168, 0.1107973233, -0.0518285930, -0.0090453820, 0.0890791342, -0.0628086478, -0.0571355186, 0.0155087048, -0.0150904050, 0.0283770021, -0.0358253606, -0.0351575166, 0.0921125412, 0.0219737031, 0.0752696767, 0.0070304186, -0.0686348528, 0.1316900551, -0.0067663183, 0.0370548777, 0.0144570367, -0.0086645531, 0.0020155821, -0.0592886880, 0.0068995738, -0.0408303738, -0.0942197293, 0.0183114074, 0.0141820339, -0.0507119596, 0.0830038637, -0.0283117350, 0.0053001479, 0.0259337500, -0.0019900061, -0.0707179010, 0.0312800705, 0.0493934639, -0.0499973111, -0.0485650711, 0.0127339140, 0.0060955659, -0.0655858368, -0.0110985003, -0.0552516542, -0.0573866405, -0.0494624600, -0.0411890596, 0.0210731700, 0.0524953716, -0.0580906458, -0.0616229065, 0.0158191919, 0.0730035156, -0.0820297375, 0.0186424386, 0.0071335337, -0.0402320139, 0.0382014886, 0.0307532959, -0.0472152159, -0.0065994225, -0.0499538593, -0.0015283247, 0.2172984034, -0.0085813077, -0.0583830439, 0.0013448553, -0.0098885791, 0.1042006910, -0.1198848784, -0.0236636549, -0.0315051004, -0.0326328725, -0.0220661014, -0.0632842556, -0.0208203923, -0.0407958105, -0.0246332977, 0.0246963706, 0.0596763752, -0.0132210106, 0.0228231400, 0.0103362137, -0.0091578774, 0.0362977311, -0.0149471518, -0.0302315280, -0.0262570251, 0.0028668784, -0.0600036308, -0.0546538979, -0.0104959877, -0.0765829757, -0.1442343295, -0.0168182869, -0.0407897569, 0.0665731281, -0.0315908976, 0.0170121323, -0.0425890833, -0.0660761446, -0.0170883872, 0.0450732484, 0.0747231692, 0.0496023037, -0.1015530527, 0.0455746539, -0.0064711547, 0.0711748302, -0.0411447138, -0.0054780743, 0.0823926032, 0.0715640485, -0.0457906872, 0.0206060763, 0.0337066762, 0.0014568340, -0.0145450067, 0.0557205454, 0.0070927297, 0.0127404202, -0.0507126227, -0.0332382210, -0.0283244569, 0.0117888032, 0.0325693823, 0.0294240844, -0.0342111848, 0.0527394749, -0.0169378500, 0.0316539221, -0.0537931174, -0.0321354344, -0.0097509325, -0.0173933264, -0.0381161273, 0.0365097076, 0.0429080762, -0.0132655157, -0.0661452711, -0.0325066410, -0.0358664021, -0.0400700457, 0.0003893432, -0.0820608959, 0.0317692533, 0.0209471267, 0.0463645719, 0.0227616616, -0.0248266943, 0.0041900785, -0.0531765893, -0.0307898074, -0.0436415784, -0.0504536554, 0.0781104341, -0.0048555415, -0.0832607150, -0.0509095490, 0.0217373837, 0.0916355625, -0.0538912751, -0.0696034804, 0.0074730832, -0.1500455588, 0.0721040890, -0.0230373405, -0.0607364066, 0.0178301316, 0.0387267545, 0.0357824452, 0.0596518889, -0.0322801843, 0.1189088225, -0.0333284549, -0.1188981161, 0.1346471906, 0.0257704761, -0.0290018655, 0.0881104171, -0.1703083217, 0.0319204889, 0.0524229817, -0.0714957342, 0.0052277278, -0.0194708537, -0.0015381203, 0.1331662089, 0.0195510350, 0.1085055992, 0.0260023735, -0.1014080495, 0.2309625447, -0.0457099453, 0.0051104957, 0.0234094039, -0.0066017159, 0.0008543304, -0.0122788232, -0.0403184406, 0.0061144340, -0.0068860813, 0.0068613747, -0.0611698516, 0.0139181502, -0.0394465439, 0.0047265762, -0.0092596151, 0.0080162119, -0.0205426961, -0.0636669174, 0.1589049101, -0.0978797749, 0.0061498829, -0.0357892439, 0.2479592562, -0.0107818209, -0.0083412509, 0.0411782190, 0.1697255522, -0.0627859682, 0.1301992685, 0.0289992373, -0.0231300052, 0.1437400728, 0.0253711268, 0.0114361756, -0.0333436765, 0.0932913646, 0.0391621366, 0.0545302778, 0.0413046777, -0.0549658723, -0.0064880936, 0.0086254757, -0.0225293189, -0.0028017312, 0.0213772748, -0.0498793535, 0.0916590616, -0.1468394548, 0.0217960123, -0.0317415558, -0.0527159348, 0.0145261278, 0.0245581549, -0.0102911228, 0.0633978024, 0.0536177456, -0.0032319867, 0.0631681308, 0.0723410770, 0.0883860588, -0.0376493186, -0.0033906363, 0.0035024874, -0.0189564843, 0.0109121501, -0.0113740070, -0.0438683853, -0.0596810468, -0.0035042025, 0.0213336647, -0.0023468675, 0.0160114337, 0.0118820602, 0.0282008070, 0.0267238710, 0.0043233405, 0.0286199860, 0.0004147046, -0.0007457928, -0.0670331195, -0.0184695814, 0.0061993650, 0.0664033294, -0.1233623326, -0.0298822410, -0.0011433056, -0.0720185414, 0.0381714031, -0.0025388822, 0.0348557532, 0.1050228179, -0.0382617414, 0.1629530042, -0.0552273914, -0.1279896796, 0.1661593914, 0.0237995423, -0.0158296879, 0.0175153539, -0.1521685719, -0.0159109496, 0.0151141305, -0.0702966973, 0.0132614337, 0.0307450481, -0.0330224410, 0.1156600416, -0.0166186020, 0.0495794564, 0.0105267409, -0.0040612905, 0.1334362924, 0.0109573742, -0.0311307330, 0.0169369355, 0.0239582043, -0.0423195660, -0.0062998841, -0.0154270912, -0.0521088019, -0.0193233266, 0.0158292521, -0.0006468848, 0.0167201329, 0.0358556099, 0.0133050466, 0.0186697096, 0.0280010030, -0.0360800587, -0.0016408802, 0.0475302637, 0.0203445703, -0.0511737950, 0.0465698838, 0.0092306649, -0.0230595861, -0.0304400194, -0.0082462393, 0.0274537075, 0.0183437690, 0.0269463900, 0.0520436317, -0.0725133643, 0.0481606089, -0.0301349163, -0.0454008430, 0.0619895123, -0.1165526137, 0.0073825172, -0.0463079177, 0.1565376371, -0.0389169306, 0.0154712265, 0.0560904965, 0.0222640838, 0.0194247682, 0.2624673247, 0.0154988999, -0.1613646746, 0.1062043309, -0.0518978052, -0.0499255620, 0.0594104156, -0.1995162517, -0.0546694957, -0.0507914610, -0.0185253397, -0.0099008046, -0.0006012708, 0.0421179645, 0.0691409111, -0.0073758881, 0.1183628738, 0.0290236976, -0.0398211069, 0.1632525176, 0.0003872608, 0.0013438759, 0.0588103645, 0.0334645770, -0.0304466784, -0.0239561480, -0.0995006412, 0.0005646121, -0.0774896890, -0.0553609096, -0.0229014754, -0.0795847476, -0.0635115504, -0.0433158316, 0.0212005302, -0.0107689695, -0.0577660538, -0.0035995648, 0.0457902327, 0.0355095267, -0.0739898309, 0.0000707293, 0.0001503211, -0.0395547524, 0.0075469161, -0.0124116493, 0.0499823429, 0.0065094098, 0.0021879205, -0.0538282841, -0.1314797252, 0.1709021032, 0.0470176227, -0.0418612510, 0.0485389754, 0.0263615195, 0.0340671465, -0.0379300602, -0.0155615341, -0.0078358408, -0.0463085920, 0.0211098474, -0.0138635775, -0.0433686376, -0.0037219210, 0.0025247110, -0.0388774984, 0.0986330360, -0.0242314432, -0.0098210452, -0.0077714291, -0.0746798962, 0.0086435629, -0.0504885763, 0.0474642366, 0.0195271447, -0.0179631710, 0.0472366922, 0.0442512184, -0.0224521253, -0.0419104174, 0.0212801695, -0.0168906525, 0.0357386917, -0.0001685541, -0.0063010282, 0.1854333580, -0.2813295722, -0.0325456411, 0.0373967476, -0.0018142670, -0.0364236049, 0.0316965804, 0.0288881008, 0.1635505855, -0.0643299371, 0.1825877428, -0.0303530619, -0.1072442606, 0.1655993313, 0.0175383184, -0.0034211576, 0.0729447156, -0.1768782735, -0.0126216738, -0.0009083977, 0.0721324384, -0.0585604236, 0.0004514362, 0.0195692685, 0.0933254734, 0.0090532005, 0.0702022761, -0.0564235449, -0.0253019240, 0.0477064624, -0.0239030384, -0.0238596257, 0.1558993012, -0.1588944644, 0.0726488829, 0.0090591926, -0.0364473462, -0.0126360524, -0.0374967642, 0.0384280980, 0.1086754203, 0.0473718382, 0.1691595614, 0.0258289184, -0.0588211603, 0.1282452047, -0.0344853178, -0.0042585139, 0.0413439795, 0.0020923715, -0.0016101680, -0.0514726304, -0.0231022108, -0.0485210903, -0.0113127297, 0.0175674800, 0.0705328584, 0.0334894657, 0.0147922989, -0.0357538164, -0.0679197982, 0.0326285996, 0.0246256590, -0.0374810733, 0.1094509587, -0.0314777941, -0.0117584728, -0.0070213610, -0.0251813959, 0.0295304880, 0.0282662697, -0.0486652367, 0.1047927439, -0.0593483336, 0.2285801172, -0.0255615730, -0.1367293000, 0.1697894633, 0.0310882255, -0.0226814207, 0.1313493103, -0.2057332546, -0.0297909938, 0.0308973286, -0.0405340157, -0.0287839994, 0.0039011659, 0.0100504970, 0.1101160198, -0.0221101195, 0.1386087388, -0.0176852029, -0.1583236605, 0.0775552765, -0.0237790029, 0.0538494550, 0.0166903958, 0.0305588637, -0.0860578716, -0.0786352083, -0.0047692806, -0.0059953821, -0.0593940355, -0.0297913924, 0.0679560825, -0.0463230424, 0.0308448039, 0.0350030735, 0.0063717063, 0.0054252059, -0.0542649962, -0.0047810497, 0.0129644256, 0.0180903263, 0.0403891653, -0.0256213546, -0.0506477430, -0.0388748795, -0.0859829485, 0.0310592484, 0.0049554147, 0.0028286385, 0.0336497724, -0.0186945852, -0.0487530716, 0.0775557607, -0.0332204103, -0.0039098863, -0.0017772105, -0.0075276485, -0.0245277360, -0.0494368300, -0.0095872702, -0.0223846883, -0.0806921870, 0.0546920374, -0.0090114959, -0.0143010151, 0.0528844185, 0.0199740939, -0.0019476884, 0.0188043211, -0.0158747733, 0.0464045964, -0.0176670924, 0.0611020625, -0.0903359875, -0.0115952818, -0.0495432056, -0.0519730523, -0.0793359131, -0.0778260008, 0.0160854664, 0.0137421908, -0.0033530064, -0.0187754575, -0.0390506424, 0.0100520095, -0.0323171802, -0.0710932612, -0.0285399761, 0.0265860446, 0.0125408154, -0.0224758312, -0.0627200603, 0.0081439037, -0.0429518446, -0.0399650671, -0.0220210627, 0.0094336774, 0.0208998993, 0.0394312441, 0.0431119315, -0.0147028016, -0.0065474985, 0.0157667212, 0.0146667324, 0.0485433936, 0.0463529117, 0.0212910045, 0.0366600044, 0.0090700854, -0.0490244068, 0.0314091593, 0.0281989202, 0.0000301692, -0.0150442133, -0.0172691923, 0.0067949472, 0.0471548699, -0.0026617041, 0.0030573425, 0.0312069207, 0.0180889107, 0.0450387150, 0.0381610133, -0.0251412168, 0.0469102189, 0.0219359957, -0.0662760958, 0.0205059871, -0.0081450241, 0.0077034510, 0.0260191597, 0.0054548271, -0.0416207984, 0.0369470567, -0.0501588695, 0.0044747018, -0.0286792945, -0.0309300646, -0.0043441975, 0.0093234321, -0.0076859035, -0.0090385452, -0.0133767240, 0.0062214192, -0.0475688130, 0.0436871052, -0.0043776366, -0.0503219031, 0.0020531050, 0.0246312227, 0.0186062288, 0.0403348431, 0.0441289283, -0.0126380613, -0.0639289469, -0.0495884605, -0.0576811545, -0.0106731793, -0.0186802465, 0.0543242469, -0.0802825317, 0.0644393787, 0.0174858663, -0.0540266372, 0.0348975025, 0.0283901226, 0.0209028199, 0.0747174248, -0.0697732195, 0.0176870022, 0.0190083310, -0.0415087454, 0.0145240128, -0.0570050292, -0.0405462570, 0.0610916205, -0.0792687312, 0.1085211560, -0.0203326568, 0.0035964753, 0.0289083384, -0.0562262051, -0.0195457712, 0.1831922084, -0.2648045421, 0.0532145910, 0.0463444293, 0.1005943194, -0.0252597146, -0.0275283866, -0.0125467340, 0.1971514076, 0.0354170725, 0.2474225909, -0.0099926256, -0.1478559077, 0.2294207811, -0.0287117753, 0.0133935027, -0.0637426153, -0.0116107548, -0.0452533998, -0.0376823023, 0.0417535789, 0.0448012389, -0.0056226160, -0.0452932194, -0.0639058650, -0.0043431250, -0.0133775957, 0.0303514022, -0.0090405811, -0.0522344634, -0.0400056094, 0.0376412198, 0.1810328215, -0.1079025045, -0.0282627642, 0.0145456595, 0.1234549657, -0.0435269997, -0.0193019509, -0.0126946736, 0.0587927215, -0.0149188982, 0.1514954567, -0.0389619730, 0.0191073418, 0.0344604403, -0.0498644039, 0.0475618951, -0.1392886341, -0.0769982859, -0.0955288559, -0.0307753198, -0.0131548792, -0.0241803117, 0.0381667092, -0.0601357333, -0.1213963479, -0.0067328443, 0.1650143862, 0.0100834640, 0.0723446459, -0.0227685720, -0.0169604477, 0.0313808024, 0.0588802584, -0.0074320808, 0.0138822440, 0.0402254164, 0.0193266105, 0.0437233672, -0.0190238208, 0.0131935645, 0.0871592239, 0.0052904356, 0.0613236502, -0.0261534918, 0.0324727185, 0.0332022570, 0.0461683646, 0.0060931426, 0.0531644709, -0.1693962216, -0.0298824720, -0.0570593998, 0.0752612203, 0.0043637576, -0.0480860844, -0.0104327612, 0.0280217640, 0.0144573729, 0.0813279971, 0.0173391886, -0.0170563310, 0.1452572644, -0.0537112728, 0.0195938591, 0.1234356314, -0.1049359515, -0.0458975434, -0.0026734003, -0.0553498864, 0.0409189388, -0.0416961759, 0.0060517378, 0.1114000380, -0.0037481410, 0.2285758704, -0.0300790910, -0.1533949524, 0.1093638092, -0.0419429876, -0.0426647589, 0.0561359860, -0.1950642765, -0.0876351595, -0.0305935871, -0.0678026751, 0.0469859950, -0.0651554167, -0.0875761583, 0.0710685328, -0.0205579791, 0.0202314593, -0.0187603626, 0.1190883368, 0.0684982836, 0.0079893153, 0.0084556304, 0.0103319511, 0.0360064991, -0.0351294689, -0.0430055447, 0.0052392511, -0.0420038700, 0.0497276559, -0.0405566990, 0.0400474891, -0.0160340723, -0.0301943179, 0.0473108999, 0.0216325969, 0.0120694190, 0.0226438046, -0.0167579297, 0.0059707277, -0.0680968761, 0.0660146326, 0.0302895531, 0.0193238370, 0.0119238663, 0.0028797623, -0.0020357654, 0.0613585338, 0.0547779649, 0.0930347368, 0.0076429360, -0.0462820083, 0.0567191951, -0.0134479366, 0.0261126589, 0.0391738415, -0.0737848803, -0.0167213082, 0.0270691495, 0.1795989424, 0.0062842602, 0.0214339178, 0.0772025585, 0.1258677393, 0.0335193910, 0.1903947294, 0.0118695544, 0.0030217017, 0.1039509550, 0.0152796758, -0.0091257244, 0.0922083557, -0.2111454457, -0.0764643103, -0.0007966921, 0.0774341300, -0.0429740213, -0.0385201797, -0.0401760377, 0.1879567802, -0.0493711084, 0.1630146652, -0.0066634198, -0.1155603603, 0.1667397469, -0.0356692635, -0.0410305224, 0.0057754493, 0.0302099753, 0.0244701095, -0.0619603954, -0.0803496912, 0.0268634968, -0.0475722365, -0.0477868393, 0.0125924340, 0.0165084694, -0.0136056915, 0.0077745379, 0.1545386165, -0.0942813307, -0.0308303572, 0.0243424438, 0.0626767054, -0.1149793267, -0.0288086310, 0.0071950285, 0.0390270539, -0.0315246284, 0.0000293218, -0.0297312643, 0.0880017728, -0.0304874890, 0.0215323139, -0.0307242181, -0.0295689628, 0.0697341412, -0.0347143896, 0.0531239212, 0.0491402224, -0.0446512587, -0.0433489606, 0.0077324579, 0.0439471938, 0.0334666893, -0.0050507355, -0.0041376008, 0.0384316705, -0.0831756517, -0.0153006334, -0.0548178069, 0.0097716767, -0.0125247240, -0.0341853462, 0.0348284841, 0.0558842719, -0.0448051617, 0.0109973243, 0.0137740513, 0.0764414817, -0.0498151742, -0.0849788785, -0.0387312770, 0.0659242123, -0.0770932734, 0.0818441510, -0.0306546763, -0.0819107443, 0.0990156606, 0.0261361822, -0.0110968156, 0.2175770700, -0.3094601929, 0.0073785391, -0.0148158157, 0.0552087128, 0.0088756615, 0.0307137817, 0.0169416405, 0.1643562317, -0.0119381761, 0.1747549474, -0.0566768385, -0.0514139235, 0.2046115398, -0.0480190776, -0.0153458714, 0.1170192212, -0.1274750233, -0.0665672943, 0.0299889911, 0.1122176722, 0.0307612922, 0.0105545893, 0.0263170730, 0.0999748260, 0.0458833948, 0.2250030488, 0.0025499293, -0.0768248811, 0.1349105686, 0.0377575383, 0.0062438399, 0.1551928967, -0.1935899854, -0.1117563024, 0.0177258253, 0.0265594944, 0.0090988576, -0.0136990752, -0.0629480332, 0.1656785905, 0.0022486502, 0.1289249212, -0.0018784665, 0.0501859598, 0.0381560475, 0.0177867189, 0.0067735128, 0.0590315536, -0.0943446606, -0.0140863322, -0.0251148827, 0.0066273035, 0.0475411974, -0.0354973003, -0.0709206164, 0.0300111454, 0.0258352626, 0.1209269017, -0.0365186892, -0.1443935186, 0.2355280519, -0.0321815908, 0.0095505305, 0.0948474035, -0.0989218876, -0.0633968338, 0.0239622965, -0.0622356981, -0.0253137685, -0.0607147068, -0.0431235135, 0.1248243824, -0.0338547677, 0.2100785077, -0.0209385958, 0.0309415925, 0.0984872133, 0.0048109321, -0.0375910401, 0.0915281922, -0.1510198563, 0.0064097075, -0.0110829854, 0.0862217322, 0.0063048410, -0.0607018955, 0.0307105873, 0.1311692894, 0.0329752527, 0.1782574207, -0.0211295392, 0.0200045016, 0.0759326294, 0.0313459039, -0.0317790397, 0.0263941623, 0.0184424799, 0.0075780069, -0.0349841751, -0.0044854898, -0.0423310883, -0.0375845879, 0.0293642934, 0.0429063663, -0.0582153760, 0.0219541434, -0.0126237879, -0.0838095844, -0.0150316395, -0.0236352049, -0.0337379761, -0.0400982089, 0.0927506462, -0.0182902608, -0.0542511456, -0.0319419131, 0.0437011309, -0.0248550307, -0.0145963170, -0.0640569925, -0.0291443095, -0.0164545756, 0.0276794080, 0.0573719554, -0.0242600758, -0.0195728242, -0.0573612265, -0.0262519047, -0.0296787005, 0.0359299555, -0.0126169771, 0.0019359889, -0.0223675780, -0.0354046859, 0.0651279464, 0.0594363958, 0.0599726550, 0.0778416246, -0.0035869589, -0.0811267197, 0.0691453964, -0.0047589322, 0.0109926686, -0.0597116984, -0.0161658321, -0.0668755397, -0.0521300174, 0.0668152124, -0.0269339290, -0.0578748621, -0.0495537743, -0.0342499577, 0.0244021825, 0.0996465683, -0.0406392030, 0.1417364627, -0.0485530533, -0.0594564192, -0.0385202132, -0.0380859189, -0.0911179110, -0.0551717244, 0.0208994281, -0.0488073491, -0.0095194392, -0.0737834349, -0.0377089307, -0.0391041711, 0.0322456695, 0.0597713813, -0.0530073009, 0.0020811262, -0.0684201345, -0.0504115373, -0.0468383469, -0.0312972628, 0.0221735742, 0.0119517809, -0.0465014838, 0.0664758533, -0.0425831601, -0.0545488484, -0.0096558630, -0.0631965697, 0.0331558995, 0.0275191087, 0.0263356306, 0.0734736249, 0.0607864559, -0.0400157012, -0.0695497096, -0.0425243154, -0.0115647521, -0.0172770582, 0.0191279147, 0.0017346330, -0.0140266530, -0.0360140912, -0.0202273745, -0.0085074548, 0.0510370731, 0.0147044156, -0.0187252536, 0.0036794441, 0.0617839843, 0.0125879869, 0.0716208220, 0.1294890642, -0.0142064448, -0.1589260846, 0.0510514304, 0.0330149345, 0.0338922590, 0.0454697087, -0.0240559932, 0.1394044161, -0.0075249379, 0.0889975801, -0.0374905057, -0.1027974263, 0.0528003871, -0.0456939749, 0.0782897398, -0.0360003859, -0.0582929552, -0.0862528011, -0.0373828001, -0.0272918995, -0.0219675489, 0.0022977875, -0.0220580623, -0.0322380476, -0.0125213396, 0.0796626732, 0.0033526102, 0.0247598011, -0.0007506437, -0.0510200895, -0.0166804567, 0.1186970100, -0.0838146880, -0.0160937812, -0.0318023860, 0.0223286655, -0.0287793055, 0.0036327760, -0.0291612502, 0.1063854173, 0.0801364705, 0.1165718734, -0.0225101039, -0.0776263103, 0.0372197814, 0.0324794054, 0.0124802431, 0.2045054585, -0.1925013512, 0.0001690155, 0.0413362868, 0.1099057123, 0.0253400523, -0.0739771500, -0.0357457474, 0.1462981254, 0.0205773395, 0.2024900019, 0.0252495930, -0.0845273063, 0.2095405012, 0.0209635496, 0.0042341915, 0.0253866836, 0.0117073264, -0.0274093933, 0.0062670354, -0.0515721776, 0.0080945930, 0.0106575750, 0.0336338505, 0.0422819480, -0.0541135259, -0.0271298867, -0.0598319098, 0.0777753964, -0.0725271553, 0.0289382152, -0.0342503935, 0.2189122289, -0.1252308190, -0.0691450089, 0.1514142007, 0.0951043442, -0.0072433152, 0.0265136994, 0.1299630702, 0.1242816895, 0.0396783389, 0.1460826397, -0.0169746149, -0.0544959567, 0.0817766935, -0.0359810889, 0.0789937302, -0.0247055646, -0.1532460898, -0.0979893282, 0.0729731321, 0.0227630455, -0.0123107750, -0.0336991996, 0.1373967975, 0.0622465536, 0.0342798084, 0.0792940855, -0.0548161156, 0.0352110192, 0.0817807764, 0.0202096403, 0.0385373905, 0.0627374426, -0.0129325911, 0.0712418556, -0.0163826197, 0.0550662577, -0.0227833446, 0.0518490151, 0.0875096023, 0.0038389943, 0.0317171589, 0.0084987311, 0.0340237096, 0.0024988400, 0.0485016182, 0.0345802307, -0.0135079809, 0.0074933441, -0.1589896530, -0.0702771246, 0.0318118297, 0.0317450091, 0.0406632237, -0.0143667813, 0.0033714094, -0.0337345488, 0.0404290818, 0.0604241975, 0.0190677885, 0.0331337005, 0.0572186671, -0.0479966365, 0.0343735479, 0.2171918452, -0.2583164871, -0.0097304154, -0.0386692323, 0.0988036692, -0.0582619645, -0.0543586873, -0.0461543128, 0.2035898566, 0.0203248486, 0.3017754257, 0.0074722846, -0.1322109848, 0.1366260350, 0.0467982404, 0.0044935448, 0.0446681902, -0.1294018179, -0.0438855626, 0.0291774385, -0.0080410251, -0.0360066481, -0.0522221439, 0.0110844877, -0.0229323953, 0.0583154522, 0.1334191114, -0.0031683687, 0.0254745912, 0.0366081186, -0.0165054463, -0.0353639796, -0.0254262593, -0.0110236984, -0.0497492366, 0.0071800211, 0.0352365971, -0.0518213212, -0.0080444319, -0.0189439617, 0.0129078152, 0.0084194727, 0.0179662406, -0.0057209581, -0.0218609944, -0.0238491148, 0.0422829390, 0.0197947379, 0.0258388892, -0.0195120759, 0.0603216253, -0.0016595531, -0.0547066294, -0.0372025706, -0.0126422225, 0.0366213955, 0.0900680423, 0.1384060681, 0.0361682847, 0.0222093817, -0.0403893106, 0.0146882441, 0.0492847338, -0.0473719537, 0.0769248232, -0.0748328045, 0.0269885883, -0.0198507048, 0.0467974693, 0.0296948235, 0.0236797314, 0.1449908614, 0.1025475040, 0.0484594442, 0.1574215740, -0.0075608823, -0.0077781850, 0.1435161978, -0.0123645067, -0.0462539457, 0.1116615310, -0.2371764928, -0.0610716455, 0.0545727015, 0.1016566753, -0.0581564605, -0.0007517666, 0.0540914312, 0.0675876141, 0.0808026269, 0.1302111894, -0.0112969959, -0.1416760981, 0.1540568620, -0.0573120490, 0.0622478016, -0.0088421293, -0.0005889845, 0.0039502406, -0.0014974894, -0.0689002499, -0.0468859822, -0.0183426142, -0.0980085060, -0.0033479428, -0.0049318955, 0.0624046400, 0.0061481684, 0.0997366607, -0.0224415623, 0.0476700775, 0.0442971215, 0.0307243448, -0.0042650895, -0.0747209638, -0.0031052262, -0.0395950675, -0.0063588945, -0.0109066274, -0.0221830625, 0.0380605496, -0.0157925971, 0.0545336939, 0.0253270976, 0.0867066234, 0.0292841103, 0.0254886355, 0.0540662035, 0.0124172103, -0.0020994055, 0.0167418309, -0.0003704226, -0.0026955686, -0.0511615761, -0.0623182692, -0.0550464019, 0.0325287767, -0.0621071644, 0.0331622548, 0.0017669064, -0.0184948519, -0.0151998717, -0.0318925865, 0.0222542938, -0.0613483526, -0.0777426884, 0.0168890376, 0.0115727121, 0.0448910035, -0.0354516394, -0.0638611019, -0.0090887761, 0.0087196846, 0.0002579646, 0.0344467685, -0.0515643470, 0.0333966836, 0.0669765547, 0.0365621857, -0.0408950076, 0.1172397137, -0.2925660312, 0.0140703786, 0.0383527353, 0.0553085543, -0.0344274417, -0.0405088700, 0.0256599449, 0.1881667823, 0.0296493508, 0.1171352789, -0.0585259609, -0.0332551263, 0.1423443556, 0.0362795703, -0.0218599997, 0.1123719439, -0.1516170055, -0.0543523952, 0.0758661032, 0.1926708817, -0.0240829643, 0.0651745945, 0.0498381928, 0.1234654263, 0.0687839612, 0.1473536938, -0.0112183318, -0.0822735354, 0.1095909849, 0.0305769220, -0.0219694860, 0.1688847393, -0.2197342366, -0.0567986891, 0.0316225663, 0.0382784866, -0.0529143736, -0.0775539503, -0.0105782803, 0.1096958891, 0.0215893928, 0.1008226350, -0.0188787114, 0.0244070198, -0.0066842386, 0.0421066135, -0.0235450193, -0.0304417238, -0.0327304713, -0.0696515515, -0.0055325446, 0.0604728013, -0.0596993789, 0.0212415103, 0.0105653936, 0.0122077726, -0.0316266455, 0.0865119919, 0.0090498533, -0.0861584321, 0.0578834638, -0.0357798748, 0.0382703394, 0.1322927475, -0.2206074148, -0.0340840481, 0.0025435062, 0.0099153640, -0.0316524617, 0.0041564521, 0.0034737126, 0.0807484165, -0.0572413206, 0.2492299229, 0.0053335526, 0.0227124672, 0.0225855671, -0.0545738749, 0.0221628752, 0.0633155257, -0.2097266614, 0.0247160848, -0.0174251758, -0.0050084270, 0.0201175362, 0.0115406541, 0.0381410643, 0.1199405789, -0.0047891373, 0.0776120946, -0.0557281300, 0.0118966047, 0.0781877115, 0.0444618464, -0.0226711109, 0.0502942428, -0.0218740143, -0.1040019393, -0.0074263513, 0.0039572697, -0.0012431102, 0.0156846456, 0.0109578446, 0.0087072086, -0.0113092251, 0.0253071152, -0.0528662913, 0.0236500017, 0.0284300465, -0.0570970997, -0.0569874831, -0.0678506494, 0.0593217649, -0.0454731546, -0.0338546485, -0.0527854487, -0.0483652987, 0.0239166562, 0.0128064929, -0.0358544439, 0.0123448037, -0.0600560158, -0.0467210226, 0.0045137536, -0.0266172346, 0.0357349329, -0.0415619947, 0.0252458919, 0.0452218130, 0.0830142051, 0.0549669638, 0.0062088775, 0.0421273075, -0.0277355090, -0.0068113944, -0.0174226686, 0.0140439840, 0.0472968891, -0.0316359326, -0.0428450219, 0.0335548557, -0.0247439556, -0.0494166873, -0.0463874713, -0.0353314839, -0.0629498586, -0.0089331716, 0.0582711324, 0.0111112623, 0.0337324105, -0.0790902078, 0.0126597444, -0.0504980423, 0.0804513469, -0.0518980548, 0.0727700219, 0.0137658911, -0.0351915658, 0.0326538011, 0.0442638099, -0.0857358351, -0.1036027446, 0.0033594449, 0.0156365670, -0.0116190352, -0.0492015332, -0.0050760861, 0.0240688697, 0.0360707454, 0.0138333431, -0.0051197945, 0.0615978576, 0.0390062667, -0.0022994319, 0.0328379236, -0.0508280993, -0.0587887801, -0.0497007072, -0.0035674165, 0.0271591432, -0.0313773006, -0.0273102839, 0.1243200898, -0.0538688563, 0.0909884572, 0.1035703123, 0.0049529090, 0.0475467667, 0.0505792163, 0.0068721748, -0.0031714849, 0.0433006808, 0.0182633456, -0.0454706959, -0.0440415777, -0.0117830783, 0.0240886733, -0.0467010587, -0.0042089340, -0.0579369217, -0.0373327471, 0.0106150126, -0.0100197755, -0.0091178017, -0.0499641113, 0.0254924819, -0.0302826948, 0.0972098410, -0.0491531789, -0.1337496638, -0.0071855849, 0.0381412208, -0.0161276385, 0.0183947310, -0.0332414955, 0.1119325534, 0.0154274274, 0.0379219428, 0.0040688305, -0.0709799007, 0.0271989200, -0.0213666297, 0.0297471564, 0.0803583935, -0.0946615338, -0.0716960728, -0.0348871052, -0.0057797837, -0.0507198125, 0.0374519378, -0.0316378623, 0.0217364021, -0.0721864253, 0.0429340675, 0.0167394876, -0.0538144261, 0.1102688536, 0.0407635234, -0.0065177758, 0.0986349657, -0.1224163771, -0.0046376074, 0.0164358355, -0.0141252484, -0.0092397826, -0.0290504210, -0.0634993538, 0.0764809251, -0.0348397233, 0.1248506308, 0.0087917000, -0.0674278885, 0.1186498553, -0.0064124507, -0.0274533313, 0.0504798181, -0.1529592276, -0.0602927282, -0.0024755534, 0.2018636614, -0.0225188043, 0.0089600999, 0.0530674383, 0.0333500020, 0.0208144765, 0.1278702021, 0.0393995270, -0.0025452697, 0.1086148322, -0.0516338348, 0.0593834482, -0.0427172482, 0.0214916132, 0.0463914573, 0.0073014339, -0.0427667089, -0.0566296652, -0.0543206930, -0.0105976732, -0.0491841435, 0.0147458008, 0.0409644730, -0.0124345152, 0.0736815184, -0.0404770710, 0.0077815098, -0.0181708299, 0.0756829083, -0.0387211628, -0.0904626176, 0.0735893399, 0.0984920189, 0.0420298688, -0.0250832513, 0.1049566194, 0.0396394692, 0.0448760316, -0.0672004670, -0.0002713609, -0.0179334600, 0.1142631993, 0.0006774664, 0.0550949350, 0.1013728902, -0.2546034753, -0.0073689464, -0.0212234519, -0.0499790199, 0.0425138660, 0.0293726046, 0.1123149022, 0.0965336412, 0.0318982750, -0.0772614032, 0.0259639919, 0.0369947031, 0.1349118203, 0.0390954763, 0.0337109640, 0.0551831424, -0.0271078963, 0.0328453183, 0.0195294842, 0.0508488081, 0.0460896790, 0.0095425928, 0.0405544713, 0.0616236106, 0.0666910484, 0.0629506037, -0.0264783911, -0.0091613857, -0.0426901653, -0.0431756452, -0.0352462828, -0.1000331417, -0.0093437489, -0.0584055223, 0.0173987448, -0.0024786675, -0.0126898838, 0.0107613178, 0.0238401275, -0.0244704261, -0.0119291674, 0.0049688788, -0.0032798084, 0.0426904000, 0.0070153535, -0.0354049318, -0.0469625182, 0.1373232156, -0.2343957275, -0.0269346833, 0.0609281100, 0.0865628272, -0.0294428468, 0.0426386297, -0.0659133121, 0.1921754032, -0.0139863268, 0.2291432172, -0.0595602356, -0.0802615210, 0.1255059093, -0.0109182419, 0.0470870323, 0.0525313728, -0.0757680014, -0.0076183416, -0.0113977278, -0.0025828856, -0.0270829089, 0.0441966802, -0.0310907830, 0.0285943933, 0.0416064337, 0.0972247273, -0.0465850160, -0.0278711151, 0.0838484690, -0.0346509181, 0.0461512469, 0.0100151720, 0.0579973198, 0.0446870849, 0.0139816850, 0.0071815439, -0.0151986033, -0.0260677505, -0.0198526457, -0.0052289837, 0.0230584219, 0.0274466947, 0.0355196372, -0.0335278325, -0.0248495229, -0.0217576586, 0.0368166938, -0.0456206165, -0.0310891811, -0.0168951601, 0.0023442733, 0.0068000732, -0.0172182471, -0.0167678595, -0.0323990285, 0.0195996501, 0.0190922711, 0.1003102884, -0.0322335623, -0.0312778912, 0.0351926424, -0.0057541728, 0.0063744737, 0.1055729017, -0.1477698237, 0.0079373131, 0.0310507100, 0.1076753214, 0.0119869886, -0.0079310657, 0.0828781277, 0.1300340146, -0.0185561702, 0.0417695269, -0.0089628184, -0.1041869596, 0.1415008157, -0.0373107567, -0.0424947031, -0.0048340969, -0.0296238717, -0.0433052406, -0.0129530113, 0.0566237159, 0.0437393486, -0.0255739372, 0.0733926594, 0.0022423912, 0.0485342033, 0.0390278026, -0.0470222794, 0.0461823829, 0.0948731527, -0.0288916025, -0.0243028030, 0.0319072008, 0.0269552972, 0.0272165295, -0.0023116248, -0.1007774621, 0.0455342755, -0.0409641080, -0.0601425469, 0.0058831661, -0.0335341059, -0.0095797805, -0.0014203462, 0.1198591962, -0.0244271681, -0.0303461570, -0.0531036071, 0.0187628642, -0.0340874009, -0.0644214228, 0.0222327653, -0.0024826617, -0.0492652878, -0.0096986005, 0.0963793099, -0.0269605890, -0.0411136709, -0.0054516247, 0.0024156319, 0.0980525762, -0.0279085822, 0.0268277712, 0.0231251977, 0.0372768044, -0.0156991482, -0.0030468237, -0.0107171750, -0.0562374331, -0.0021530944, 0.0431878902, -0.0431232490, 0.0497085080, -0.0515037328, -0.0487287976, -0.0265925508, 0.0644633919, -0.0289311260, -0.0146225374, -0.0340973884, -0.0596783720, -0.0157493073, -0.0104165552, 0.0146737574, -0.0192144178, -0.0101474095, -0.0509316437, -0.0045020725, 0.0239526592, 0.0009600844, -0.0748404264, 0.0427760519, 0.0140803223, 0.0082906503, 0.0161491521, -0.0360962451, 0.0874936208, -0.1927917600, 0.0021989483, 0.0196465440, 0.0295017976, -0.0332022794, -0.0280022584, -0.0069799707, 0.0618456975, -0.0149427680, 0.1453596652, 0.0002958995, 0.0037000205, 0.1516468078, 0.0033203037, 0.0105606038, 0.0644847825, -0.0600960553, -0.0334044024, 0.0995436311, 0.1918297857, 0.0070205890, 0.0962023288, 0.1174363121, 0.0689859912, 0.1657213420, 0.1196593568, 0.0113626597, -0.0672246367, 0.1521922946, 0.0361488611, -0.0026594284, 0.1171882525, -0.0693941638, -0.0281743053, 0.0418637991, -0.0145635251, -0.0196785796, -0.0413268246, -0.0324987806, 0.1040380746, -0.0174915232, 0.1550223976, 0.0510654524, 0.0121940216, 0.0318505615, 0.0009753481, -0.0009726995, -0.1142824441, -0.0012407418, -0.0265657920, -0.0642869696, -0.0586841851, -0.0463648066, 0.0001897178, 0.0612757765, -0.0137271769, 0.0892849416, -0.0584526584, 0.0140327848, 0.0180709045, 0.0295512304, 0.0021573126, 0.0501424670, 0.1306664795, -0.1996847838, -0.0739485770, -0.0220771786, 0.0249505211, -0.0185192041, 0.0415984765, -0.0430398844, 0.1726777405, -0.0412681997, 0.2133034617, 0.0303905234, -0.0081972443, 0.0989882573, -0.0258647185, -0.0296848305, 0.0559253097, -0.1673890203, 0.0012375909, -0.0323033705, 0.0400416888, -0.0497899093, -0.0173625927, 0.0535214804, 0.0716271028, 0.0105297565, 0.1033410430, -0.0016632954, 0.0949843749, -0.0268730037, 0.0331248753, 0.0442726463, -0.0034205171, 0.0585981794, -0.1126460806, 0.0266924575, 0.0300618745, 0.0139416549, -0.0420052893, -0.0005622833, 0.0670105219, -0.0975819379, -0.0725574940, -0.0264337435, 0.0035439087, -0.0299958996, 0.0465824977, -0.0280391760, 0.0151476273, -0.0141041484, -0.0383748747, -0.0349530578, 0.0324959680, 0.0052279537, 0.0497266240, -0.0455123857, 0.0151447058, -0.0252366681, -0.0788921043, 0.0114785274, 0.0450643599, 0.0060623116, -0.0388022847, -0.0142289177, 0.0103546400, 0.0353864916, 0.0237209294, -0.0271911453, -0.0222038049, 0.0153294271, 0.0247808285, -0.0264905952, -0.0210019257, 0.0619949251, 0.0044886684, 0.0169880558, 0.0857636258, -0.0806968659, -0.0446006209, -0.0053426572, -0.0063341660, -0.0845008865, -0.0703320578, -0.0035892702, 0.0029824600, -0.0436022133, -0.0566469021, 0.0253358055, -0.0028701178, -0.0358168259, 0.0228973124, 0.0297270119, 0.1274569035, 0.0213016532, -0.0533233359, -0.0037219736, 0.0647011623, -0.0137495063, -0.1005777866, -0.0587811172, -0.0464724265, 0.0248859059, -0.0463904031, -0.0243370533, -0.0061134710, -0.0185470730, 0.0564291030, 0.0313215181, 0.0332126096, 0.0448475182, -0.0448966920, -0.0054442277, -0.0296835098, -0.0364973694, -0.0624370314, -0.0065342262, 0.0181517676, -0.0357685350, 0.0393050089, 0.0882155374, -0.0635837838, 0.0147594288, -0.0511462241, -0.0348073095, 0.0398638807, 0.0228020735, 0.0066154525, -0.0340723284, 0.0805617869, -0.0357942432, 0.0256098509, -0.0404913425, 0.0240556225, -0.0285570193, 0.0075878473, 0.0038492363, 0.0034534102, 0.0364066735, 0.0562282242, -0.0399966203, 0.0376185179, -0.0057209809, -0.0175640807, 0.0478294678, 0.0488114618, 0.0019429427, -0.1120410189, 0.0114347953, 0.0043440736, -0.0362608880, 0.0162148140, 0.0125298733, 0.1421320289, 0.0194984078, 0.0398538746, 0.0125036696, -0.1230779067, 0.0935910195, -0.0426246300, 0.0418293700, 0.1278847158, -0.0796443969, -0.0465735905, 0.0081547191, -0.0035661650, -0.0573913418, 0.0165453888, -0.0063341768, 0.1219922453, 0.0312174484, 0.0149309989, -0.0129011134, -0.0719644576, 0.0825078636, 0.0216031242, -0.0345485806, 0.1129833907, -0.1412002593, -0.0599335134, 0.0484231189, -0.0701150149, 0.0389004350, -0.0475811996, 0.0111104911, 0.1117236316, -0.0027405329, 0.0653830320, 0.0094326576, -0.0646456629, 0.0472458377, -0.0219133440, -0.0495135561, 0.0984255746, -0.1667401493, -0.0149481064, -0.0017525104, -0.0021526907, -0.0453266986, 0.0732180625, 0.2450129241, 0.0992245674, 0.0456816740, 0.1033853740, 0.0031290948, -0.1995548308, 0.1759816557, -0.0009444579, -0.0223630536, -0.0613994673, -0.0559817627, 0.0141559672, -0.0089871651, 0.0379605740, -0.0350154825, -0.0169939008, -0.0396497063, 0.0486640297, -0.0225172173, 0.0671313331, -0.0184092689, -0.0510418117, -0.0289550368, 0.0360407755, 0.0045437352, -0.0697928220, -0.1140975729, -0.0683189109, 0.0196911953, 0.0502342992, 0.0432239957, -0.0317978375, 0.0377788134, 0.0299498830, -0.0409816317, -0.0991555154, 0.0241177287, -0.0040798993, 0.0021233785, 0.0235709269, -0.0209680069, 0.0691640079, -0.1637752801, -0.0748106167, 0.0176695827, -0.0265079681, 0.0114127258, 0.0504205786, -0.0384871289, 0.0695849732, -0.0121345855, -0.0672237724, -0.0084153255, 0.1077346504, 0.0782620609, -0.0475432314, -0.0061903028, -0.0596634746, 0.0598997511, -0.0289017279, 0.0125704911, -0.0455872901, -0.0028022726, -0.0320826992, 0.0210283492, -0.0407853015, 0.0837602019, 0.0210897755, -0.0222670007, 0.0555124469, -0.0677001700, 0.0528312624, 0.0011430380, -0.0273156632, -0.0324366651, 0.0680479333, -0.0508181006, -0.0405825675, -0.0274523068, 0.0131792882, -0.0659269914, -0.0666924044, -0.0518248416, -0.0365114659, 0.0041602910, 0.0708121955, -0.0884119049, -0.0005212432, -0.0463489555, 0.2172481865, -0.2457437962, -0.0223785471, 0.0329716206, -0.0189838689, -0.0399630703, -0.0280108396, -0.0039588562, 0.2157647312, -0.0552858412, 0.2086369842, -0.0437862948, -0.1721460074, 0.1418965906, 0.0335353203, -0.0336669609, 0.0438435338, -0.0091918958, 0.1111913696, -0.0423646756, 0.0184686817, 0.0263227299, 0.0007696319, -0.0431003086, 0.0234031565, 0.0223782714, 0.1069680378, -0.0490736663, -0.0809290633, 0.1189264730, 0.0362666175, 0.0410845503, 0.0465933792, 0.0593513474, 0.0244846102, -0.0073882579, -0.0212976709, 0.0130019560, 0.0038706865, 0.0363645703, -0.0320598297, 0.0311711729, 0.0306792594, 0.0366533995, 0.0223445743, -0.0547655858, 0.0110814720, -0.0225252137, -0.0260400772, -0.0628239885, -0.1267447025, 0.0067049754, -0.0420194194, 0.0162310600, -0.0344076641, -0.0742020458, -0.0368175581, -0.0401807949, 0.0501632169, 0.0196495261, -0.0476036109, 0.0249747057, 0.0183165669, 0.0153123382, -0.0040607937, -0.1666736007, -0.0096406275, 0.0011311497, -0.0108202640, -0.0171715915, -0.0195972938, 0.0578374080, 0.0741830990, -0.0098983310, -0.0053632776, -0.0069326754, 0.0465023667, 0.0569980852, 0.0037128746, 0.0107668610, -0.0504534692, 0.0142571069, 0.0433726273, 0.0468604155, -0.0237791426, 0.0275140870, 0.1153393686, 0.0460567512, -0.0568779297, 0.0503663756, -0.0029125467, -0.0110572781, -0.0057052630, -0.0406536981, 0.0052737887, 0.0392637439, -0.0213817749, -0.0070725232, -0.0114087062, -0.0071001174, -0.0148004293, -0.0070096916, -0.0532060787, -0.0141164651, -0.0369709618, -0.0117742764, 0.0006028708, -0.0296919011, 0.0346321613, 0.0802445784, -0.0484984443, 0.0277026575, -0.0071199164, -0.0257237460, -0.0675983429, -0.0340182260, -0.0074898661, 0.0259449575, 0.0033578924, 0.0275657661, -0.0261674430, -0.0095388982, -0.0130243823, 0.0046569319, -0.1851480156, 