//Numpy array shape [3, 3, 16, 32]
//Min -0.366335690022
//Max 0.397596091032
//Number of zeros 0

#ifndef W5_H_
#define W5_H_

#ifndef __SYNTHESIS__
conv2d_1_weight_t w5[4608];
#else
conv2d_1_weight_t w5[4608] = {0.1715247631, 0.0117658880, -0.0308383163, 0.1143074483, 0.0483075604, 0.0176770706, -0.0432631634, -0.1793452054, -0.0919146314, -0.1404837817, 0.1066689864, -0.0884019807, 0.0896875039, -0.1490484774, 0.0562081113, 0.0836201683, -0.1094862297, 0.1638733894, 0.0047665862, 0.1468250155, 0.0438594446, 0.1628469527, 0.1364881247, -0.0254937075, 0.0031845658, 0.0859214887, 0.1506002992, -0.0214920137, 0.0583453737, -0.0329971239, -0.0072118333, -0.0352438502, -0.0334399901, -0.1134557873, 0.0239088014, 0.0706324205, 0.0829061270, -0.0537580326, -0.0839326754, -0.0813472793, -0.0706272870, 0.0649124011, 0.0464868061, -0.0729604214, 0.0221310351, -0.0576975979, 0.0753659680, -0.0960369110, 0.0425372012, -0.0042927531, -0.1195307225, 0.0470474549, 0.1111406907, 0.0928533599, -0.0470692106, -0.1081506386, 0.0335331410, -0.1341273338, 0.0037432429, 0.0354318246, -0.0116566094, -0.2020599246, 0.0283027757, 0.0815098956, 0.0288285669, -0.0889016166, 0.0492003858, 0.0992013663, 0.1317085028, 0.1603867412, -0.0794835761, 0.0418804325, -0.0512994267, -0.0215454213, 0.1054084376, -0.0245200340, 0.2396902293, -0.0773006082, -0.0547192618, 0.0776104033, -0.0701066777, 0.0836378187, 0.1033101380, 0.0800049752, -0.0027353799, 0.1628846079, -0.0261334553, -0.1108942926, 0.0406939611, -0.1211856753, 0.1282030046, 0.0362275206, 0.0544180050, -0.1181159988, 0.1216153279, 0.0770079866, -0.0019679333, 0.0422071032, -0.1208757982, -0.1011470407, -0.0422547534, 0.2125705034, -0.0039232885, -0.0557472929, -0.0174422078, 0.1649451405, -0.2085694224, -0.0106249796, 0.0556832813, 0.0806537271, 0.0239279047, 0.0595080964, 0.0418219343, -0.0311789401, 0.1665955484, -0.0227274485, 0.0604428202, -0.0949740559, 0.0612307824, 0.0057633095, -0.0267969184, -0.0763932094, 0.1213309094, -0.0889567137, 0.0567922071, 0.0469255075, 0.0208155978, -0.0996176153, -0.0255787428, -0.0497139506, 0.1252385825, 0.0560794026, 0.0876227319, 0.0655818507, -0.1872313917, -0.0685032308, 0.0887923315, -0.0091555845, 0.1001333445, -0.0452307910, 0.0328528881, 0.1098056436, 0.1120247021, 0.0256115999, -0.1537534595, -0.0023847609, -0.0550684296, 0.0689726323, 0.0113630379, -0.0632532015, -0.0647507459, 0.1006003842, -0.1176642403, -0.1023366004, 0.1196531281, 0.0285122786, 0.0923394486, -0.0985139534, -0.0769876018, -0.0317318477, -0.0068113864, 0.0849514678, -0.1331286579, 0.0075282631, 0.0039728438, -0.0609435253, 0.0497289598, 0.0454986468, -0.1291496605, 0.0435118861, 0.0038615854, -0.0267256014, 0.0090164291, 0.0668296218, 0.0159213766, -0.0738032535, 0.0007587584, 0.0247001741, -0.0461124480, -0.0888196006, 0.1227971166, -0.1686427444, -0.1224620715, 0.0536306575, -0.0432607904, -0.1092342809, -0.0830125287, 0.0529918186, -0.0051341122, -0.0960335806, 0.0823308825, -0.0133357579, -0.1009646654, 0.0936524048, 0.0581970438, -0.1250408441, -0.1760077924, 0.0478103012, -0.0240344834, 0.0283460971, -0.2027371824, 0.0744824484, -0.0032620374, -0.0795397684, 0.0258100238, 0.0466453619, -0.1184024960, -0.0292699616, 0.0299007352, -0.1024445295, 0.0648989081, -0.1184793413, 0.0432579368, -0.1361951083, -0.0405326039, 0.0182849243, 0.0906178653, -0.1744863540, -0.1753118634, -0.0219192207, 0.0350337885, -0.1322941780, 0.1189335659, -0.0498874560, 0.0262400564, -0.0710612833, 0.0907474011, 0.0517734364, 0.0608729459, -0.0240359008, -0.0788309276, 0.0322735570, -0.1454109997, -0.1286699623, 0.1320821643, -0.0185819827, 0.0866586789, -0.0432403758, -0.0744203031, -0.0929183438, -0.1573165208, 0.0551643036, 0.0068600392, 0.0045485352, -0.0595832244, 0.1029529870, 0.0268902332, 0.0585536733, 0.0261640735, -0.0123631107, -0.0946693793, -0.0233924985, -0.1231746674, -0.0191586670, 0.0996757224, 0.0141408499, 0.0861880258, 0.0865704194, 0.0323351100, -0.0366350450, 0.0449064188, -0.1120414585, -0.1591371596, 0.0218161717, -0.0289580859, -0.0216898955, -0.0191191640, 0.1013889015, 0.1384675056, 0.0110470513, 0.1050629839, 0.0510925688, -0.0546065867, 0.0416252688, 0.0361042954, 0.0436853543, 0.0587384179, 0.0071341717, -0.0159988590, -0.0128809251, -0.0292802267, -0.0332607105, -0.0292705242, -0.1030146033, -0.0947458372, -0.1876595318, -0.0245568566, -0.0568668507, 0.0328077637, -0.0592619367, -0.0276106130, -0.0574115813, -0.0516276546, -0.0750882924, 0.2372375727, -0.1232436970, -0.1153981164, -0.0434412509, -0.0457349345, 0.0369492583, 0.0659055263, 0.0617507212, 0.1653891802, 0.0107124448, 0.1519861817, -0.0808371454, 0.0954104736, -0.0152657405, -0.1396175027, 0.0972607210, 0.0224577803, 0.0303783342, 0.0720662102, 0.0623386353, 0.3181168139, -0.0270664059, -0.1173627898, 0.0903382972, 0.0914340988, -0.0994230658, 0.1573344916, -0.1748964041, 0.1100316048, 0.0529955700, 0.1625744402, 0.2091254294, -0.0909395292, -0.1439576298, 0.0541205257, 0.0939160734, -0.0145627419, -0.1305700839, -0.0119519830, 0.1136854813, 0.0594484396, 0.0819936842, -0.0333075859, 0.0856923535, 0.1342663467, -0.0470009744, 0.0984396487, 0.1020783186, 0.0056768954, -0.0583602749, -0.1182941422, -0.1373970956, 0.1037064195, -0.0170270614, 0.2413080335, -0.0215577781, -0.1397122145, -0.0943010077, 0.0252129789, -0.0757250115, 0.0368231162, -0.1783675998, -0.1307620704, 0.0938126072, -0.1471937299, 0.0435690321, 0.1473784745, 0.0861141756, 0.0343428403, -0.0155706154, 0.2507393062, -0.0634873584, 0.1573968381, 0.1376987994, -0.1171918288, -0.0315418765, 0.3095814586, 0.1951898783, 0.0300643779, 0.0445650369, 0.0063809971, 0.0263672490, -0.0327541120, -0.1406153738, 0.0763529614, -0.0843511075, 0.1402733177, -0.1373448372, -0.1201979890, -0.0378405489, 0.1024049893, 0.0241416674, -0.1004308611, -0.0412074327, 0.0189132113, 0.0705100894, -0.1451972127, -0.1750759780, -0.1162047237, -0.0915678814, 0.0308780242, -0.0253174677, 0.0731111020, 0.0261957049, 0.1027173921, -0.1031766459, -0.0430918559, -0.1682801247, -0.0009115268, -0.0483574569, -0.0991227552, 0.0597157143, -0.0876324549, -0.1591027975, -0.0920499191, -0.0989189073, 0.0743454024, 0.0809918940, -0.0889600739, 0.0504235961, -0.1397406310, -0.0786122978, -0.1259742677, -0.0349347964, -0.0733978972, -0.1492267847, -0.0004373479, 0.0485879332, -0.0709066316, 0.0437984429, -0.0144155575, 0.0883448273, -0.0970974267, -0.0066861282, -0.0640439019, 0.0212188270, -0.0041379416, -0.0312039535, 0.1031544581, 0.0347635783, -0.1088623554, 0.0817620084, -0.0296721440, -0.0058054910, 0.0609713830, -0.1085397974, -0.0973079056, 0.0238836668, 0.0895619541, -0.1267934293, 0.0544136912, 0.1398442686, -0.0362723097, 0.1025955305, 0.0125928689, -0.0587392040, 0.0658326223, -0.0565959439, -0.0616691969, 0.0317852311, -0.0279930271, -0.0567575730, -0.0542884581, 0.0252103750, 0.0074402690, 0.0170706585, -0.0583573841, 0.1214699671, -0.0984739363, -0.0155865252, -0.0339642018, -0.0184271391, 0.0163385551, 0.0765406713, -0.0000828833, -0.0777384117, 0.0748024583, 0.0961648375, -0.1081993058, -0.0400362238, 0.0970029607, 0.0785216838, 0.0870826095, -0.1234038621, 0.0337253734, -0.0943594798, 0.0111713987, 0.0822625384, -0.0649956316, -0.2191380113, 0.0134526612, 0.1785290688, 0.0422846153, 0.0103449840, 0.1537686735, 0.0381183401, 0.0352972336, 0.0454493575, -0.0716496408, -0.0111965965, 0.0276573412, 0.0164402630, 0.0904312432, -0.0254718661, 0.1225997061, -0.0552761517, 0.1050223187, 0.0555331297, 0.0452375300, 0.0376249142, 0.0885856301, -0.0110810790, 0.0354099683, -0.1232128367, 0.1555784643, -0.1320926696, -0.1967102438, -0.1339003146, -0.0293868259, -0.1525449753, -0.1152840927, -0.0998941064, 0.0885504112, -0.0090649696, -0.0947170407, -0.0434083715, -0.1198171228, -0.0658196807, -0.0428241380, -0.0703416094, -0.1923539639, -0.0275172554, -0.1076279134, -0.0091776606, -0.1460510045, -0.1313425452, -0.0809834301, -0.1070844755, -0.0459602475, -0.0078263283, -0.0523882955, -0.0786095709, 0.0130522195, -0.1038929224, 0.2386047393, 0.0182455089, 0.0050748545, 0.0346479341, 0.0104913460, 0.1032323092, 0.0053178212, -0.1020122319, 0.0041840789, 0.0761334598, 0.1144726053, 0.0346369483, -0.0289776009, -0.0672767833, -0.2028320134, 0.0896161273, -0.0387445912, -0.0074144313, -0.0231591668, 0.0795361400, -0.1071554720, -0.0895421505, -0.1746865958, -0.0936314762, 0.0765996948, -0.1026207581, -0.1265994310, 0.0132468166, 0.0665672272, -0.0917426050, -0.0407851413, -0.1057333574, -0.0795703307, -0.0024660993, -0.0659038946, -0.1612697542, -0.0061195157, -0.0587249026, 0.1022414044, -0.0754681826, 0.1752696931, 0.0987305120, 0.1279892921, -0.0503291152, -0.0512887314, 0.1006794795, -0.0855314359, 0.1272107959, 0.1075011119, -0.0672536865, 0.1007458493, 0.1659059078, 0.0289586149, 0.0798348039, -0.0711197034, 0.0420028679, -0.0200597290, -0.0104523245, 0.1913407892, 0.1596222073, 0.1975654513, -0.1089308411, 0.1730920374, -0.1315849572, 0.1606540084, 0.0445340239, 0.1726261079, -0.1324123591, 0.0002429601, -0.0369247347, 0.0752685443, 0.0810195282, 0.0467740707, -0.1163765565, -0.0535024218, 0.0978511199, -0.0695268810, 0.0776536390, 0.2020443529, 0.0937834606, 0.0065251305, -0.0355446078, 0.0912113115, 0.1004719287, 0.2480220646, 0.0613834448, -0.0065451949, 0.0371898338, 0.1818353683, 0.0247237701, -0.0079585006, 0.0344859883, -0.0941877589, 0.1057741195, -0.2007349283, -0.0636043027, -0.1115236804, -0.0348792188, 0.1189915612, -0.0117557636, -0.1345536411, -0.2456465960, 0.0652266219, 0.0843254253, 0.0905304402, 0.1233125106, 0.1152449399, 0.0972688869, -0.2365064621, 0.1062168032, -0.1057610139, -0.1177909672, 0.0841125697, -0.0673356652, 0.0477268323, 0.1125470698, -0.0235052463, 0.0387545153, -0.1594370306, -0.0057332520, 0.0261335690, 0.0654936731, -0.0403250642, 0.0769444332, 0.0932705477, 0.1275969148, -0.0188422110, -0.1543658525, -0.1448537409, 0.0074670874, 0.1471442133, -0.1452949643, 0.1014324352, -0.0988087133, -0.1124767438, -0.1228190139, -0.2029302269, -0.1143101305, -0.1161603481, -0.1044049561, -0.1026140526, -0.0957402661, 0.0381482653, 0.0767178908, -0.0257987734, 0.0622900240, -0.0644315705, 0.0301217455, -0.0766592100, 0.0154530117, 0.0581197590, 0.0304240454, -0.0130465105, -0.1219808087, 0.0616383888, -0.0610631518, -0.0272556227, -0.1055019572, -0.0190020315, -0.0673906729, -0.2297818512, -0.0945200324, 0.0442951657, -0.0801792815, -0.0610580221, 0.0393859446, -0.0648815036, 0.0390189961, 0.0666074380, -0.0177956466, -0.0039061324, 0.0476282798, -0.0784621835, -0.0435855240, -0.0521936379, -0.0064720535, 0.1300247461, -0.0747739524, 0.0649190322, -0.0399662107, 0.0379591882, 0.0851351172, -0.1411357671, 0.1023173109, 0.1496330798, 0.1356692761, -0.0032516404, 0.0362036005, 0.0508954041, 0.0100326808, 0.0856548101, -0.0800388381, -0.0403565802, -0.1226236895, 0.1171968579, -0.0087713478, 0.0362662561, 0.0691335574, -0.0789107680, -0.0364453681, 0.0224704649, 0.0433972143, -0.0243789069, -0.1146266758, -0.0166832805, 0.0593896322, -0.0779296085, 0.1285590827, -0.0208235811, -0.0484641418, 0.0230074357, -0.0933172330, -0.1132352874, -0.0524528995, -0.0886991471, -0.0969673470, -0.0380693600, -0.0006297373, -0.0801554695, -0.0814376250, 0.1482922435, -0.1550458521, 0.1227460876, -0.0286944099, 0.0588379838, 0.0048406841, 0.0240548737, -0.0159991905, 0.0842519552, -0.0059496406, 0.1405717582, -0.0322406963, 0.0140588610, 0.0234963931, -0.0264642946, 0.0711938590, -0.1658255756, 0.0020008693, -0.1174865365, 0.0437309667, 0.0672762319, 0.0530967824, 0.2022248954, -0.1088767499, -0.0313454755, 0.0122808041, -0.1626092345, 0.1196974441, 0.0038718046, -0.0764485523, 0.0445338748, 0.0007781888, 0.0622661598, -0.0255848262, -0.0268259235, -0.0763477162, -0.0710070357, 0.0436850898, -0.1025883332, 0.0032024281, -0.0810512528, 0.0975621715, -0.0149488645, 0.0493263267, 0.0753625706, 0.0285623688, -0.1258606166, -0.1864464134, 0.2899677753, 0.1147901639, -0.1043408364, -0.0617003590, -0.0177424066, 0.0308119208, 0.2353996038, 0.1045528054, -0.0660078600, -0.1850634813, 0.1460738778, -0.1107073054, -0.1729022563, -0.1258266121, 0.2499933094, -0.2050287873, -0.0550724156, -0.0838530436, 0.0786577836, 0.1701986641, 0.1704137027, -0.1461696625, -0.3472920656, 0.2295627296, 0.0052354103, -0.0733623058, 0.0400595032, -0.1954679042, 0.0489871204, 0.0661495700, 0.0579695143, 0.0348911956, 0.0057948017, 0.1454477012, 0.0127399946, 0.0392845720, 0.1156593859, -0.0079506645, 0.0823463872, 0.1232712194, -0.0131230094, 0.0548086055, -0.0230006706, 0.0639020354, -0.0329945162, -0.0806906000, -0.0169851445, 0.1256694496, -0.0536394045, -0.0249446202, -0.0799424574, 0.0168380570, -0.0297933314, 0.0613403283, 0.1228054762, -0.1226825714, 0.0138636194, -0.0825189352, 0.2018732876, 0.0732060149, 0.1622468978, 0.1316057891, 0.2423827350, 0.2826387882, -0.0868657827, 0.1079003438, 0.1277209222, -0.1351427883, 0.1084127054, 0.0481687114, 0.1768887341, -0.0388676412, 0.1339737326, 0.1180530414, -0.0951636508, 0.2675787210, 0.1708845496, 0.1680384427, 0.0656178147, 0.1365261376, 0.0329199545, 0.2323479950, -0.0966769755, 0.0059921620, -0.1577358544, 0.0419762582, 0.1544166505, -0.1537606269, -0.0821674764, -0.0390148871, -0.0284120645, -0.0231352951, 0.1170659065, -0.0118695656, 0.0630758554, -0.0443246849, -0.1487323642, -0.0997338817, -0.0939309821, 0.0836479664, -0.0488252528, -0.0020786515, 0.1078768224, 0.1471254528, -0.2260144949, 0.0113208825, -0.0021983786, -0.1779075414, -0.1306900084, -0.1288262159, 0.0020037491, -0.0088878404, -0.1199651510, -0.2773307860, -0.1010580510, -0.0645679012, 0.0087705944, -0.0336730108, -0.1418018490, 0.1364192814, 0.0424972288, 0.0293514188, -0.0836853459, -0.0689432845, -0.0966566727, -0.0065606008, 0.0253885053, -0.0483493730, -0.0001373952, -0.0750025809, -0.1053984091, 0.0857628956, -0.0586447455, -0.0538570248, 0.1134213731, -0.0835814849, -0.0116550243, 0.1931602508, -0.0806504935, -0.0290914215, -0.1077814624, -0.0593792833, 0.0215194561, -0.0025986312, 0.1135936007, -0.0813879669, 0.0888380036, 0.0474574901, -0.0570671409, 0.0044560744, 0.1114885509, -0.0375576094, -0.0945703015, 0.0590564571, -0.0238869861, -0.0370482169, -0.0383428708, -0.0112217851, -0.0459164381, -0.0564295501, 0.0365085639, -0.0071619553, -0.1033610627, -0.0848148316, 0.0307087749, -0.0168168005, 0.0798208565, 0.0858618915, -0.0052872323, 0.0687942803, -0.1118824035, -0.0340206772, 0.0681487098, 0.0205844436, -0.0903503150, 0.0817841068, -0.0148228062, 0.0750712082, -0.1084527895, 0.1331266761, -0.0522064753, 0.0648295283, -0.0577616245, 0.0006291547, 0.0214314740, 0.0075635938, 0.1128618270, 0.0472802185, -0.0935436040, -0.1634020805, 0.1643552780, 0.1497968733, -0.0161322784, 0.0125568109, 0.2237662971, -0.0980587304, -0.0432106666, -0.1106490865, 0.1086164564, 0.0054237139, 0.2057931721, 0.2246006429, 0.0933768451, 0.0070807254, -0.0246219356, 0.0634460300, -0.0869281963, 0.1019253954, 0.1002790481, 0.2487143874, -0.1179533377, -0.1124074683, -0.1341384202, 0.0233165491, 0.0808798075, 0.0370173864, -0.1376910955, 0.0157030951, -0.0505305901, -0.0821125135, -0.0303985402, -0.0156712849, -0.0085215429, -0.1641180515, 0.0706276819, 0.0371347181, -0.0048399796, 0.0783577487, -0.1393356323, -0.0085458178, 0.0070680068, -0.1259969175, -0.0329928063, -0.0157727879, 0.1298010647, -0.0358460359, -0.0119461585, -0.0827692598, 0.1146523580, -0.2600457966, 0.0611905642, -0.0306280423, 0.0906562805, 0.1083165556, 0.1370767504, -0.0947434828, -0.0786029994, 0.1153238937, -0.0604591593, 0.0204757527, 0.0169844460, -0.1474136412, -0.0633450150, 0.0193062089, 0.0641780421, -0.0689322576, -0.0914413631, -0.0125856018, -0.1222925410, 0.0242067892, 0.1420481503, -0.1028326824, 0.0632007793, -0.1287541538, -0.0345938690, -0.0243244469, -0.0958527699, 0.1460321397, 0.0648401156, -0.0206775162, -0.0496755019, 0.0736446455, 0.1082633436, 0.0639602169, 0.0750291124, 0.0760952756, 0.0211145040, -0.0239856318, 0.1280742139, -0.1603056192, -0.1082052737, 0.0193186980, 0.1407864392, 0.0178961046, -0.0352598689, 0.1244076192, 0.1224812269, 0.0197221208, -0.0133949583, 0.0955803096, -0.0764132664, 0.0511435829, 0.0276462082, -0.0539658591, 0.0420836583, 0.0437811874, -0.0697235093, 0.1277128756, 0.0147753535, 0.0928557217, 0.0262175724, 0.1166069061, 0.0028879275, 0.1161302477, 0.0303411968, 0.0811555013, 0.1057765931, -0.2197709382, 0.1390387416, -0.1249377578, 0.1401209682, 0.0407750607, 0.0107686725, -0.0115768202, 0.0083442498, 0.1100924313, 0.1354138851, -0.0527115539, 0.0262760073, 0.0272400379, -0.0331431776, -0.0266409218, 0.1276737154, 0.1600866169, 0.2068259567, 0.0544337183, -0.0629175678, -0.0624235049, 0.2661175728, 0.2049950808, 0.0241516382, 0.1537872404, -0.0633364916, 0.0996080786, 0.0262603853, 0.1310147345, 0.0542242974, 0.1502059698, -0.0561599880, 0.1003765836, -0.0834349096, -0.0908122510, 0.1387291402, 0.1074240208, -0.0510988757, -0.2422480136, 0.0856748819, -0.0888473615, 0.0358737931, 0.0561588332, -0.0311880466, 0.0513151959, 0.0088584907, 0.0761386231, 0.0253389515, 0.0179217681, 0.0846160129, -0.0667438731, -0.1160128713, -0.0843448788, 0.0818194970, -0.0310213435, -0.1699854434, 0.0619423054, -0.0118799796, 0.0062278803, -0.1460265666, 0.0794741809, 0.0825351700, 0.0170416180, 0.1539859623, -0.0042445003, -0.1082520336, -0.1218996719, 0.0565916114, -0.0828600973, -0.0737426952, 0.0741684213, -0.1274262518, 0.0024950656, -0.0868743733, -0.0254482180, -0.0687356368, 0.0329660699, -0.0239865091, 0.0408497341, 0.1260547191, 0.1025604308, -0.1116281897, -0.0881585404, -0.0872890055, -0.1549504548, -0.0519056246, -0.0012155473, 0.0651078373, -0.1432957053, 0.0300651677, -0.1223993152, -0.1332554668, -0.1232003644, -0.0579891317, 0.0905812755, 0.0870406479, 0.0629845336, 0.0581310838, -0.0357590578, 0.0416005030, -0.0445867665, -0.0933436677, 0.0820345283, 0.2099077702, 0.0590616204, 0.0706588775, 0.0766973943, 0.0873588845, 0.0800554976, 0.0790055767, 0.0560474321, 0.2019057423, 0.0948747098, 0.0712865889, 0.0575532876, -0.1143103689, -0.1734991372, 0.2082828134, -0.0180767924, 0.0152105698, 0.1856062561, 0.0274459813, 0.1508468688, 0.0118048703, 0.2069880515, -0.0970712826, 0.2431681603, 0.1678825021, -0.0098505700, 0.0372505225, 0.0780519098, 0.2233407348, -0.1436614990, 0.0969216898, -0.0245864112, 0.0136062205, -0.1383385509, 0.0674797893, 0.0498399809, -0.0271716919, 0.0645632222, -0.0889493674, -0.0475923978, -0.0578861572, 0.0140460916, -0.0208739545, -0.1063956842, -0.0407625921, -0.0878082737, 0.0703167021, -0.0756086335, -0.0733943358, 0.0890488625, 0.0953473449, 0.1031709090, -0.1212651953, -0.0040927487, -0.0546791218, -0.1265480518, 0.0321282707, 0.0603123754, 0.0224298052, -0.1556012481, 0.0212643947, 0.0370860249, -0.0931243300, 0.1093257815, -0.0036220604, 0.0443710312, -0.0000131189, -0.0114355301, -0.0907946527, -0.0132744862, -0.1584415585, -0.0238118749, -0.0409604050, -0.0799494386, 0.0167287886, -0.0749056116, 0.0972324237, -0.1342821717, -0.0018787282, -0.0560860708, 0.0209027324, 0.0943930671, -0.0520541146, -0.0933281183, -0.0490147695, -0.0462695956, 0.0402841866, 0.0965863094, 0.0631330684, -0.0601218864, 0.0685834959, -0.0487304367, 0.0081312843, 0.0104381926, -0.1090631261, 0.1077938303, -0.1115120128, 0.0264847074, -0.1083768904, 0.0243369546, -0.1076211184, -0.3342556059, 0.2675845027, 0.1677665710, -0.1758080721, -0.1096390858, -0.1315920502, 0.0514898412, 0.1053885445, 0.1614590585, -0.2153949738, -0.1849272698, 0.0772294775, -0.2041516453, -0.2290097922, -0.0917325988, 0.2004846185, -0.1837172955, 0.1884135753, -0.0646455288, 0.0569740012, 0.2225080729, 0.3486438692, -0.1037143692, -0.3663356900, 0.0505718216, -0.0754150674, 0.0829601288, 0.0925080851, 0.0336076580, -0.0148155950, 0.0417658910, -0.0260764249, 0.0745600536, -0.0100904945, -0.0542537048, 0.0543039590, -0.0396774076, 0.0336895958, -0.0676054955, -0.0168042611, -0.0247706771, -0.0434593856, 0.0171492025, -0.0244492628, -0.0532824583, 0.0066409945, 0.0091211060, 0.0277285185, 0.0060384157, 0.1763540506, -0.0795584247, 0.1244727448, -0.0565864630, -0.2065890431, -0.0509269685, 0.0367486402, 0.1430851817, -0.0229742546, -0.0074797682, 0.0526209474, 0.0702757239, -0.0218396559, 0.1478978693, 0.1314741969, -0.0384446904, -0.1082327366, 0.0560937487, 0.0653939247, 0.0012506676, 0.0488213114, 0.0747717321, 0.0390740149, -0.0916627347, 0.1442771256, 0.1252363771, -0.0411223769, 0.2118097693, -0.0998273864, 0.1064915806, -0.0632539317, 0.2148346007, 0.0192561485, 0.1171433479, 0.1371000558, -0.0522914007, -0.0080338018, 0.0930678621, 0.1730102301, -0.1468959451, 0.0870347023, -0.1120987386, 0.0105642611, 0.0130374162, -0.1204846576, -0.1016335934, 0.0310687758, -0.0452542678, -0.0468377993, 0.0816300809, -0.1023159698, 0.2006344497, -0.0186046045, 0.0721051246, 0.0349422209, 0.0476352610, -0.1623520553, -0.1913403422, -0.0153621947, -0.1643427908, 0.0265359338, 0.0525389984, -0.0007897053, -0.1044950560, 0.1556847543, -0.2097429782, -0.2233546227, -0.0508262999, -0.0898115262, 0.1889332235, -0.0826560929, -0.0046402081, 0.0684706196, 0.0735650361, -0.1251193881, 0.1342114359, 0.0548631959, 0.0378167257, -0.0949346796, -0.0277823657, 0.0152257346, 0.0897220299, -0.0714629441, 0.0404729135, 0.0426624268, 0.0583078563, 0.0262649544, 0.1206097305, 0.0846946537, 0.0191976707, 0.1274036467, 0.0197388548, 0.0805201456, 0.1518509984, 0.0045102406, -0.0871305615, 0.1316771805, 0.1336882561, 0.0476774648, 0.1020354778, -0.0321160443, 0.0790838525, -0.0539878570, 0.0629343539, 0.0489288270, 0.0480292588, 0.0260931700, 0.0121254092, 0.0728239343, -0.0735586584, 0.0326109864, -0.0283188410, 0.0132865794, 0.0174357388, 0.0289265458, 0.0088302838, 0.1054268405, 0.0312161501, 0.0485822856, 0.0556971058, 0.0809850693, 0.0095388694, 0.0811310932, 0.0286909863, -0.0314547680, -0.0197615679, 0.0194738619, -0.0499963723, -0.0636080876, 0.0756127611, -0.0036909000, -0.0412866846, -0.0817454308, 0.0971932933, -0.0926980451, -0.0050741532, 0.0801788345, -0.0037217685, 0.0021684263, -0.0693538561, -0.0349634625, 0.0450486057, 0.0526376329, 0.0311563499, -0.0291867703, -0.0516593195, 0.1430163234, 0.1309107691, -0.0453931987, 0.0274782348, -0.0113560995, 0.0856047943, -0.0628849268, -0.0771776438, 0.1103650108, 0.0788298994, -0.0190098397, -0.0657084510, 0.0236573182, 0.0487153083, -0.0615331605, 0.0030864929, 0.0532131009, -0.0936529934, 0.0737399310, -0.0749342218, -0.0608968958, -0.0327737033, 0.0984061137, -0.0744925141, 0.0791634545, 0.0227572322, 0.0048132571, 0.1453310847, 0.1303961426, -0.0838340968, 0.0967044085, -0.0169152413, -0.0189700946, -0.0963834226, 0.1137454063, 0.0036784450, 0.1234358326, 0.0289552845, -0.0279200450, -0.0242496692, 0.0220496487, 0.1009523124, -0.0505790822, 0.0731271058, 0.0436755568, 0.0637974814, -0.1367833465, -0.0643444434, 0.1443867683, -0.1233836785, 0.0530069470, 0.0265185479, 0.0809880495, 0.0510584861, 0.1095881611, -0.0112879649, -0.0945851803, -0.0477627665, 0.0019692178, 0.0717338771, 0.0656299591, -0.1539676636, 0.0536239855, 0.1199123412, -0.0321357101, -0.0670953095, 0.0559587181, -0.1121898219, -0.1010616422, 0.0109401885, 0.0559871309, 0.0842272639, -0.1400518119, 0.0137538370, -0.1442526132, -0.1539653987, 0.0476876907, 0.0416339710, -0.0037397405, 0.0831117555, -0.1376409829, -0.1190638989, -0.1423843205, 0.0626870692, 0.0253481288, -0.1519616544, 0.0060666050, -0.0738546476, 0.0947178900, -0.0028038016, 0.1271819919, 0.0232360233, 0.0402652994, -0.1050654948, -0.1030996889, 0.1658172905, 0.0422743708, -0.0728374198, 0.0622624345, 0.0098943841, 0.0126373749, 0.1288300008, 0.0394089296, -0.0946257710, -0.1412531585, -0.0913711637, 0.0145639712, -0.0733235180, 0.1498925090, 0.0424380377, -0.0369890891, -0.0961475074, -0.0575720295, -0.2102466375, 0.0535002202, -0.0885613188, 0.0003143441, 0.0002922839, 0.1108956784, -0.0011629739, 0.1992292255, -0.1375182718, 0.0897683874, -0.0992295593, -0.0791198760, 0.3153540194, 0.1155592948, -0.1470223069, 0.0226601157, 0.0606935918, 0.1700811833, 0.0386922434, 0.2048204094, -0.0041860901, 0.1839582771, 0.2469785810, -0.1084336415, 0.2031227350, 0.2843384445, 0.0084707169, 0.0750807524, 0.1521714926, -0.1800043732, 0.0316581652, -0.0120417690, 0.1607113928, 0.1129543185, 0.0104279099, 0.2133288831, 0.0093221255, -0.0981671661, -0.0776250884, 0.1096352413, 0.0273374338, -0.0428564884, 0.0849302709, 0.0698401108, -0.0745617151, -0.0777051449, 0.1203333288, -0.0656375363, -0.0941245258, 0.0431237258, -0.0461928360, -0.0174902305, -0.1016352326, 0.0159734897, 0.0436557569, -0.0347554199, 0.0684407875, 0.0643327013, 0.0502845757, 0.1515791863, 0.0187460445, 0.0435660519, -0.0577192381, -0.1464500874, 0.0272296499, -0.0048611085, 0.0290559493, -0.0261109974, -0.0124012735, -0.1390335411, 0.0875111893, 0.0008729397, -0.1099298522, 0.0361333266, -0.0352000967, -0.0912072733, 0.1902924031, -0.0204666853, 0.0825970620, -0.1155806258, -0.1425587833, -0.1000239179, -0.0661398321, -0.0078298906, 0.0936217755, 0.1059992835, 0.1231212690, -0.1268418431, 0.0719439536, 0.0872311220, 0.1066344827, 0.0634286627, 0.0560340434, -0.0884210169, 0.0132131921, -0.1323335916, 0.0842734501, 0.0204906035, -0.0052481070, 0.0770803839, 0.0769611821, 0.0599266104, -0.0603294820, 0.0285811853, -0.0297624581, -0.0256867819, -0.1228740141, -0.1870097220, -0.0651575401, 0.0503432266, -0.0430765152, -0.1664286256, 0.0663697496, -0.0715100244, 0.1082440019, 0.0049174838, -0.0753366426, -0.1652802527, -0.1411865354, -0.0033257075, -0.0996088088, -0.0128458850, -0.0816429853, -0.0236989968, -0.2152275443, 0.0475658253, -0.1433082819, 0.0482533127, -0.0248722993, -0.0472951941, -0.0661955550, 0.0123311561, -0.0763731971, 0.1444748044, -0.0352136306, 0.0652759671, 0.0888903737, 0.0152156018, -0.0796938837, -0.0319971293, -0.0274520610, -0.0270112809, -0.0326559842, 0.0634380877, -0.0851733163, -0.1008883119, 0.0395640843, -0.1043216586, 0.0155126415, 0.0961298048, 0.0311241914, -0.0762013942, 0.0115139997, -0.0357723124, -0.0362525992, 0.0722146705, -0.1200414374, -0.0716011450, -0.0166141633, -0.0961196348, -0.0077240919, -0.0195781607, -0.0181203038, -0.1047198400, -0.1313712746, 0.0100600375, -0.1054218709, -0.0799823776, 0.0542462207, -0.0804591104, 0.0800689980, -0.0733910352, -0.1714874059, -0.0611648001, 0.1255237609, -0.1204470843, 0.0655723959, 0.0475424118, -0.0641472638, -0.0994019210, 0.0181097537, -0.0461003445, 0.0155666349, -0.0932102427, -0.0781485215, -0.0839856192, -0.0725625679, 0.0633225217, -0.0400600322, -0.0036944838, -0.1335982978, -0.1528439671, -0.0003979044, -0.0636647791, 0.0189551674, 0.0372457244, -0.0284533221, -0.0378684029, -0.1089226007, 0.0210596304, 0.0792872384, -0.0189272556, 0.0732547194, 0.0455946624, -0.1565716118, 0.1898522824, 0.0464284793, 0.0934511423, -0.1009252444, 0.1420023590, -0.0757922828, 0.0562092476, 0.1580793113, -0.1298490316, -0.1299759448, 0.2385367751, 0.0782451928, 0.0039658714, 0.0587901846, 0.1254269183, -0.1356965899, 0.1066477820, 0.1204791293, 0.0852328539, 0.2109466791, 0.2446417809, 0.0303802695, -0.1006072164, 0.1278525740, -0.0978230760, 0.0096789878, -0.0401664861, 0.0283474345, 0.1940627992, 0.1031927392, -0.0620656125, 0.1896321476, -0.0426679961, 0.0311661437, 0.0740234777, 0.0215494484, 0.1355022937, -0.0469199680, 0.0770553797, -0.0242998600, 0.1584756225, 0.0383210890, -0.0680177063, 0.1843689829, -0.0552701615, 0.1577443182, 0.1065177768, 0.0833934844, -0.0395075530, -0.1263575107, -0.1131374389, 0.0610625185, -0.0126598068, -0.1019969434, -0.0066177091, 0.0046364437, -0.1043479517, -0.0765531734, 0.2474702448, -0.0323104337, 0.2789992392, 0.1515592337, 0.0380512141, 0.2945899069, -0.0342512131, 0.0193180572, -0.0032434950, -0.0940294266, 0.3469305336, -0.1124373674, 0.0504644103, 0.0665331334, 0.0473322645, 0.2451551408, 0.0915224180, 0.1473214924, 0.3102023304, 0.2589115202, 0.2032257169, 0.2417988330, 0.0973390192, 0.0142199611, 0.0041879811, 0.0093075270, 0.0409432277, 0.0137145324, 0.2138310969, -0.0590981729, -0.2008189261, -0.1037512869, 0.0167482775, 0.1151468679, -0.0672571138, -0.0262909587, 0.1170281544, 0.0128980223, -0.0536857061, -0.0702899247, 0.0235591717, -0.0211876370, -0.1059084907, -0.1692330986, -0.0280070361, -0.1451208144, -0.0312046669, -0.0100945281, -0.1546306759, -0.1223521307, 0.0132487183, -0.0821258798, -0.0290408246, 0.0525562130, -0.2269152552, -0.0809653774, -0.0891190395, -0.1288756430, -0.0057089613, 0.0406979248, -0.1073973775, -0.0665862188, -0.0027897223, 0.0737011135, -0.0631557330, -0.0179830641, 0.0002966163, -0.0763299614, -0.0607549809, 0.0248946417, 0.1559648663, -0.1013726294, -0.0002875327, 0.1094403937, -0.0307028983, -0.0069443122, 0.0212318636, -0.0214761421, -0.0429601632, -0.0560534559, -0.0479654036, -0.0641238987, -0.1060562432, 0.0677874461, 0.0812467039, 0.1934476197, 0.1006023437, 0.0352728665, 0.0586668178, 0.0032545892, 0.0170875043, -0.0354454480, 0.0458528996, 0.0170255937, -0.1278754473, -0.0400614738, -0.0179756712, 0.0093038594, -0.0087400470, 0.0504811965, -0.0681248680, 0.0597674996, 0.0525854900, 0.0927879065, -0.0371488407, -0.0820077583, -0.0414493419, 0.0539144725, 0.0582426153, -0.0711031631, -0.1525310576, 0.1330010891, -0.1041144952, -0.0542791039, 0.0312713385, -0.0425244421, 0.0260486063, 0.1064396724, 0.0365153626, -0.0505367108, -0.0456148833, 0.1132524088, -0.0109609198, -0.0200339518, -0.0681298599, 0.0387325846, -0.0574379228, 0.0290786065, 0.1513118446, 0.0623446144, 0.1584155113, -0.0764830485, 0.0411205180, 0.0416209213, 0.2106582671, -0.1043663695, 0.0528574437, 0.0017235207, 0.1349291503, 0.0980254486, 0.0144547168, -0.0974131599, 0.1395031065, 0.1376886815, -0.0000068748, 0.1723382622, 0.1736727357, 0.0869613737, -0.0099594602, 0.0171534605, -0.1603405327, -0.0778310224, -0.0680257156, 0.0703461915, -0.0231695510, -0.2101723254, 0.2568584383, -0.0804981440, -0.1760455072, -0.0121330917, -0.2109706402, -0.0764804706, -0.1100915670, -0.1334722191, 0.0676656067, -0.1903468817, -0.0664256662, 0.0806669593, -0.0865835100, 0.1033497453, -0.1349653900, -0.0611634366, 0.0086856401, 0.0672119930, 0.0586741120, -0.1235488281, -0.0886780620, -0.2290594429, -0.1494329274, -0.1277748495, -0.0419694036, -0.2525239587, 0.0878113657, 0.0269993134, 0.2382034361, 0.0416517109, 0.0319839381, 0.0076563279, -0.1303955466, -0.0263086855, 0.0380023755, 0.1049851403, -0.0221916456, -0.0217434485, -0.0568328351, 0.0229792576, 0.0173418578, -0.1652405262, -0.0023722490, -0.0811587125, -0.0984997675, -0.0566361956, -0.0420881473, -0.1094347537, -0.0023991247, -0.0336538404, 0.0111405663, -0.1422810405, -0.1733246446, -0.1026321724, -0.0486120842, -0.1563535333, 0.0583094321, -0.1223424599, 0.0531298481, -0.1407164484, -0.0432621352, -0.0396452174, -0.0635626167, 0.0415999070, -0.0731955320, -0.0605848171, 0.0216283891, -0.0925517902, 0.1011930928, 0.0373861454, 0.1089995652, 0.1181718707, -0.0008658941, -0.0685560554, -0.0859595090, 0.1192574948, -0.1414842606, -0.0918447822, -0.0757252127, 0.0923775658, 0.0174774975, 0.0270490013, -0.0279957168, -0.0301908441, -0.0686224774, 0.0112091396, -0.1440447867, 0.0891015381, 0.0071566151, -0.0454014353, -0.0077176397, 0.0541710928, 0.0599734783, -0.0669355765, -0.0823138207, -0.0304351300, -0.1487500668, 0.0769205466, 0.1099961177, 0.0053314031, 0.1750288308, 0.0309675932, 0.2339706719, 0.1838589460, 0.2885887623, 0.1633585840, -0.0030534479, 0.1105616838, 0.2157476246, -0.0417502746, 0.2746000290, -0.1020180508, -0.0027447538, 0.1058838964, 0.3161690533, 0.3001998067, 0.0371026024, 0.3920212984, 0.2604863942, 0.2485380471, 0.0073771155, 0.1746355444, -0.0695285872, 0.2310949415, -0.1514160931, 0.1173411086, 0.0214310046, 0.1038952097, 0.2924939990, 0.1681813747, -0.0518511720, -0.1990180463, 0.1924859136, 0.0269935746, 0.0704112351, -0.0557086356, 0.1112017110, 0.0460789651, -0.0790141374, 0.0737468973, -0.1289682984, 0.0382232554, 0.1157805026, -0.0942179039, -0.1976259202, -0.0472784713, -0.0212655403, 0.0575774796, -0.1343971044, 0.0387176014, 0.0702160299, -0.0089357989, -0.1063475609, -0.0027176763, -0.0833416730, 0.0412761420, -0.1810821295, 0.0787888020, -0.1824156344, -0.0866236761, -0.0442929827, -0.0559415482, -0.0570113696, 0.0615672655, 0.2148541063, -0.0996995047, 0.0929811075, -0.0808803812, 0.1556975991, 0.0796892121, -0.0359125622, -0.0643319190, 0.0154431593, 0.0080449162, 0.0937236249, 0.0883834213, -0.0666806176, 0.0290047266, 0.1201253682, 0.1460890025, -0.0375760570, 0.0515582338, 0.1188505590, -0.0572398454, -0.0828001499, 0.2232706249, 0.0302851144, 0.0823017284, 0.0210447647, 0.0729696304, 0.0099011026, 0.0855118111, 0.0380294919, 0.1611464471, 0.0089994399, -0.0421633795, 0.1819876581, -0.0437575243, 0.0721682683, -0.0599018000, -0.0083649307, 0.1787502915, -0.0117980149, 0.0603744388, -0.0773044527, 0.0674665123, 0.2034037113, -0.0642654523, -0.1453286111, -0.0982478261, 0.0225398894, 0.0038394716, 0.0051845158, 0.0055260407, 0.1249541417, 0.0544644371, -0.1239238530, 0.1017491147, -0.0779428557, 0.1147994846, -0.0565581694, 0.0107000330, 0.0179111529, -0.0050395704, 0.0371853821, 0.0070569259, 0.0912985429, -0.0485189930, -0.1574919224, -0.1188674867, -0.2008160055, 0.0388433076, -0.0661534593, -0.1835205257, 0.0653860644, -0.1234387755, 0.0234398749, 0.0121181589, 0.0352229029, 0.0442890897, -0.1141641960, -0.0421461128, -0.0613442324, -0.0164816268, -0.0741278082, -0.0931566730, -0.0704997927, -0.1386654526, 0.0760794282, -0.0743276477, -0.1071200371, -0.0634398013, -0.1017689258, 0.1261605322, -0.0384467393, 0.0933568180, -0.1741413176, -0.0654659420, -0.0015132247, -0.0075382395, 0.0890477002, 0.0118701505, -0.0768160895, -0.0722306296, -0.1012382358, -0.0696836561, -0.0611933470, 0.0913243890, -0.0038735848, -0.0152297495, -0.0366047993, -0.0206359718, -0.0656214654, 0.0824302286, -0.1161577255, -0.1331818551, -0.0225164425, -0.0425114296, 0.0670563802, -0.0598663166, -0.0710417107, -0.1263577044, 0.0939675272, -0.0221310090, 0.0214273762, -0.1180922985, -0.1639681011, -0.0759575889, -0.1480428427, -0.0461521484, -0.0353235044, -0.0903608873, -0.1344388127, 0.1317873895, -0.0772383884, -0.0604504906, -0.0191877075, -0.2033686787, 0.1018672809, 0.2300543040, -0.0843081102, 0.0532358773, 0.0568689890, -0.0065828599, 0.0537558943, 0.2539624870, -0.1852142215, -0.1705093235, 0.2465523630, -0.1325361580, -0.1622133851, -0.1068787351, 0.3066528440, -0.2233739942, 0.0843892097, 0.0632655844, 0.1823447347, 0.0514979474, 0.0920469388, -0.1822210401, -0.1010299772, 0.0122642796, -0.0966345519, 0.1259190738, 0.0276288036, -0.0997160003, 0.1066022962, -0.0307395142, 0.0340240002, -0.0142384777, -0.0736991316, 0.1051959321, 0.0622709543, -0.0017884590, 0.0699000806, 0.0603077337, -0.0714442357, 0.0634046271, 0.1251763999, -0.0211608727, 0.0263412856, 0.0960086286, -0.0840096250, 0.1189748049, 0.1685833782, -0.0397923104, 0.1264974326, -0.0631714389, 0.0229097847, 0.0854044408, -0.0579648465, 0.0090452656, 0.1186233014, -0.0216692034, -0.0845879614, -0.0477697104, 0.3975960910, -0.1124713272, 0.1957092285, 0.2221901566, 0.3471068144, 0.2264133841, -0.0531524159, 0.0900953710, -0.0212633144, -0.1233274713, 0.3104474545, -0.0429630205, -0.0538409315, 0.0255566593, 0.1709403396, 0.1929107010, -0.1120181680, 0.2954584062, 0.1784670651, 0.1563062668, 0.0915869698, 0.2565159500, 0.0217688326, -0.0162845682, -0.0078249434, -0.0438063331, -0.3310194612, -0.1104432568, 0.1287158579, -0.0814106613, 0.0457287244, -0.1139906943, 0.0321158953, -0.0281476974, -0.0907224417, 0.0647530481, -0.0167778898, -0.0880558938, -0.0029374415, 0.1294670701, -0.1614515483, -0.0684634075, -0.0749028325, -0.0148590729, -0.0058111548, 0.0025814024, -0.0464868620, -0.1540585309, -0.1309227943, -0.3140286505, -0.0224162135, -0.0809111670, -0.0043986682, -0.1980143785, 0.1196068227, -0.2365555614, 0.0243374538, -0.0735451579, -0.0822245479, 0.1426922381, -0.3484411836, -0.0224657003, 0.0123922154, 0.0215970185, 0.0385888591, 0.0141482521, -0.1023704037, 0.0145485355, 0.1141879633, 0.0433570705, 0.1664320081, -0.0696533769, -0.0341512375, 0.0956807584, 0.0494976565, -0.0130738150, -0.0546250865, 0.1033240929, 0.1378544867, 0.0310971886, 0.1276873201, 0.0656393319, -0.1122897193, 0.0334976241, -0.1181508973, 0.0054942793, 0.1649267524, -0.0220993329, -0.0846884698, 0.1426950842, 0.0918923616, 0.0946240053, 0.0563644879, 0.0789797157, 0.0564050153, 0.0162476730, 0.0089268964, -0.0240344685, -0.0867084414, 0.0076427856, -0.0851747692, -0.0172852781, 0.0680497289, 0.0395963080, 0.0024424894, -0.0009067199, 0.0067122718, -0.0015966446, -0.0119055491, -0.0740307197, 0.0930900052, -0.0605997071, -0.0124164904, -0.0727835074, -0.0680963546, 0.0034714215, -0.0391053855, -0.0945388600, -0.1021647081, -0.0788526610, -0.0747451186, -0.0803911760, -0.0966247916, 0.0988373980, 0.0216293000, 0.0457537994, -0.0880504027, 0.0644297078, 0.1469885558, -0.0597180352, 0.0128942616, 0.0255814735, 0.2339078486, 0.1087373570, 0.0712879449, -0.0329370052, 0.1419963837, -0.0770878419, 0.2594618201, -0.0939158946, -0.0514428914, 0.0196182951, 0.2209592015, 0.0492697507, -0.0544080883, 0.2309737056, -0.0091313124, 0.1627677530, 0.0059176967, 0.2020106763, 0.0368001498, 0.0583319291, 0.0905490592, 0.0119573083, -0.0887879580, -0.1585397273, 0.1529847234, 0.0924256817, -0.0646905378, -0.0028686898, -0.0646852478, 0.1100626737, -0.1317856163, -0.0473517813, -0.2386184186, -0.0528680384, -0.0051990435, -0.0652733743, 0.0001574420, 0.0930964947, -0.1786251962, 0.0274715163, -0.0375692993, 0.0022252656, 0.0077581243, -0.0374694169, 0.0933721662, -0.1036837026, -0.0499300770, 0.0079556014, 0.1487327069, -0.1875227541, 0.0045781946, -0.1058180332, 0.1847702712, 0.1120945811, 0.0471400619, 0.0574719720, -0.1240657568, 0.1392785907, -0.0775762349, 0.0125030028, 0.1133642718, 0.0450622365, -0.0382410809, -0.1122740731, -0.1670869142, -0.0352911986, 0.0795058608, 0.0017047765, 0.0884185582, 0.0370744951, -0.1001435146, -0.0229025576, -0.0835713223, 0.0586876757, -0.0625923052, -0.0046237307, 0.0735254288, -0.1065598354, 0.0436564833, 0.0984281674, -0.0071905111, -0.1610079259, -0.0044515482, -0.0630287454, 0.0805752128, 0.0849048942, 0.0354554467, 0.0507786982, -0.0010507512, 0.1274008602, -0.0493657775, 0.1064412445, -0.0673088357, 0.0664733797, -0.0941618681, -0.0407201499, -0.0782013834, 0.0677668974, -0.0753691643, -0.0049490160, -0.1101101264, -0.0302518494, 0.0099124191, -0.1220585629, -0.0235894397, 0.0674444810, 0.0455583744, -0.1463224143, -0.0077332491, -0.0078685842, 0.0408885442, -0.0571178906, -0.1213303655, -0.1258488595, 0.0529077910, -0.0496734455, 0.0336660966, -0.1565195322, -0.0868026614, -0.1118362397, 0.0132724121, -0.1597022265, 0.0085900845, -0.0067173764, 0.3120436966, 0.0659592152, 0.1978385001, 0.1874999702, 0.2598578036, 0.0398513488, 0.0826796666, -0.1204250529, 0.1370176077, 0.1004864872, 0.3043803275, 0.0060920548, -0.1107398868, -0.0820068941, 0.1909542978, 0.2158886343, 0.1605965793, 0.3008801341, 0.0093320794, 0.0965447128, -0.1311744303, 0.1615369022, 0.0086614508, 0.1957394034, 0.0032384424, -0.0557294749, -0.0869819000, 0.0066400641, 0.1736885309, 0.0481071547, -0.0615366884, -0.1125343814, 0.0559677891, -0.0517978109, -0.0216975771, 0.1324524134, -0.0253738984, -0.0419564769, -0.1699993163, -0.0234023761, -0.1020319164, -0.0660098344, -0.0476103835, -0.0940949172, -0.0382685252, -0.0588092133, 0.1551404744, 0.0599223971, -0.0637891591, 0.0661299229, 0.0532613322, 0.0051756231, -0.1310085207, -0.0285196751, -0.1475999951, -0.0135941245, -0.0318396203, 0.0050596581, -0.1180832982, 0.1047530472, 0.0235473718, 0.0462708995, -0.0893511549, -0.0676536039, 0.0225045606, -0.0431686714, 0.0534652881, 0.0328569412, 0.0212301314, 0.1367374063, 0.1303662956, -0.0235609263, 0.1568472981, 0.0969430655, 0.0241934396, 0.0437333770, -0.1539756507, -0.0225601718, 0.0805532709, -0.0005340408, -0.0098605575, 0.0412843227, -0.0278573893, 0.1239621490, -0.1051594988, 0.1275485456, -0.0625536367, 0.2088452131, -0.0033793061, 0.0790696293, -0.0898486078, -0.0642245486, 0.0422353558, 0.1239818111, 0.0800986364, -0.0419859700, 0.2431470156, 0.0139075797, 0.0857119486, -0.0031805583, 0.2287464142, 0.1683790833, -0.0949646235, -0.1474846900, 0.1960653067, -0.0281596892, 0.2325872630, 0.0663579777, -0.0068643666, 0.0786967427, 0.0492136739, -0.0346387364, 0.0930617079, 0.2865742743, 0.0667171031, -0.0319901295, -0.0819277987, 0.3271583617, 0.0589126237, 0.1289777160, -0.0361035429, -0.0439508371, -0.0991601720, -0.1023468301, 0.0352947302, 0.0136007918, -0.0728376135, 0.0376948155, -0.1115078107, 0.0301718954, -0.0433115698, -0.1115772426, -0.1984887868, 0.1093515903, 0.1416603923, -0.1059038937, -0.0499301590, 0.0655236542, 0.0724250153, 0.0497420281, -0.0563124232, -0.1083095223, -0.0197219942, -0.0631333739, 0.0997607335, -0.1108201668, -0.0636990294, 0.0278078187, 0.0214497056, -0.0678049400, -0.0289297663, 0.0052367575, 0.1180616021, 0.1425991654, -0.1030204371, 0.0896232128, -0.0184310973, 0.0706472993, 0.0172782224, 0.0679256469, -0.0685293376, -0.0212662108, 0.0854128376, 0.1067086160, -0.1349647790, 0.0994504690, 0.0347553715, 0.0520696379, 0.0162778944, 0.0720680952, 0.0494413525, 0.0638393909, -0.0370952152, -0.1245725006, -0.0021182562, 0.0091301380, -0.1011436433, 0.0944018587, 0.0346644185, 0.0780334100, 0.0392578803, -0.0430147387, -0.0276739299, -0.1031325310, -0.0029201144, 0.0590622649, -0.1142567024, -0.1077580303, -0.0681085438, 0.0518044643, 0.0217135027, 0.1067901999, 0.0065779076, 0.0564210415, -0.1705033034, -0.0283714291, -0.2066984475, -0.1199847162, 0.2279445678, 0.1384680867, -0.0411718637, 0.0646721274, -0.0318578407, -0.0981330276, -0.0426883027, 0.0764326900, -0.1085668653, 0.0071591353, 0.0700967535, -0.3550301790, -0.2587741315, -0.1424225718, 0.0883140936, -0.1855145991, 0.1451383531, 0.0209826604, 0.1436469853, 0.2246188968, 0.2457793206, 0.0222823471, -0.1766598225, 0.1302766800, -0.0871043950, -0.0314731561, -0.1053865701, -0.0060564135, -0.0972621590, 0.0758558586, 0.0474968776, -0.1370167285, 0.0331419259, -0.0297384243, -0.2299332619, -0.0047121891, -0.0635771453, 0.0745899156, -0.0338848159, 0.0649580136, 0.0014411627, -0.0245171636, 0.1345055997, 0.0503163934, -0.1385833323, -0.1013237461, 0.0460083820, 0.0868313089, -0.1356502920, 0.0157614052, -0.1326268613, 0.0284298211, 0.0037800483, 0.0353975222, -0.0133257769, -0.0168320108, 0.0329397768, -0.0200891867, 0.3283015192, 0.0475106761, 0.0432430208, 0.0428518355, 0.3124561906, 0.0751874968, -0.0664710999, 0.0027733643, 0.0353783742, -0.0491528548, 0.2187457979, 0.0029802970, -0.0546041392, -0.0776180550, 0.1584551185, 0.0315808542, -0.1006376073, 0.3690692484, -0.1132743731, 0.0158740114, 0.0127916327, 0.2979331315, 0.0548886955, 0.0077644400, -0.1039866358, 0.0143599538, -0.2166256756, 0.0931657776, 0.0431913137, 0.0821622759, 0.1617034525, -0.1441809535, -0.0498100743, 0.1606981903, -0.1028090343, -0.1271359324, -0.1270874739, -0.0334155150, -0.0042724195, 0.1957046837, -0.1646494269, 0.0080593312, -0.1279225796, -0.0005271680, -0.0187666602, 0.1661251336, -0.0416974574, -0.0358272046, -0.0229912121, -0.1945797950, -0.0188687798, -0.0103304153, 0.0039807963, -0.2100567967, 0.1378720105, -0.0395743996, -0.0305687431, 0.0005649423, -0.0586226024, 0.1079584956, -0.0847688764, -0.0358972885, 0.0527984612, -0.0085653476, -0.1142348573, 0.0421561152, 0.0376304463, 0.0071971654, -0.0141281895, 0.0914953277, -0.0204426181, 0.0745742321, -0.1094460487, 0.0826033577, 0.0317252278, -0.0378766805, 0.0694787949, 0.0084652221, -0.0665707216, 0.0799077600, -0.0653185770, -0.1094022542, -0.0675158426, -0.0794883817, -0.0169669017, 0.0250192489, -0.1324905455, 0.0318956748, -0.0994767621, 0.0484983325, 0.0689067245, 0.0332607366, -0.0303812046, -0.0635664761, -0.1072124690, 0.0297596566, 0.0043366570, 0.1124936491, -0.0222667418, 0.0837875307, -0.0925404951, -0.0830844939, 0.1137585193, 0.0889073908, 0.0471583568, 0.1297453046, 0.1219672635, -0.0938694477, -0.0021476306, 0.1026060730, -0.0769953430, 0.0002406650, -0.0171230268, 0.0023140153, -0.0941477269, 0.0314392932, 0.0272802580, 0.0276413076, -0.0382325538, 0.0656213537, -0.0099696061, 0.0362281986, -0.0709592476, -0.0685585588, 0.0879105702, 0.0269769244, 0.0443471782, 0.0435882993, 0.0988242701, 0.0250140559, 0.0145139545, -0.0062667453, 0.0170354825, -0.1503059417, -0.0316560417, -0.1175070927, -0.1279692501, 0.0474621877, 0.0925097987, -0.1389529854, 0.0655246899, -0.0352311134, 0.0906836092, 0.0583995469, -0.0423059575, 0.1780945361, -0.0932223126, -0.0501239449, 0.0871682391, 0.1402176768, -0.1170423776, -0.0521995611, 0.0251173098, -0.0414416604, 0.1155213118, 0.0334345475, -0.0560931452, 0.0095874229, 0.1992701590, -0.1451044232, -0.0572800934, 0.0905935690, -0.0041334960, -0.0607138239, 0.1830285192, 0.0477153026, 0.0386101902, -0.0005079884, 0.0014437390, -0.0138914194, -0.0085255178, 0.0920703337, 0.0414003469, -0.1440360099, 0.1552043110, -0.0389232002, -0.0521732904, 0.1229660511, 0.0124065075, 0.1361512244, -0.1260175407, -0.0040151374, -0.0987386778, 0.1271908581, -0.1080333516, 0.1486637890, 0.0190824065, 0.0335494019, 0.1653295457, -0.0883014798, 0.2174704671, 0.0549349226, -0.0954791605, -0.0805251151, -0.0293936003, -0.0641925856, 0.0154313603, 0.0840592384, -0.0186132789, -0.0479820855, 0.0461314879, -0.0228176117, -0.0826000720, -0.1297668815, -0.0986264274, -0.0197828729, 0.1478798240, 0.0255739894, -0.1623917967, 0.0317575969, -0.0706317499, -0.0367094539, -0.0789628699, 0.0351637080, -0.0600367673, -0.0491517745, -0.1392826885, -0.1035600528, 0.0342556201, -0.0794587731, 0.0464972556, -0.0296104979, -0.0477376841, -0.0974756926, 0.0490650907, -0.0807126760, -0.1115236208, 0.0186064988, 0.0748727247, -0.0396295078, -0.0942949429, 0.0110846600, 0.1191093326, -0.0216046739, -0.0048338664, -0.0459123105, -0.0025115761, -0.0005440773, 0.0799635500, -0.0935136005, -0.1390283108, -0.0537109785, -0.0792364404, -0.0832616463, 0.0719378963, -0.0635433793, 0.0529850125, 0.1493274868, -0.0734185502, -0.1762873679, -0.0820143074, 0.0081483116, -0.0996536836, 0.0431325920, -0.0405781828, -0.0229067188, 0.1855213940, 0.0028062663, 0.1832221895, -0.0117797088, -0.0869369656, 0.1659460962, 0.1572451144, 0.0433544107, -0.0709421113, -0.0206442866, 0.3148280680, -0.0770762414, 0.1054652706, 0.1626240462, 0.1203466728, 0.0080640931, -0.0452734083, 0.0532437265, 0.2427706867, 0.2194029391, 0.1436695904, -0.0139256166, -0.1065249145, -0.1040790901, 0.0025120517, 0.0849076211, 0.2027661949, -0.2309235930, 0.1305744797, -0.0346602239, 0.0458634570, -0.1703228652, -0.1041990966, -0.1316308081, -0.1113854051, 0.0600129366, -0.0626492500, -0.0877836123, 0.0591871738, -0.0011876330, -0.0987904146, -0.0972813219, -0.0241966750, 0.0776716024, -0.0048909588, -0.0341651253, -0.0662962720, -0.0161130242, -0.1175203621, -0.0609511100, -0.0795613751, 0.0581690371, 0.0239855163, 0.0280075520, 0.0712600052, -0.1177796349, -0.1568487436, -0.1105876714, -0.0426282659, -0.0124665396, -0.0580416434, -0.0430956967, -0.1182213873, -0.1363547593, 0.0857624784, -0.1182349324, 0.0357157998, -0.0355134755, -0.0952557772, 0.0385726877, 0.1488664299, -0.0239131749, -0.0237838514, 0.0648819506, 0.0673101321, -0.0436905809, -0.1065553427, -0.0890598819, 0.0405471437, 0.0016772199, 0.0355427936, -0.0397836491, 0.1638714373, 0.0204838645, -0.1713419259, 0.1214626133, -0.0738097355, -0.1561991274, -0.0956040993, -0.0091987597, 0.0420476869, 0.0439986810, 0.1113286540, 0.0166797340, -0.0725788102, 0.0646294877, -0.0391787738, -0.0287862737, -0.1470478177, 0.0291912723, -0.0575740971, -0.0637408867, -0.0350860953, -0.0228294004, -0.0588131100, 0.0694388375, -0.0915590599, -0.0039722971, -0.0371277556, 0.0688835680, -0.1760388017, -0.0035999191, 0.0950717926, -0.0130446106, -0.0533582009, 0.0301657300, -0.1677097827, -0.0694541410, -0.1804791540, -0.0634131059, 0.0010411895, 0.1187737286, -0.0639528483, -0.0640901849, -0.0695267394, 0.1141684502, -0.0521338731, -0.0174572747, 0.0776417628, -0.1010158211, -0.0888165459, -0.0005875131, 0.1701808721, 0.1511882842, -0.0069548995, 0.0272437837, -0.0246984698, 0.0403886922, -0.1047519743, -0.0312336795, 0.0127513893, -0.0076782401, 0.1215394884, 0.0626089349, -0.0431721956, 0.1388227940, 0.0824133009, -0.1081682742, -0.1224606559, 0.1405612677, -0.0744947270, 0.1376720965, 0.0923544988, 0.0360088088, 0.0792816654, 0.0657155514, 0.0540190861, 0.0997195765, 0.0474665500, -0.0154463276, -0.0973993018, 0.0124982260, -0.0895940140, 0.0412117057, -0.0372560099, 0.0323330238, 0.0661981180, -0.0455659069, 0.0651646405, 0.0441294797, -0.0638704449, -0.0322151072, -0.1737449020, 0.0155550251, 0.0822687373, 0.0807790905, 0.0398231149, 0.0971329808, 0.0891365260, -0.0641687140, -0.1183527038, -0.0532319546, -0.0520057827, 0.0755681768, -0.1690344065, 0.0313606896, -0.1170247719, 0.0119931335, -0.0058217216, -0.1492280066, 0.0745266378, 0.0700500160, 0.0029079397, 0.0893101543, 0.1056840792, -0.0029517347, -0.0273145270, 0.0159227345, 0.2099978179, 0.2419845760, 0.0056667454, 0.1164233759, -0.0256614406, -0.1016252637, 0.0560555384, 0.1333678216, -0.1136204600, 0.0479291230, 0.2067638934, 0.0733999461, -0.0654379055, -0.0722838715, 0.2557454705, 0.1085446700, 0.1507744342, -0.0212266780, 0.0176652223, 0.1777279079, 0.1630534530, -0.0186582096, -0.0306110755, 0.0152551001, -0.0738471299, -0.0135728838, 0.0704576448, -0.1037735790, 0.0634790808, -0.0835428461, -0.1027408391, -0.0546915606, 0.1883287579, 0.1429960430, 0.0391249098, -0.0867296457, 0.0029664377, 0.0639615655, 0.0672263801, 0.1082463190, -0.0812928751, 0.0929468051, -0.0673438385, 0.0912014619, -0.0072893570, -0.0220934618, -0.0313114934, 0.0004498261, 0.0874566883, -0.0466486812, -0.0127529651, -0.0211284086, 0.1674462259, -0.0530956052, -0.0111334380, -0.0904780850, 0.0525323115, -0.0502859280, 0.1762983501, -0.1820752472, 0.1793873906, 0.0138432616, -0.1369995475, 0.0395969860, -0.0512193814, 0.0755932778, -0.0406126939, 0.0333262868, 0.1794139296, 0.0281714462, -0.0685583949, 0.0724195018, 0.0265974626, -0.0992000028, -0.0883998722, 0.1549693793, -0.0023662278, 0.1213697270, 0.0544665195, -0.0182041172, -0.0868354887, -0.1548037976, -0.2064388245, -0.0759810060, -0.1132597178, -0.0581156686, -0.0882497877, -0.1037186161, -0.1511500776, -0.0484610535, 0.0130302450, -0.0848180205, -0.1077754050, 0.0898081511, 0.0428663641, -0.0944599733, 0.0176958423, -0.0047463840, 0.0870276541, 0.0269056559, -0.1520607769, 0.0309020188, 0.0712554827, 0.0580990687, -0.1089728251, -0.1986420453, -0.1418608874, -0.2774313390, -0.0248007160, -0.0656018928, 0.0752053112, -0.0873836353, 0.0631703660, -0.0901722685, -0.2003626972, -0.0015613725, 0.1862895638, -0.0296033192, -0.0324365944, -0.1660944074, 0.0093549564, -0.0628575608, 0.0955125093, -0.0693156943, -0.0286313258, 0.0385718793, 0.0844889209, -0.0334767476, -0.0166535396, -0.0213765483, -0.0336999185, 0.1221682727, 0.0734796450, 0.0489903502, 0.0049368045, -0.0958934426, 0.0120156799, -0.0545388274, 0.1244184077, 0.0585352331, 0.0172920506, 0.0795962811, 0.0945343226, 0.0608765669, -0.0096497005, -0.0999843851, -0.1207542643, -0.0854809731, -0.0921974778, 0.0123130176, 0.1374342889, -0.0528590605, 0.0909130499, -0.0866880044, 0.0159405395, 0.0708960444, -0.0025629206, -0.0021020917, -0.1098216996, 0.0750389844, -0.0784524307, -0.0591584109, 0.1324376166, -0.1062040403, -0.1133830920, -0.0872225091, -0.0939798802, -0.0003532786, 0.0997886881, 0.0628589466, -0.0641929433, 0.0888657495, 0.0979193375, -0.1288136840, 0.0649548024, -0.0649849325, 0.1005112454, 0.0150940791, 0.0179696660, 0.0789296478, -0.0064480295, -0.0032714882, 0.1032055616, 0.0218520649, 0.0644879565, -0.0728884265, 0.1544833928, -0.1153745353, 0.1511808783, 0.1725167930, -0.0062012416, 0.0243473873, -0.0030635707, 0.0665046871, 0.0220203642, -0.0656227469, 0.1170924827, -0.0242019016, 0.0485930517, -0.0575105511, -0.1052454114, -0.0337361246, 0.0773263648, 0.0866630897, 0.1514530331, 0.1109501421, 0.0363705456, -0.0729632154, -0.1027378589, -0.1392878741, 0.0833545029, 0.0781961456, 0.0308293290, -0.1400745660, -0.0075706253, 0.0311733764, 0.0477704071, -0.1002226546, -0.1999750286, 0.0881496519, -0.1465738267, -0.1524930149, -0.0183582660, -0.1020193398, 0.0803922489, -0.0307961777, 0.0771957934, 0.0496296659, -0.0301905796, -0.0622170307, 0.0138001181, -0.0077081975, 0.0168629587, -0.0661324561, 0.0114257084, -0.0548673905, -0.0525994524, 0.0480184481, -0.0053024162, -0.1326499432, -0.1802535504, 0.0095752506, -0.0456045829, 0.1193938553, 0.0841740072, -0.0189218782, -0.0717894956, 0.0446313098, 0.1539146155, -0.0047528129, 0.0517083071, 0.0310640968, -0.1514342278, -0.0906579196, 0.0783676729, 0.0568116605, -0.0145740537, -0.2005343586, 0.1457262188, 0.0914910585, -0.1190758422, -0.1055412143, -0.0542386360, -0.1427482069, 0.0262358021, -0.0955723524, 0.0914840549, -0.0332036428, 0.0777104869, -0.0269899759, 0.0168739054, 0.0736411735, -0.1177776083, 0.0393474475, -0.0931643546, -0.0289212372, 0.0853803530, 0.0217293240, 0.0097898217, 0.0188475475, -0.0281782765, 0.0775256976, -0.1951318085, -0.1556624919, -0.1219828278, -0.1368573457, -0.1121084392, -0.0418407843, -0.1711792946, 0.0228903368, 0.0052911509, 0.0691165626, -0.1776227951, 0.0843819529, -0.0801105499, 0.0162304770, -0.0031696490, 0.0933496282, 0.0023918985, -0.0067182067, -0.0265478380, 0.0026521918, -0.1198131666, -0.0488713011, -0.0219314434, 0.0889687985, 0.0301830359, 0.0012449647, -0.1551552713, 0.0739970952, -0.0003961222, -0.0399358086, -0.0411591418, -0.0468482859, 0.1735451669, 0.1283291429, 0.1316420883, 0.3180249929, 0.0806921646, 0.1262413561, -0.0011746207, -0.0714463592, -0.0515581928, -0.1545318961, 0.2549401224, -0.1255302876, 0.0500928760, 0.0768183544, 0.2587153614, 0.1158927605, 0.1155669689, 0.2557460666, 0.0949367210, 0.2086789757, -0.1509167105, 0.2777808607, 0.0154064540, -0.0936786681, -0.1367652714, -0.0243950915, 0.1028795019, 0.0104037588, -0.0065829353, 0.0166511238, -0.1389670223, -0.1310964078, -0.1050945818, -0.1163395792, -0.1099506170, -0.0554376766, 0.0237188283, -0.1574420780, 0.0302656982, -0.1287777126, -0.0885814130, -0.0881418586, 0.1251594573, 0.0444738455, -0.0636763945, 0.0168685745, 0.0847508237, -0.0340187699, -0.1023561507, -0.0051202821, 0.0604805499, 0.0364855491, -0.0461418852, -0.0331274085, -0.1546052843, -0.1839760542, -0.1950603724, 0.0578872077, -0.2132799178, -0.0928421766, -0.0881953314, 0.0333286114, 0.0605610572, -0.0069402256, 0.1530257761, 0.1136370003, 0.2114977539, 0.0519481264, 0.1077142060, 0.1160088629, 0.1519878209, -0.0799576566, 0.0790103152, 0.0077666114, 0.2523357570, 0.0123357913, -0.0101110423, -0.0598942228, 0.2258610427, 0.0108973449, 0.0357039310, 0.2253190577, 0.1514274925, 0.0299203768, -0.1624691784, 0.1595425904, -0.1590322405, -0.0265611280, -0.0425941981, -0.0455855355, 0.2340483218, -0.1017831713, 0.1102637053, 0.1221131012, 0.0789346844, 0.0485944636, -0.0009288614, 0.0274011791, -0.0047088438, 0.0266392995, -0.0928187445, -0.0496936962, 0.0026710331, -0.1133957058, -0.1067930833, 0.0085509112, -0.0091842124, 0.0282707047, -0.1139737219, 0.0690351352, -0.0615860634, 0.0468702167, -0.0156688150, 0.0518462881, -0.0837332457, 0.1209659204, 0.0035470894, -0.1255566329, -0.0705222338, -0.1101525724, -0.1057355851, 0.1326215565, 0.0467303544, 0.0705444664, -0.1619506031, 0.0920780599, 0.0796800926, -0.0624774247, -0.0080776038, 0.0021933937, -0.0853768066, -0.1438671052, 0.0003861964, 0.1783954352, -0.0775971413, -0.2120638341, 0.1191046238, 0.0026107910, -0.1081032604, -0.0760468319, -0.1006187201, -0.1492765695, -0.0072315293, 0.0940213129, 0.0687770993, -0.0736378431, 0.0187245999, 0.0325944684, -0.0446824171, 0.0823926106, 0.0159198064, 0.1047138572, -0.1303225011, -0.0342323445, 0.0295005199, 0.0672688559, -0.0282663684, 0.0722159296, 0.0869554728, 0.0282316320, 0.0172610246, -0.1336956024, 0.0407344811, -0.0824857205, -0.0459888317, 0.1032985151, 0.0024793018, -0.1732918024, -0.0239912309, -0.0340960138, -0.0842263028, 0.0458454043, -0.0246541351, 0.0521600470, 0.0030922007, -0.1110591814, 0.0006573541, -0.1311575174, -0.0678998306, -0.0257065371, -0.1262549609, -0.0307540968, -0.1756532788, 0.0423195176, -0.0285211839, 0.0307441559, -0.0435714200, 0.0302623771, 0.0009229248, 0.1142975762, 0.0167004671, 0.0559874326, -0.1240346879, -0.0722018853, -0.1476694047, 0.0485355593, -0.0784794465, 0.0181220714, 0.1939533651, 0.1096712872, 0.0036433444, -0.0510391481, -0.0553547181, 0.0216221027, 0.0216805469, 0.1965325922, -0.1304429173, -0.1083670929, 0.0809096545, -0.0516345277, -0.1108414829, 0.0013949445, 0.1728802025, -0.0484017432, 0.2208052129, 0.1431056559, 0.1397234648, -0.0066606454, 0.2847221792, 0.1358516514, -0.1249045581, 0.1027577445, -0.0807867572, 0.0291255433, 0.0520575345, 0.0560710281, -0.0629716292, 0.0764429197, 0.0206180420, -0.0959460214, 0.1925621033, -0.0265426263, 0.0421606526, 0.0488340631, 0.0312543325, -0.1409722567, 0.0209925771, -0.0529559664, 0.0421886332, -0.0644543469, 0.0211003236, -0.1249297559, -0.0028617908, 0.0160558429, -0.0314336568, -0.0189726725, 0.0754643157, -0.1421849430, 0.0259870961, 0.0289123897, 0.1595263034, -0.1762244552, -0.1084478945, -0.0353539586, -0.1599376798, -0.1439639479, 0.0791831240, -0.1057938337, 0.1394591033, 0.2448900044, 0.1886932105, -0.1569696963, 0.0273204371, 0.0054129539, -0.0928542465, -0.1360557377, 0.2277864814, -0.0371716730, -0.1887853444, 0.0315634497, 0.1881148666, -0.1221864671, -0.0199189894, 0.3380823433, 0.0025014153, 0.0340595916, -0.0019189408, 0.2071215212, -0.0329498239, -0.2068529278, -0.1986022741, -0.0413688943, -0.1670791656, -0.1294946522, 0.0260347649, -0.0393189527, -0.1900714785, -0.0338405035, -0.2845968008, -0.0537107401, -0.0800210834, -0.1452794820, -0.1446617842, -0.1354895085, 0.1246166229, 0.1231198832, 0.0968517289, -0.1121480167, -0.1956674010, 0.0216143299, -0.1233631745, 0.0286958050, -0.0935258642, 0.0577928796, 0.0338543765, -0.2242496014, -0.1912605911, -0.1475504488, 0.0560078509, -0.1429797858, 0.1713975370, -0.0244803317, -0.1653872728, 0.0180328172, -0.0549207926, -0.0484416299, -0.2373903394, -0.0380524993, -0.0570745096, 0.1127409860, -0.0328992493, -0.0331290737, 0.0022405954, 0.0762940720, -0.0691179633, 0.0505591892, 0.0384438895, -0.0159575138, 0.0585478619, 0.0827751085, 0.0684322417, 0.0846941546, -0.1403937936, -0.1423658431, 0.0595161840, -0.0517729297, -0.0430700742, 0.0472772457, -0.0492713526, 0.0137465773, -0.0791030601, 0.1399061084, 0.0461384021, -0.0399903357, 0.0147962375, -0.1272674203, 0.1039307714, -0.1126814038, -0.0462802351, -0.1158619896, -0.0889730528, 0.0540884361, 0.0923648253, 0.0219319016, 0.0810288787, 0.0373022407, 0.0829478577, 0.0273266658, -0.1040257886, -0.0556036383, -0.0275304075, 0.0700025782, -0.1303196698, -0.1163676009, 0.0062083993, 0.0381834991, -0.0981806889, 0.0094969915, -0.0677544177, 0.0939348340, -0.0227296185, -0.0026899674, 0.0258280691, 0.0647319332, 0.0118985260, -0.0097923595, -0.0329619013, -0.0877229720, 0.1074666306, 0.0421630591, -0.0052791564, -0.0332463309, -0.0540577918, 0.0150062498, 0.1021868661, -0.0063639218, 0.0591226704, 0.1390676349, 0.0587097928, 0.0695251003, 0.1856673062, -0.0507354699, -0.0739277005, -0.1018068492, 0.1438757181, 0.0564573109, -0.0720945299, 0.0836232603, 0.1085237265, 0.0457996279, -0.0141369672, 0.0394525304, -0.0024564769, 0.1489574164, 0.0498758107, 0.0909272805, -0.0243092421, -0.2091372907, 0.1129751056, 0.0580800846, 0.0466187522, -0.0541942865, 0.0164382458, 0.0379141569, -0.1859277040, -0.0029596162, -0.1332613677, -0.0520383939, -0.0070471084, -0.1793135405, -0.1694908142, -0.0540708452, -0.0682860613, 0.1092396230, 0.1130075678, 0.0808995366, -0.0716423169, -0.1012995392, 0.0591325499, -0.0751474127, -0.0112173837, 0.0057525518, -0.0235485677, -0.2689164281, -0.0018291568, -0.0343693756, 0.1010511890, -0.2388319075, 0.0357935429, -0.0481325239, 0.2145085037, -0.0352666005, 0.1054088920, -0.1064382941, 0.0160729550, 0.0005844555, -0.0655601248, -0.0819692463, 0.0107950149, 0.1178866401, -0.0645533949, -0.0860922411, -0.1139544919, 0.1314603984, 0.1251718253, -0.0883136243, 0.1626720577, -0.0740809888, 0.1588391066, -0.1229280680, -0.1036077514, 0.0408289731, -0.0241267346, 0.0316509232, 0.0696974397, 0.1091150120, -0.0105131045, -0.0408487059, 0.0501116365, 0.0944448188, -0.1398520023, 0.1639807373, 0.1071084440, 0.1194744930, -0.0560114831, 0.0626437366, 0.0828783214, 0.1014927924, -0.0411874279, 0.1179618239, -0.2485225946, -0.1432366967, -0.1779003888, -0.0272193160, -0.2028768361, -0.0351761021, -0.1478174776, -0.1878921390, -0.0452701971, 0.1045734063, -0.0955775008, 0.0474041589, -0.1099005938, -0.1079591289, -0.0999329165, 0.0654824525, -0.0593053885, -0.0786754712, 0.0479675755, -0.0038810573, -0.0319768675, -0.1373539567, 0.0529241599, 0.0706865340, 0.0211981293, -0.0024477809, -0.0266996976, -0.0988547057, 0.0329290666, 0.0031816270, -0.0334211625, -0.0946510285, 0.3089083433, 0.1360964775, 0.0109537095, 0.1383807361, 0.2738292217, -0.1604754031, -0.0783326849, -0.1757930964, -0.2031954080, 0.0258830339, 0.2569347918, 0.0754100010, -0.0359896123, -0.1649389565, 0.0584960207, -0.0146556236, 0.1226923466, 0.2314120531, -0.0102413613, 0.0859609544, -0.2033687085, 0.2268683314, -0.1870612502, -0.0299571864, -0.0618477874, -0.0424328893, 0.0042691315, 0.0774088949, 0.0745851249, -0.0491014197, 0.0551686659, -0.2066376805, -0.0109078903, 0.0814176202, -0.0391974673, 0.0878364220, 0.0205226596, -0.0511172488, -0.1540009528, -0.0920482501, -0.1034819484, -0.0619523861, -0.0597798340, -0.0505127497, -0.0995508581, -0.0330981761, 0.0267839730, 0.0483420230, 0.1346762329, 0.0605019704, -0.0373886377, 0.0656020269, -0.0457876213, -0.0511412174, 0.0264944658, 0.0338725895, -0.0605999380, -0.0878133029, -0.1150061861, 0.0850725397, -0.1180164292, -0.0412110463, -0.0533454791, -0.0013870774, 0.1345443428, -0.0049479436, 0.0408116169, 0.1118705794, 0.2061651051, 0.0847568214, -0.0310468748, -0.0662669018, 0.0170738101, 0.0756421462, 0.1924188137, 0.0180589501, -0.1213874966, 0.0425705388, 0.1996835619, 0.1364738047, 0.1946999282, 0.1545451581, -0.0628324524, 0.1294077337, -0.0403396524, 0.2963375151, -0.0287697278, 0.0979777724, -0.0143336942, -0.0154326251, 0.1563367397, 0.0458010919, -0.0272305887, 0.0365533121, -0.0749701932, -0.0632554069, -0.0021473770, 0.0712893456, -0.0473124236, 0.1084331647, 0.1149422154, 0.0188037287, -0.1250362247, -0.1676981002, 0.0936457813, 0.0891442224, 0.0459855944, 0.0015708496, -0.0549301915, -0.0877575874, 0.0984233171, -0.0426346362, 0.1113521904, 0.1885567755, 0.0544028543, 0.0895079300, -0.1011699289, 0.1995064318, -0.0180397052, -0.0579920821, 0.0558528677, -0.0137933400, 0.0135549111, -0.0877515450, 0.0329138301, 0.1021473482, 0.0427539721, 0.0897068009, -0.0832471997, -0.0160086397, 0.0805998668, -0.1102662534, 0.1213423461, -0.0144849513, 0.1125162095, 0.0366123170, 0.1375337243, -0.0933992267, 0.1601515859, -0.0239547938, -0.0795023069, -0.0717892647, -0.0153728668, 0.0825101957, 0.0918273106, -0.0466372669, 0.1829834133, 0.1147539243, -0.0734754056, 0.1550385207, 0.0109713813, 0.0258173533, -0.0877942145, -0.0520809628, -0.0576276444, -0.0747543201, 0.1383602917, 0.1619659513, -0.1067563146, 0.0653295442, -0.0126391016, -0.0886206552, 0.1269598603, -0.1275107116, 0.0183434933, 0.0294832196, -0.0064090085, -0.1313466579, 0.1002041996, 0.0983151719, -0.0128019210, 0.0051056882, -0.1441487670, 0.0577201322, 0.0337429456, -0.0544958562, 0.1364672035, -0.0270172637, 0.0236041974, 0.0602833964, -0.1161614358, -0.0256438181, -0.1110077202, 0.1616483927, 0.0088435737, -0.0071384334, -0.0724230856, 0.0715549812, 0.1255968362, -0.0921525806, -0.1224241629, 0.0931409001, -0.1481901854, -0.0995183215, -0.0491160564, -0.0782671422, -0.1248644963, 0.1293774247, 0.2062499523, 0.0900639743, -0.1265187711, 0.1281008273, -0.1877635866, -0.0618013814, 0.0510855429, -0.0775244161, 0.0274797510, -0.0328459442, 0.1189559400, -0.0209424291, 0.0204943419, -0.0640211850, 0.0808294415, -0.0672831088, -0.0334298573, -0.0818673447, 0.2039302140, -0.0357029624, 0.1927759200, -0.0475725122, -0.0344046243, 0.0832941309, 0.0055216365, -0.0508008376, -0.1878952533, -0.0717733800, -0.1136465594, -0.0119922273, -0.1646117121, -0.2063266337, 0.0584551394, -0.1256964654, -0.0076726079, -0.0210385602, -0.1437837481, 0.0113876443, -0.0262879524, 0.0840289369, -0.0651743039, 0.0315702483, 0.0178730413, -0.1074864939, 0.0175598972, 0.0230194256, -0.0871802792, -0.1667748094, -0.1996385604, -0.2314265221, -0.0054169814, -0.0214871876, 0.1862795353, -0.0209554099, -0.1184356362, 0.0645852908, 0.0644414648, 0.0490511581, 0.1945857853, -0.0532728247, -0.1024630293, 0.0839849338, 0.1839438379, -0.0705319196, -0.0076782485, -0.1642595381, -0.0554867722, -0.1513572037, 0.1534526646, 0.0151260439, -0.2074641734, 0.0688073412, -0.0739350468, -0.0092252493, -0.1433581561, 0.1986889243, -0.2452570498, -0.1459032744, -0.0761151090, -0.0636256114, -0.0560577549, -0.3297995627, -0.0505942442, 0.0377208106, -0.1503447294, -0.0140142301, -0.1728794426, 0.0658581108, 0.0334243588, -0.0471888073, -0.1633217633, -0.0445030779, -0.0831626579, -0.2995801866, 0.0003193214, 0.0667137206, -0.0470491759, -0.1157264039, -0.2496399134, 0.1210854724, -0.0822534561, 0.0172828566, 0.0541213453, -0.0031705382, -0.1134798303, -0.0640713498, -0.0643363595, -0.2927797139, 0.0387954488, -0.0036548858, -0.0238189530, -0.1172298416, 0.0208468754, 0.0362460949, 0.0119663347, -0.1356629878, -0.0239686258, 0.1994473934, -0.1397925615, -0.0406456627, 0.1976294965, -0.0413420387, 0.0989912525, -0.0034815914, -0.0614337362, 0.0719256699, 0.0574497730, -0.0630055442, 0.1363362223, 0.1174259931, -0.1094911471, -0.0311311223, -0.0380749069, -0.1092552170, 0.0234642178, -0.0056885197, -0.0797494203, 0.0625192821, 0.0327965096, -0.0527814329, 0.0573392697, 0.0367241167, 0.0405427776, 0.0265499074, -0.0896602795, 0.0796590149, 0.0154858297, 0.1573731899, 0.0515795760, -0.0508882403, 0.0570143387, 0.0294253994, 0.0849749595, -0.0817581192, -0.0682983473, 0.1170386374, -0.0043621324, 0.0696688741, 0.1028416157, -0.0566119924, 0.0967094973, 0.1126712188, 0.0349163860, 0.0713925883, 0.0442970730, 0.0827259123, -0.0264968630, 0.0531597957, -0.0834347308, 0.0340287909, 0.1127821356, -0.0248431526, -0.0118066426, 0.0892890170, -0.0238419138, -0.0477809161, 0.0248262193, -0.0288303066, -0.0382052995, -0.0531810597, -0.0414368361, 0.1015021726, -0.0594120473, 0.1199850440, 0.0677813143, -0.0823575780, 0.1717081666, -0.0489144512, 0.0827072114, 0.0763117224, -0.0214113966, -0.0404686294, 0.1091985330, -0.0584019944, -0.1629795581, 0.0630311891, -0.0312399380, -0.1359834224, 0.0396112129, -0.0029966540, -0.0048641558, -0.0864766911, 0.0644315258, 0.1540348083, -0.2061618567, -0.0896658450, -0.0061491695, -0.0431842282, -0.0861824229, -0.1946112663, 0.0920815766, 0.0197865963, 0.2220952362, -0.1033392474, -0.0105989724, 0.0782573596, 0.0228772834, -0.0298465341};

#endif

#endif
