//Numpy array shape [3, 3, 32, 32]
//Min -0.369075000286
//Max 0.417953342199
//Number of zeros 0

#ifndef W8_H_
#define W8_H_

#ifndef __SYNTHESIS__
conv2d_2_weight_t w8[9216];
#else
conv2d_2_weight_t w8[9216] = {0.0214610789, 0.0417415239, -0.1123379245, -0.0984614640, 0.0143186115, 0.0927592739, 0.1162553504, 0.0895133242, 0.0810604915, 0.0270585772, -0.1606826186, 0.0020441865, -0.0024777660, 0.0088116229, -0.0463855416, -0.1135855764, 0.2220667601, 0.0036205132, 0.0619196296, -0.0607202202, 0.1637046635, 0.0812059864, 0.0112820761, -0.0961072296, 0.0431390256, 0.1272039413, -0.0182693005, -0.1076462045, 0.0129172103, -0.0441062637, 0.0081861420, -0.0645815954, 0.0239565950, 0.0574612580, -0.1679298580, -0.0509429313, 0.0339789614, -0.1797357053, -0.0467777401, -0.0880403519, -0.0750159025, 0.0083463416, -0.0758933425, 0.1076924875, -0.0480753481, -0.0425622277, -0.0545964390, -0.1249494404, -0.1243711188, 0.0640184283, -0.0507722050, -0.0444858447, -0.0041880300, -0.0221866686, -0.0894688293, -0.0482374430, 0.0546681918, 0.1361822188, 0.0364009328, -0.0855724365, 0.0775807947, 0.0052812765, 0.0299307108, 0.0794333890, 0.0650930256, -0.0345637873, -0.0454691313, -0.1040739119, -0.0456508771, 0.1021615192, 0.2662243545, 0.0980701372, 0.0339335166, -0.0662602633, -0.0546890721, -0.1112803221, 0.1459164172, 0.0874018446, -0.0909152254, -0.1746781468, 0.1745412201, -0.0242795125, -0.0307536293, -0.1295100003, 0.1645596325, 0.0676807389, -0.1334452182, 0.0064167003, -0.0199686792, 0.1776437163, 0.0955443978, 0.0034729696, 0.0491133891, -0.1674351096, -0.1322318017, 0.0123812407, 0.0606688336, -0.0901100785, 0.0187646132, -0.0802609622, -0.0069545014, 0.0512725487, 0.1799214035, 0.1261237115, 0.0484072976, 0.0834549889, -0.0832295567, -0.0243717767, 0.0721432865, 0.1144186482, -0.0162625927, -0.1691447496, 0.1040241197, -0.0580226295, 0.0048104804, -0.0761291012, 0.1277315170, -0.0043914602, 0.0623994507, 0.0272719376, -0.1266842037, 0.0449219458, 0.0911560953, 0.0098546697, 0.0778535604, 0.0523321442, -0.0933100283, -0.0812705755, 0.1298190951, -0.1170255542, -0.1801822037, 0.0010204106, -0.1486332715, 0.0009171483, 0.1557512581, 0.0509564131, 0.0482622124, 0.1084301099, -0.0904903188, 0.0288805403, -0.0845750123, -0.0143112484, -0.0175735056, -0.0583416186, 0.0735999346, -0.0421796590, 0.1136906967, 0.0469616577, 0.2164120674, -0.0710231364, -0.0684862733, -0.0530171357, -0.0030469506, 0.0662515312, -0.0865515098, -0.1150560379, 0.0011818501, -0.1104251817, -0.2002707720, -0.1658086479, 0.0989120752, 0.0192794707, -0.0966812596, 0.0040925806, -0.1965922117, 0.0988247320, 0.2473044991, -0.0623270273, -0.0030708744, 0.0841996297, -0.0623037964, -0.0582367256, -0.0021568178, 0.0014315178, 0.0757535547, -0.0474533066, -0.0732390359, 0.0190910418, 0.0822830945, -0.1229413375, 0.0987085402, 0.0005435578, 0.0086067459, -0.0982279256, -0.0620972067, -0.0723154098, 0.0091430657, -0.1044200212, -0.0772943050, -0.1065367758, 0.0493663512, -0.0654730275, -0.0001212583, -0.0467603356, -0.1369819641, -0.0042576720, 0.0292343982, 0.1096069217, -0.1594351828, -0.1048104763, -0.0916287899, 0.0066320966, -0.1067543104, -0.0282019079, -0.0162907951, -0.0007694045, -0.1678934395, -0.0001992065, -0.0111446185, 0.0258542299, -0.0747031495, -0.0147804124, -0.0497429445, 0.0109205265, 0.0437779911, -0.0156002650, 0.0043393970, -0.0271864533, -0.1168753281, -0.0605202094, 0.0718180612, -0.0731473267, 0.0229655281, -0.0509121828, -0.1355833858, -0.0456953309, -0.1119531095, 0.1863417178, 0.0329167321, 0.0374317802, -0.0530875996, -0.0601433143, 0.0132118622, -0.0608371422, -0.0309255607, 0.0088963769, 0.0039891186, 0.0188933313, 0.0836936012, -0.0244112909, -0.1347543597, 0.0059182146, -0.0801692009, -0.0487369485, -0.1532372981, -0.1594132781, 0.0325091854, 0.0341158435, 0.0448969230, -0.0838064924, -0.0127141103, 0.0039935615, 0.0805191100, 0.0180620775, -0.1358531862, 0.0155958114, -0.0578123406, 0.0249345638, -0.0092556234, -0.0625706613, 0.0036898614, 0.0583238974, -0.0160380099, -0.1325781792, -0.0475581437, -0.0862686187, -0.1128898561, 0.1434634179, -0.0527258664, -0.0271925014, -0.0261172447, -0.1083113402, -0.0345231891, 0.0807860792, 0.0604742803, -0.0837669745, 0.0066295969, 0.0578357279, 0.0699781328, -0.0598236620, -0.0209721364, 0.0469761267, 0.0349154696, 0.0200491119, -0.0375283882, -0.0531581305, -0.0466417596, -0.0077612819, -0.0947361737, -0.0117516890, 0.0243618432, -0.0461725108, -0.0201580953, -0.0723062679, -0.1058849767, -0.0485405289, -0.0470015705, -0.0410523303, -0.0041285781, 0.0782801583, -0.1025162265, -0.0868846104, -0.0501525402, -0.0606842600, -0.0120941997, -0.0953195542, 0.0791017786, 0.0923480764, 0.0328495689, -0.0571818873, 0.0302170292, -0.0864276588, -0.1064729318, -0.1005238444, 0.0402030721, -0.0460647270, -0.1479637325, 0.0318883695, 0.0810856670, 0.1160580814, 0.1645452380, -0.1568619609, -0.1515963525, -0.1056530327, 0.0158359855, 0.0522737429, 0.2590875924, 0.1129873246, -0.0984097943, -0.0307857338, -0.0300214570, -0.1248413771, 0.0600591637, 0.0834826678, 0.0393356681, -0.1674716771, 0.0712901801, -0.1258385777, -0.1029122397, -0.0545222461, 0.1960049272, 0.0430567488, 0.0683486983, -0.0519990623, -0.0642693341, 0.1574446112, -0.0897164643, -0.0874950811, -0.0419430137, -0.0369367823, 0.0127098504, 0.0395990312, 0.0361125581, 0.0610919818, 0.0463817380, 0.0790374354, -0.0119020762, 0.0923630595, 0.0477067158, -0.0179936234, 0.0191199388, -0.0430138633, -0.0271097124, -0.0902007744, 0.0532940589, 0.0846942961, -0.0489264876, 0.0055207089, 0.0719823092, 0.0621732958, -0.0374956466, 0.0145841511, 0.0440618321, 0.0628312305, 0.0840755254, -0.0221319236, -0.0192309972, -0.0563110225, 0.0159414597, 0.0665444210, -0.0267627873, 0.0045952965, 0.0347097926, -0.0025765125, -0.0708327517, -0.1022454351, -0.1097879037, 0.1457079798, -0.1062388197, 0.0443980508, -0.0151025020, -0.0306568965, -0.0687633455, -0.0191599187, -0.1364266723, -0.0288890526, -0.0072541717, 0.0525700077, -0.1123292148, 0.0890710503, -0.0886464715, -0.0610684007, -0.1529464275, -0.0151496101, -0.0045653800, 0.0151670305, -0.1042784229, 0.0630016178, -0.1055812761, -0.0022870852, 0.1654575169, -0.0643518716, 0.0134371845, -0.1694080532, -0.0309639499, 0.0553328395, -0.0210272241, 0.0226062164, -0.0884108245, 0.1226863936, -0.0801186338, 0.0024396749, -0.1847764850, -0.0698024631, 0.0657773763, -0.0735993758, 0.0219754633, 0.0075836950, -0.0289057251, 0.0329591073, 0.0791325718, -0.0237258635, -0.0872502401, -0.0120304534, -0.0116723031, -0.0947412327, -0.0176174734, -0.1221806183, -0.1205174252, 0.0146979541, -0.1372761428, -0.0183010567, -0.0777403116, -0.1235791221, -0.0274220295, 0.0447540954, -0.0140077574, 0.0035111085, 0.1099227071, -0.1249643788, -0.1700736880, -0.0693546534, -0.0037171945, 0.0580198728, 0.2713449895, 0.0550432429, -0.0236880444, -0.0660041422, 0.0475978367, -0.0910832062, 0.0321432799, -0.0305462126, 0.0277520139, -0.0305406731, 0.0304867346, -0.1657368392, 0.0763248131, 0.0012379154, 0.0792140365, -0.0784685612, -0.1295430511, -0.0511864871, 0.0695912763, -0.0099944826, -0.1340696216, -0.1158127636, -0.0441882834, -0.1201402247, -0.1581299156, -0.0057867551, 0.0803078339, -0.1661780179, -0.0315528587, -0.1493780017, -0.0757978484, 0.1837178469, 0.1456425190, -0.1109683067, -0.0742267221, 0.0490047783, -0.0131413480, 0.0029494059, 0.1156726927, -0.0436522961, -0.0110622905, -0.1095577776, 0.1143530309, -0.0601745322, 0.0770604238, -0.1765477210, 0.0844598413, 0.0194033012, -0.1238083094, -0.0795660391, -0.0351790190, -0.0409851857, -0.0286963992, -0.0318842158, 0.0072854483, -0.0829779655, -0.0707524493, 0.0655431449, -0.0581893213, -0.0133274840, -0.0919393152, -0.0492174216, 0.0639041588, -0.1295215786, -0.1451220959, 0.0109119900, 0.0255374331, 0.0431871712, -0.0901496559, 0.0098238643, -0.0700260624, -0.1119779572, 0.0670747012, -0.1322990358, -0.0016266387, 0.0047872695, 0.0835093558, -0.0363701805, -0.1244485751, -0.0326136053, -0.0133069074, -0.0841690749, -0.0943863317, 0.0471209176, 0.0407470278, -0.0293390192, -0.0769386292, -0.0719295591, 0.0670720786, -0.0932889581, 0.1443653256, -0.0560432896, -0.0300982352, -0.0882585719, 0.0138257649, 0.1031842157, 0.1762773097, -0.0166733265, 0.0102788657, 0.1033514813, -0.0759184659, -0.0100428490, -0.0273575298, 0.0454640873, -0.0640433058, -0.0105006164, 0.1137073338, -0.0855252668, -0.0567929558, -0.0549291149, 0.1451091170, -0.0246239435, -0.0657913387, 0.0320484973, -0.1163949519, 0.1281968206, -0.1440522671, -0.1818559617, 0.0017450440, -0.1433516592, -0.0408738367, -0.1238115355, 0.1338388771, -0.0808577761, -0.1560059935, -0.1781050861, -0.0165339522, -0.0323509201, 0.2308975309, -0.0215814747, 0.0489251055, -0.0498375557, -0.0286313780, -0.0991777405, 0.0207478981, -0.1064372063, -0.0327360742, 0.0164098777, 0.0467760898, -0.1235860586, -0.1239230707, -0.1385257095, 0.0647648945, 0.0757242963, -0.1218709126, 0.0122936927, 0.0493721180, -0.0874158442, -0.0640461743, -0.0664740726, -0.0169054121, 0.0316143036, -0.0513976365, -0.0705018416, 0.1186018735, 0.0022532269, -0.1842723191, -0.1030183285, -0.1752158105, 0.0821599811, 0.2656455934, -0.0315642729, 0.0570122600, 0.0461362824, -0.0337509476, 0.0197054930, -0.1032742411, 0.0709899142, 0.0173595697, -0.0836419463, 0.1452591419, -0.0874988213, 0.0354518294, -0.0803336948, 0.1513143480, 0.0914193019, -0.1402912736, 0.0187132657, -0.0893848613, 0.0359026715, 0.0076378374, -0.1262672991, 0.0190410204, -0.1857088506, -0.0224024281, -0.0152960485, -0.0417664833, -0.0712938979, 0.0174697395, 0.0806268677, -0.0573516972, -0.0631909370, -0.0630226955, -0.0315223932, 0.0491511151, 0.0059524993, -0.0845971778, -0.0698468387, 0.0970656648, -0.0615301728, 0.0251164474, 0.0820617303, 0.0484484918, -0.0860338062, -0.1102867201, 0.0795501620, -0.2017882317, -0.1301121116, -0.0245355703, 0.1044999883, 0.0011570107, 0.0526517257, -0.0189306326, -0.0835329890, 0.0230824221, 0.0025532255, -0.1209632084, -0.0913078710, 0.0742500126, -0.1312907785, -0.1172318310, 0.0217727143, -0.1361250579, -0.0162134953, 0.1600239724, -0.0503890626, -0.1096696556, 0.0366785899, -0.1406164467, -0.0161355417, 0.0432593524, 0.1154187098, 0.0930966437, 0.0216687582, 0.1209167391, -0.0910452828, 0.0280545447, -0.1926420331, 0.1568737030, -0.0276682936, 0.0224752519, -0.0300519858, 0.1058149189, 0.1760344356, -0.0725597069, -0.1493877620, -0.0817898810, -0.0170640908, -0.0953449830, -0.0108923540, 0.0139845088, 0.0288286284, -0.0157319177, 0.1316612214, -0.0070864442, -0.1037987992, -0.0466771871, -0.0742693022, -0.0294328500, 0.0813375786, -0.0684462339, 0.0439989418, -0.0244719926, -0.0156805702, 0.0745844916, -0.1379266530, -0.0176089518, -0.0071949577, -0.0457522869, 0.0614915974, 0.0207544584, -0.0474624000, 0.0786507279, 0.0293166079, -0.1277220547, -0.0467911214, -0.0754522085, -0.0845256001, -0.0348395333, 0.0143702365, -0.0910830647, 0.0406761020, -0.0614604615, 0.0727692246, -0.1360758245, -0.0670872927, 0.0179381538, -0.0714157820, -0.0740999952, -0.0318660215, -0.0645126775, 0.0337703861, -0.0447504185, 0.0076719294, 0.0223992895, 0.0270477440, 0.0090509662, 0.0164146256, 0.0239371229, -0.0067230286, -0.0618558712, 0.0692798719, -0.0365144238, 0.0208995659, 0.0618782155, 0.0170419775, -0.0479821898, 0.0327698477, -0.0320833772, -0.0672324970, -0.1312339306, 0.0106114373, -0.0170945451, 0.0305313356, -0.1277992278, 0.0331901163, 0.0506426841, 0.0780470222, -0.0843033567, -0.1483045965, -0.2046740651, -0.0591197759, -0.1187732592, -0.1577524096, -0.0837188438, 0.0985712856, -0.0558724143, -0.0285943970, -0.0696909353, -0.1268112361, -0.1258051246, 0.0207393169, -0.1148740277, -0.0514652990, 0.0003273619, -0.0044988450, 0.1776903123, 0.0244605727, -0.0951095968, 0.0207168497, 0.0955301002, -0.0914241672, -0.0527677387, -0.1839852482, -0.0324474797, 0.1131829023, -0.0294264704, 0.0038324820, -0.1403219402, -0.0412924439, -0.0580872148, -0.0834794194, -0.1665628850, 0.0755770504, -0.0593692213, -0.0182748474, -0.1898122281, 0.1185135692, 0.0187945087, 0.0868587866, 0.0365657657, -0.0819291398, -0.1044295654, 0.0920393243, 0.0235511214, 0.0434726700, -0.1389397085, -0.0151588246, -0.1089928597, -0.1075045094, -0.1072189808, -0.1398834288, -0.0787523538, -0.0696724132, -0.1277710646, -0.1187392697, -0.0321873315, 0.0930088684, -0.1347070336, 0.1081118882, -0.2340816110, -0.0333571695, -0.0123185907, 0.1351243258, -0.1621343791, 0.0143522555, -0.0197828244, -0.0573947281, -0.1753862798, 0.0862716585, 0.1181394532, -0.1184707433, -0.0659511685, -0.0903882608, -0.1489213854, 0.0494271778, -0.0027908524, 0.0833131075, -0.2170437574, -0.1185461655, -0.0490457453, -0.0653257966, -0.1104797274, -0.0360582694, -0.0134289423, -0.1128699034, 0.0304097701, -0.1266593337, -0.0560885221, -0.0794879496, 0.1023818254, -0.0508982763, 0.0709006488, -0.0213778112, -0.0205029845, -0.1000801995, -0.1170577332, 0.0372625403, -0.0088739544, 0.0988671854, 0.0893964171, 0.0386781618, 0.0039871996, -0.0391239002, -0.0843993947, -0.0037043502, -0.0531638786, -0.1264721453, 0.1073465049, -0.0027693284, 0.0791766867, 0.0737847090, 0.0380836278, -0.1122127324, 0.0367507190, -0.0393618196, -0.0175450630, 0.0078216558, -0.0496914610, 0.0799483061, -0.0019106112, -0.0605508387, 0.0123809567, -0.0161535833, -0.0562188104, 0.0228907671, -0.0460148603, 0.0318316296, 0.2800362408, -0.0288211163, 0.0880455002, 0.0376745276, 0.0378123634, -0.2113100886, -0.1012490690, -0.0109358085, -0.0032928181, -0.1544232965, 0.1296269596, 0.0251710005, 0.1112832949, -0.2283075005, 0.1431001276, -0.0395548455, -0.1791500002, -0.0452928133, -0.0405474454, -0.0319751538, 0.0589056574, -0.1961630881, -0.0210618302, -0.1408079267, 0.0204677489, -0.1694100648, -0.0570941418, -0.0800586045, -0.0966985300, 0.0253602248, -0.0526633821, -0.0731840655, -0.1640111357, 0.0220854729, 0.0171833504, -0.0165987201, -0.1751416624, 0.1334075183, -0.0773310140, 0.0118112154, -0.0340634100, -0.0818664655, -0.0050974241, 0.0242144354, 0.0077231643, -0.0780695602, 0.0241303444, 0.0587353110, -0.1463000327, -0.0669378787, -0.0247991942, 0.0161205232, -0.0424843729, -0.0079831425, -0.0954224914, -0.0672780648, 0.0845198184, 0.0626621246, 0.0912357494, -0.0437397286, -0.1340315491, 0.0142242927, 0.0803763792, -0.1531430334, -0.0358094722, 0.0536773801, -0.0644329041, 0.0859778598, -0.0217140056, -0.0312250666, -0.0819479004, -0.0218486656, 0.1118716598, -0.0159486756, 0.0228674728, -0.0082726916, -0.0581389181, 0.0430007651, 0.1031514034, 0.0340313353, 0.0783915147, -0.1391650587, -0.0767612085, 0.0512170680, -0.0987237245, -0.0815875232, 0.1002676263, -0.0819771588, -0.0088550793, -0.0951610580, 0.0177358016, -0.1049994975, 0.0910483673, -0.0123241656, -0.1271916926, -0.0856933892, -0.1003612131, -0.0136928223, -0.1061162651, 0.0190091655, -0.0014845309, 0.0423653834, -0.0289419033, -0.0690772161, -0.0014327072, -0.0895884335, -0.0897532776, -0.0009145949, -0.0193485897, -0.0518477559, -0.0479503646, 0.0074884216, 0.1017219052, 0.0110604521, -0.0933681056, 0.0245041177, 0.0991790742, 0.0628012940, -0.0376669802, 0.1564916968, -0.0005118919, 0.0395913050, -0.1178703532, 0.1210592240, -0.1306950003, -0.0779558420, -0.1225494742, -0.0287450217, 0.0482586548, 0.0362892263, -0.0374562107, -0.1072913259, -0.1839602888, -0.0609712191, 0.0453160591, 0.0414144918, -0.1160095483, -0.0547006726, 0.0808985159, 0.0434754118, 0.0945078507, -0.0413641408, 0.0665215254, 0.0256366432, -0.0854882449, -0.0511889681, -0.0424552225, 0.1179207861, 0.0597821176, -0.1065098420, -0.0618946441, 0.0788291544, -0.1125047952, 0.0354067124, -0.0905427262, 0.0406180210, -0.0101345805, 0.0058833943, 0.0117817177, -0.0764490291, -0.0741066486, -0.0145771094, -0.0857746974, -0.1450108588, -0.0101779047, -0.0813422874, 0.0887710527, -0.0439155772, -0.0083234813, -0.0644827411, -0.0401948877, 0.0307547878, -0.0357045084, -0.0471863821, -0.0390056595, 0.0075638071, -0.0007403911, -0.0057734265, 0.0280023497, 0.1045778915, 0.0823778510, 0.0378340222, 0.0080872700, -0.0882916898, -0.0135512743, 0.0036925224, 0.0175987463, -0.0405822806, -0.0956326276, -0.1611268371, 0.0007847403, -0.0807629153, 0.1174469367, 0.0590221584, -0.0702831373, 0.0539270565, -0.1926708668, -0.1042004675, 0.0654960051, 0.1679060459, -0.1210874170, -0.0299946293, 0.1189652309, -0.1140472814, 0.0825224891, -0.0108291544, 0.2806578279, 0.0892808735, 0.0993387029, -0.0535464436, -0.0132485190, 0.0619085133, 0.1120049655, -0.1707922518, -0.1066708267, -0.0935411528, -0.0456329808, -0.0505997986, 0.0720619112, 0.0357075185, 0.0159320384, -0.0667454228, -0.0970626399, -0.1763587892, 0.0320832878, 0.1637471020, -0.0126621397, -0.0052032126, -0.1431031227, -0.0067972820, 0.1274333149, -0.0834408700, -0.1169235781, -0.0211759768, -0.0242894031, -0.1398564130, 0.1415127963, 0.0417109057, 0.1669023931, 0.0793162286, -0.1037331149, 0.0099003501, 0.0033723228, 0.1405653656, 0.0766816288, -0.0568984896, -0.0356535167, 0.0162877887, -0.1105298623, -0.0267082043, -0.1473197788, -0.1415852159, -0.0850206688, -0.0359512642, 0.0037059346, -0.2088245302, 0.0810669065, 0.1911589354, -0.0218149703, -0.1257144213, -0.1481551528, -0.1431653202, 0.0658058003, -0.0495539270, -0.0347219892, 0.0710159093, -0.0349671096, -0.1150300503, 0.0699956119, -0.0114074461, 0.2063782066, -0.0292677656, 0.0565271862, 0.0097804787, -0.0157760680, -0.0012647411, 0.1157354340, -0.1409455836, -0.0940024629, -0.0789831579, -0.0495974086, 0.0385617837, 0.0198640153, -0.0689707398, -0.0821831822, -0.1081402451, -0.0617421381, -0.1463707834, 0.1315348446, 0.0006990680, -0.1016706228, -0.0712710619, 0.0139202010, -0.0280370899, -0.0703193620, -0.0716994330, 0.0857123211, -0.1123179421, 0.1042860895, 0.0537397861, -0.0166207012, -0.0656302422, 0.0821715295, 0.0381263532, -0.1252179891, 0.1289288700, -0.0440973081, 0.1750351191, -0.0278865676, -0.1751736850, -0.0372947194, -0.1243007183, -0.1065369472, -0.0147769842, -0.0486591160, -0.0913908109, -0.1194302216, 0.0284413565, -0.0240750164, 0.1112367585, -0.1349094957, -0.0842630193, -0.0849811211, -0.0265002288, -0.1564900279, 0.0385753699, 0.0430785790, -0.0134854028, -0.0161926020, 0.0161678065, -0.2277274579, -0.0634871721, 0.0018332162, 0.0318458937, -0.1383763403, 0.0363137200, 0.0635054633, 0.0014038730, 0.0736307651, -0.1086720675, -0.1830621064, -0.1123451740, -0.1135106459, -0.0089424904, -0.0629613400, 0.0318197981, -0.0547556467, -0.0071328310, 0.1749720275, 0.0370165780, 0.0672754645, -0.1051256061, -0.0712518170, -0.1264361292, -0.1054233983, -0.1042181104, 0.0078895120, -0.2529690564, 0.0162199028, 0.0595680252, -0.0068180263, 0.1231603175, -0.1885831654, -0.0864590257, -0.0574696995, 0.0666725039, -0.0579309314, -0.0230883695, -0.0609818213, -0.0813199654, -0.0457799956, 0.0173956752, -0.0009232577, 0.0459256954, -0.0638729259, 0.1144468933, -0.1596895605, 0.0597622842, -0.1116060987, -0.0335466042, -0.1566539556, 0.0751202106, 0.0623033084, 0.0054040854, -0.0764117464, 0.0156738460, 0.0376601107, 0.0252659842, -0.0620508529, -0.0270503499, -0.0451976843, 0.1150244251, 0.0527010858, -0.0413687043, -0.0737856925, 0.0613918118, -0.0255462043, 0.0254152026, 0.0686610192, 0.0365180895, 0.0784948021, 0.0938609466, 0.1485197395, 0.0652716011, -0.1155916080, 0.0225993469, 0.0732850209, -0.0727727413, -0.0100270081, -0.0232443623, 0.0280279107, 0.0030022094, 0.0630012378, 0.0211957432, -0.0352822803, 0.0309987571, 0.1086675972, 0.0319917798, -0.0865673050, -0.0436688960, 0.0017038248, -0.0527493246, -0.0406139605, -0.0530332327, -0.0950414762, -0.0185520537, -0.1018337756, 0.0652410090, -0.0725977048, -0.0942318216, -0.0734604970, -0.0625599921, -0.0422934778, -0.0928867310, -0.1133092269, -0.0539807305, -0.0185019113, 0.0981334969, -0.0695040524, -0.0333562754, 0.0228810329, 0.1456781477, 0.0227377508, 0.0323430821, -0.0291940514, -0.2086432129, 0.0414128937, -0.1629447490, 0.0756436586, 0.0977701470, 0.0211615302, -0.0260064285, -0.1535018682, -0.0437400825, 0.0853335038, 0.0556976497, 0.0304235537, 0.0105471211, 0.1685326397, 0.0212030131, 0.0712142959, 0.0910226703, 0.1599108279, 0.0173608363, -0.0787022933, -0.0294896979, 0.1207338274, 0.1704291999, 0.0989802927, -0.0509174727, -0.0530471876, -0.0572640896, -0.0960997641, 0.0476622432, -0.0265630446, -0.0336737968, -0.0234518927, -0.0187323019, 0.0530601107, -0.0855658352, 0.0571978986, -0.1065123975, 0.0360586792, 0.0687463209, 0.0087490035, -0.0523497351, -0.0528036691, 0.0039560795, 0.0174387060, 0.0735149160, -0.0922624692, -0.0175840929, -0.0526401810, -0.0894882157, -0.0284005944, 0.0903052539, -0.0403895564, 0.0047683758, -0.0557892434, -0.0184861049, 0.0188162830, 0.0765672922, -0.0375202112, 0.0696883127, 0.0212602355, -0.0883555263, -0.0341046043, -0.1466579437, -0.0052808705, 0.1819920242, 0.0316278972, 0.1045271680, -0.1455260515, -0.0843939036, 0.0384032913, 0.0863084793, -0.0100645218, -0.0544510297, -0.0392686315, 0.0632676631, -0.0563182794, -0.1441140175, 0.0943498462, -0.2165684402, -0.1039728001, 0.0201912727, -0.1529145241, -0.0443912260, 0.0284263436, -0.0140313096, -0.1399990022, -0.1004848331, 0.0468162075, -0.0621570311, -0.1210367903, 0.0991696566, -0.0153063862, -0.1870539188, 0.0201685801, -0.1055075005, 0.1538908929, 0.1343712658, -0.0660117120, 0.0068059717, -0.0009132051, -0.0296362843, 0.0032933240, 0.0071621127, 0.0265485588, -0.0891480595, -0.0213957094, 0.0778399408, 0.1242315322, -0.0250953250, -0.1463916153, -0.0478162840, 0.0109963408, 0.1096025929, -0.0557655394, -0.1012459695, 0.1039599702, 0.0307472013, 0.0936657190, -0.0134047363, 0.0273531564, 0.0636666641, 0.0251859520, -0.0195418838, -0.0367699303, 0.0352896675, -0.1479915529, 0.0200403109, -0.1660310924, -0.2341321707, -0.1316529065, -0.1901064515, 0.0443906225, 0.0259186421, -0.0092670824, -0.0244428851, 0.0287168249, -0.0617835745, 0.1687145978, -0.0032073273, -0.0623277277, -0.0731153414, 0.0473688841, -0.1126832739, 0.1433765441, 0.0480762720, 0.1384025514, 0.0028826122, 0.0199544784, -0.0754157007, -0.0113330903, -0.0190260280, -0.0339211039, -0.0943357944, 0.0192262102, -0.0296542645, -0.1200728416, 0.0475944541, 0.0388291106, -0.0479068719, -0.0655505285, -0.1481439620, -0.0434953608, -0.1124619693, 0.1534524113, 0.1397534758, -0.0528214239, -0.1343452036, -0.1516502053, -0.0504589938, 0.0092413044, 0.0821167901, -0.0229707826, 0.0043269582, 0.0962606966, -0.0018794880, -0.0348014012, -0.0830310807, 0.0682552308, 0.0537191741, 0.0216643512, 0.0215233620, -0.0601306595, 0.0383394808, -0.0052378904, -0.1350943744, -0.0393415801, -0.0938065127, 0.0015768181, 0.0008686268, -0.0411685221, 0.0132402834, 0.0062990328, -0.0055828490, -0.0853082091, 0.0969311669, -0.0975022465, -0.0307422243, -0.0385697484, -0.0970468745, -0.1889854074, 0.0017256300, 0.0917437375, -0.0703681707, -0.0115015367, -0.0771352053, -0.1484685987, -0.0460221916, -0.1054206043, 0.0895904228, -0.1504469812, -0.1294301003, 0.0513964035, -0.0404759571, 0.1607975364, 0.0448592193, -0.0425970629, -0.0861169696, -0.0582816564, -0.1357096285, 0.0254783072, -0.1062491760, -0.0581499673, 0.0065855859, 0.0609731153, -0.1807835847, -0.1201342270, -0.1071448699, -0.0057035186, 0.1371642351, -0.0202763900, -0.0348573849, 0.0124860127, -0.0331247449, 0.1253268868, -0.0222096797, -0.0295104086, -0.0869085565, 0.0040347264, -0.0551148430, 0.0756406784, 0.0343402736, 0.0268838890, -0.0452024154, 0.0054927510, 0.0894869119, 0.0237706155, 0.0945446491, 0.0613383651, -0.0798498169, -0.1250213087, -0.0274077915, -0.0976002216, -0.0679507628, -0.0073680058, -0.1121620908, 0.0153065650, -0.0536670946, -0.0946452171, 0.0129893478, 0.0532945059, 0.1163644716, -0.0472423173, -0.0772406012, -0.1513959616, -0.1828284711, -0.0894395113, -0.0418034755, -0.0285502076, -0.1121226102, 0.0104454150, -0.0062463195, 0.0839710310, -0.0002696870, 0.1125603169, -0.0257624462, 0.0077608181, -0.0176941566, -0.0360752866, 0.1222831085, -0.0251187198, 0.0108423773, 0.0389976874, -0.1090080515, -0.0962981209, -0.0974100232, 0.0253518540, -0.0067846044, -0.0561405495, -0.0596982613, -0.0026253667, -0.0502087772, 0.1626182199, 0.0922004133, 0.0427556969, 0.0693521127, -0.0556020513, -0.1200321913, 0.0510933399, 0.0343596004, 0.0846918523, 0.0158552080, 0.0400120877, 0.0431242995, 0.0180628989, 0.0005964921, 0.1361996531, -0.0563536957, -0.0184519254, -0.0488108657, -0.0334783569, 0.1203943342, 0.0776650012, -0.0504197143, -0.0746196210, 0.0398837216, -0.1632820368, -0.0200974364, -0.1341542155, -0.0724937692, 0.0703569427, 0.1535773277, 0.0043347096, 0.0422958396, -0.1640417129, -0.0620569251, -0.0103432229, -0.0313986130, 0.0268001854, -0.1913348436, 0.0049753524, 0.0290123243, 0.0507922918, 0.0600563809, 0.0347734801, -0.1805756390, -0.1393483132, -0.0583057888, -0.1207468435, -0.1451522410, 0.0152360164, -0.1373847425, 0.0213074069, 0.0398844667, -0.0123741422, 0.0679198578, -0.0091988118, 0.0886383057, -0.0231966544, -0.0177390818, -0.0265972149, -0.1008408070, -0.1231812015, -0.1555946618, -0.0324262455, -0.1433833241, 0.0553209744, 0.0689342022, -0.0996788442, -0.0217461996, -0.0136293927, -0.1063780189, 0.1838035882, 0.0872867852, -0.0930555984, -0.1103610545, 0.1141626462, 0.0431050807, 0.0542347319, 0.0095829777, 0.2294646502, -0.0088752201, 0.0020745569, -0.0726036653, 0.1491943151, 0.2052583396, -0.0006174812, -0.0492361598, -0.0092518814, -0.0032037334, -0.0710890070, -0.0531151928, -0.0176431164, 0.0872720554, -0.0591302998, 0.1167203411, 0.0222871024, -0.0278506335, 0.0158517864, -0.0507275052, -0.1428683698, -0.0563809536, 0.0878370479, -0.0274014268, 0.0914185494, -0.0364719220, -0.0797905028, 0.1247183681, -0.0201698001, -0.1184366047, 0.0657129288, 0.0073441933, -0.0702635199, -0.0707687810, -0.0592601001, -0.0687283278, -0.0268410053, -0.0346770175, 0.0604148023, 0.0978513807, -0.0389202386, 0.0545711368, 0.1016365439, 0.1044607982, -0.1474605799, 0.0656992272, -0.1417360455, -0.1239212975, 0.0338849053, 0.0246416442, 0.0538555272, 0.1451202929, -0.1302973032, -0.0140102403, -0.0533909425, -0.1480819732, 0.0980454013, 0.0526326895, -0.1019471660, 0.0679257140, -0.0948458090, 0.0493656769, 0.0260621998, 0.0464272723, 0.0681345016, 0.0240996983, 0.0848634690, -0.0853346586, 0.0572594218, 0.1116504520, 0.1220288575, -0.0132922623, -0.0520012490, 0.0851586163, -0.0015017418, -0.1170995012, -0.0795644373, 0.0569339320, -0.0508019961, 0.0669763163, -0.0480308309, 0.0322765410, -0.0310196187, -0.1152983308, -0.0703661069, 0.0047389795, -0.0424403474, 0.0082743233, 0.0327260680, 0.0043142764, 0.0038741378, -0.0750817657, -0.1410058886, 0.0776397809, -0.1151478067, -0.1328505725, -0.0352339484, -0.1007880792, -0.0486705750, 0.0630960912, 0.0112161888, -0.0490500256, -0.1105091721, -0.0127019575, 0.0167925600, -0.0015981295, 0.0145678045, -0.0186688974, 0.0347413793, 0.0211514011, -0.0279207341, 0.0620697439, 0.0329462327, -0.0818999261, -0.0408409052, -0.0471221730, -0.0539881699, -0.0426022299, -0.0547722057, 0.0459765010, -0.0457279496, 0.0316482000, 0.0224942453, 0.0898012817, -0.1347268522, 0.1257896274, 0.0151070775, 0.0210301168, -0.1489794403, 0.0794754773, -0.1164526492, 0.0566933379, 0.0827505663, -0.1231034473, -0.0323282070, -0.1140429676, 0.0200537592, -0.1757556796, 0.0201834496, -0.1109639406, -0.1633709818, -0.0446874015, -0.1548200697, 0.1285462826, -0.0991153941, 0.0489497930, -0.3690750003, -0.1189754978, 0.0416246019, 0.0113112675, -0.1948688328, -0.0857160017, -0.0195094645, -0.0933483616, -0.0395767242, -0.0337378606, -0.0780928209, -0.0087220790, -0.2153136283, -0.0280367918, -0.3109710217, -0.1787829101, -0.0432942510, -0.0037473743, 0.0531513132, -0.1114450768, -0.1083483621, -0.1432660967, -0.0626094416, 0.0251844320, -0.0146667147, 0.0372915342, -0.1069133729, -0.1111074984, 0.0464654230, -0.0109592183, -0.1228863001, 0.0543687604, -0.0334977582, 0.0073601687, 0.0295898393, -0.0601649098, 0.0949981064, -0.0553537495, 0.1093006060, -0.0804078877, 0.0638503954, 0.0746791437, 0.0196141917, 0.0299362037, 0.0280707851, 0.0488809869, -0.0251246672, 0.0523446910, 0.0973307937, -0.0718157738, 0.1210737079, -0.0136749707, 0.0157576278, -0.0681784377, -0.1339812428, 0.0631744713, -0.1011665165, 0.0686048269, -0.0111482125, 0.0744997934, -0.0557095259, -0.0848710984, 0.0478367321, 0.0484927073, 0.2516687214, 0.0892105699, -0.0635293573, -0.0149805108, -0.1453531235, -0.0141960522, 0.0035683888, 0.0396204889, 0.0120109851, -0.0770525932, 0.1300907582, -0.0307433885, 0.0576978847, -0.0913280845, 0.3057268858, -0.0511882640, -0.0861169770, 0.1023612022, 0.0099350056, 0.0789930001, 0.0278253499, -0.1393144131, -0.0360066108, -0.1470645368, -0.1233739778, -0.1491498947, -0.1251922548, 0.0439848863, -0.0626484975, 0.0077981539, 0.0501787663, -0.1323438138, -0.0310182665, -0.0721513927, -0.1542471349, 0.0141253229, -0.1215441525, -0.0219978429, -0.0707978383, 0.0796665475, 0.0036231317, -0.0373543166, -0.0569697730, -0.0289038457, -0.1199177504, 0.0962929055, -0.0499793254, 0.0148555171, -0.1096112877, -0.0196145810, 0.0444015972, 0.0159585066, -0.0331626572, -0.0362456553, -0.0004141655, -0.1416566670, -0.0710212290, -0.0242443737, -0.0300177634, 0.0050137490, -0.0748419389, 0.0306815114, -0.0873381495, -0.1596590579, -0.1037808135, 0.0605353527, -0.0376644358, -0.0744851902, -0.0293436237, -0.0368469134, -0.0701818317, 0.0277351178, 0.0199557692, -0.0552570447, -0.1320345849, 0.0270974338, 0.0376597643, 0.1002998129, -0.0329936109, 0.0729032978, 0.0989771634, -0.0360859521, 0.0186074879, -0.0808867216, 0.0749819502, -0.0991497189, -0.1047581956, 0.0047730743, -0.0463780165, 0.1654873043, -0.1030707508, 0.0451087318, 0.0853195786, 0.0205863882, -0.0541209280, -0.0006418917, -0.0881442130, 0.0731940717, -0.0841949135, 0.0497357287, -0.0739994198, 0.0036487055, -0.0101299081, -0.0472700186, 0.0089375498, 0.0313640796, -0.0296471547, 0.0471481457, 0.0675761327, -0.0873990133, -0.0130542126, -0.0846723095, 0.0526949801, -0.0141491499, 0.0150377695, -0.0277499277, 0.0351710655, 0.0847432762, -0.0974233672, 0.1222246662, 0.0600346401, 0.0444033816, -0.1628209651, -0.0790889263, -0.0329815932, 0.0436322279, 0.0093167806, -0.0479292870, -0.1095300242, 0.0557249673, -0.0069571752, -0.1612390429, -0.0402473323, -0.0479345322, 0.1558215022, -0.0984824151, 0.0092333034, -0.0257928111, -0.1609002650, -0.0729843602, 0.1184009686, -0.0101404451, -0.0300488155, -0.0608748607, 0.0240978971, -0.0928575695, -0.0188184958, 0.0241160654, -0.0276973434, -0.0553331338, 0.0047042267, -0.0648767725, 0.0215302575, 0.0564634725, -0.1143847555, 0.0885087699, -0.0763967857, 0.0593729727, -0.0191286933, 0.0673164949, -0.0479368046, 0.0078500593, 0.0753749311, -0.0014149696, -0.0766207129, -0.1102874726, -0.0541126505, -0.0545349717, 0.0457377881, 0.0373953059, 0.0114328191, 0.0144649576, 0.0152910501, 0.1246540919, 0.0237358436, 0.0259440597, -0.0180622954, 0.0605856851, 0.0474841073, -0.0207963884, 0.0576223917, 0.0556989051, -0.0130084911, -0.0227931235, 0.0126934564, -0.0282174572, -0.0760165974, -0.0228088107, 0.0825812668, -0.1436925381, -0.1185799539, -0.0426311307, -0.0463606305, 0.0429714918, 0.0157980546, -0.1737861037, 0.0556964986, -0.2272499800, 0.1057790741, -0.0706761777, 0.1244432405, 0.1693935543, -0.0115209324, 0.0242043119, 0.1506911516, 0.0771098584, -0.0284304731, -0.0530413464, -0.0532458611, -0.1039454490, -0.0981858894, -0.1044732630, 0.0041926815, -0.0126686953, 0.0260860864, -0.0058084931, 0.1219070032, 0.0479415469, -0.1083810851, -0.0715856105, -0.0140918344, -0.0145723736, 0.0090906275, -0.0909846425, -0.1320271641, -0.0610616989, 0.0495174117, -0.0917922482, 0.0421121977, -0.1483403891, 0.0552841052, 0.0370990448, 0.0672858208, 0.1462074965, -0.1478182673, -0.0448157415, 0.1588187367, -0.0023374453, 0.0276249275, -0.0137587665, 0.0349596813, -0.0912990719, -0.0056947097, 0.0297951493, 0.0059316223, 0.0194226652, -0.0457902588, -0.0352179930, 0.1255165190, 0.1381892115, -0.1015113369, -0.1003248096, -0.0364445448, 0.0204841830, -0.0547248572, 0.0933605954, -0.0245217588, -0.0107989693, -0.0449447669, -0.0248349048, 0.0743357912, -0.0621573590, 0.0733015761, -0.0750761852, -0.0749398172, 0.0564733185, -0.1402899176, 0.0297549721, 0.0367676355, -0.0550783388, 0.0540296361, 0.0112760365, -0.1031722352, -0.0676511377, 0.0536757335, -0.0848028436, 0.0272672698, 0.0831713155, -0.0660950989, -0.1122741103, 0.1293031424, 0.2786205411, -0.0738676488, 0.0822755620, -0.1225184426, -0.1891785711, -0.0754941329, -0.1933574080, -0.0474540964, -0.0224986412, -0.0565338731, -0.1487656534, -0.1176383644, -0.0928169265, 0.0877517983, 0.0016792531, 0.0411842763, -0.0161830336, -0.0258645080, -0.0488156267, 0.1179324239, -0.0733453780, -0.0268296525, -0.0226427894, -0.0179712363, 0.0070450744, 0.0530968606, 0.0831820816, 0.1495058239, -0.0654712096, 0.0603920743, -0.1328154653, 0.0699433610, 0.1395848393, -0.1595931202, -0.1612343043, -0.0590255670, 0.0436603166, -0.0847226232, -0.0670934767, -0.1855290383, -0.0865734890, -0.0233483594, 0.0233846847, -0.1633104086, -0.0761400536, 0.1161694601, -0.0002510403, -0.1089423448, -0.0507667996, -0.2234318107, -0.1397512257, -0.2425042838, -0.0192083754, -0.1679418087, 0.0405633114, -0.0503362603, -0.0859404653, 0.0709744394, -0.0707948580, -0.1191193461, -0.0463104323, 0.0452362150, -0.0816605091, -0.0286166240, 0.1283831745, -0.0881483331, -0.1190414503, 0.0876071528, -0.0364754796, 0.0303120799, -0.0297591500, -0.0422882959, -0.1465219855, 0.0618765205, -0.0841629356, -0.0920660496, -0.1412634850, -0.0387477539, -0.0164490696, 0.0930383205, 0.0040941336, -0.1568108052, -0.0143811386, -0.1346484125, 0.0845626667, 0.0323264673, 0.1252584606, -0.1397647560, 0.0617318079, 0.0192912742, -0.0489362590, -0.1681659967, 0.1685152650, 0.0258029252, -0.1115138009, -0.1024505347, -0.1400024146, 0.0656058043, -0.1327870041, -0.1366194040, 0.1340159476, -0.1094518378, -0.1180728301, -0.0076120221, -0.0197910145, -0.0785997882, -0.1369707882, -0.0542244837, -0.0873677582, 0.1419833601, 0.0555877797, -0.0642655790, -0.1397736967, -0.0604813993, 0.0974069461, -0.0220094658, -0.0747486874, 0.0294559784, -0.0851265416, -0.0463118292, 0.1105104163, 0.0554796383, 0.1048669443, 0.0015447724, -0.0028964400, -0.0709639415, 0.0593277439, 0.0670619383, 0.1282655448, 0.0535627380, -0.0183709357, -0.0730264187, 0.0207587369, -0.1352516711, 0.1021671519, 0.0934989229, -0.0288515426, -0.1050014347, -0.0764345974, 0.0667714551, -0.0998637527, 0.0956735015, 0.0061192233, -0.0973699391, 0.0390152708, 0.0850846395, -0.0022696364, 0.0415351316, -0.0689891726, 0.0069083106, 0.0887237266, 0.0652918816, 0.0316230766, -0.0348390043, 0.0481512100, 0.0399867482, -0.0786228329, -0.0851637870, -0.0422338359, 0.0409085415, -0.0429225229, -0.1774701774, 0.0213576443, -0.0311969910, 0.0297022481, -0.0198608208, -0.2140806317, -0.1986087263, 0.1467310339, -0.0262920596, -0.0712275356, -0.1217568964, -0.0311168525, 0.1357708722, -0.0436476171, -0.0977860019, -0.0437357873, -0.0280346926, -0.0819987282, 0.1216399968, -0.0641472116, 0.0314083360, 0.0175498854, 0.0580979697, 0.0305008851, -0.0594637245, -0.1024378091, 0.0597511008, 0.0451876000, -0.1589968950, -0.0626002029, 0.1611625254, 0.0197338071, 0.1006203368, 0.0922954381, 0.0787500143, 0.0198374707, -0.0321745537, 0.0275061782, -0.0018416385, -0.0403390974, -0.0716347694, -0.0472735614, 0.0306093041, -0.0469929241, 0.0637419373, 0.0611186475, 0.0871947408, 0.0329245478, 0.0371618308, -0.0169838909, -0.0521644764, 0.0970692933, -0.0075531472, -0.1051726043, -0.0522809513, 0.0756707564, 0.0631789640, 0.1035351530, -0.0782585144, -0.0154561615, 0.0030358811, 0.0982577950, -0.0853106603, -0.0191614479, -0.1373331994, -0.1109252349, 0.1768717617, 0.0097491946, -0.1278147250, -0.0138691152, -0.0600216351, -0.2206670791, -0.0038580787, -0.0944099948, 0.0079928935, -0.0540569201, 0.1742136329, 0.1392310709, 0.0638019964, 0.1740392596, -0.1174340174, -0.1088976488, -0.0914787129, 0.0874460563, -0.2153352797, -0.0957798883, 0.0127145126, -0.0398237184, -0.0305707715, -0.1149025336, -0.1381931752, 0.0160021521, 0.0123974681, -0.1618558168, -0.2096229196, -0.1484245807, -0.1319518983, -0.0936666876, 0.0522884764, -0.0121952416, -0.1439302862, -0.0751775950, 0.0292182080, -0.1454709619, -0.0494976789, -0.0353747830, 0.0173092075, -0.1459284723, -0.0309265852, 0.0111472579, 0.0659292862, 0.0477288663, -0.0321634412, -0.1140527949, 0.0245440137, 0.0891216770, 0.0493530221, 0.0680407211, -0.1396150291, -0.0936186612, -0.0539773926, -0.1130756587, -0.1407620758, 0.0364216715, -0.1116919667, -0.1401478201, 0.0301463250, 0.0433113351, -0.0973942727, 0.0172874536, -0.0402965844, -0.0108501995, -0.0982877687, -0.0677894354, -0.1133718863, -0.0405375101, -0.0895623490, -0.2068429887, -0.1088642105, -0.2243760824, 0.0641235933, -0.0423898734, -0.0717374310, -0.1022238135, -0.1917065680, -0.0785074756, 0.0394192860, -0.1403113157, -0.0240656491, -0.1194830984, -0.1277856082, 0.0210088659, 0.0591915362, -0.0056615989, 0.1004973948, -0.0167741403, 0.0002861466, -0.1292157322, 0.1910913885, 0.1620220691, -0.0409065448, -0.0397001281, -0.0942972526, -0.1343460232, 0.0692644566, -0.0649104863, -0.0107617984, 0.0465046503, 0.0658403412, -0.0788012967, -0.0880454928, -0.1604877412, 0.1072914302, -0.1449728459, -0.0310479943, 0.0585786626, -0.1804841608, -0.0171454586, 0.0174402446, -0.0940032229, 0.0172480755, -0.0227685869, -0.0811488032, 0.0299054049, 0.0694846660, -0.1001628563, 0.1588768214, 0.0336904004, -0.1091574728, 0.0217448603, 0.1167544872, 0.1301259249, -0.1146078855, 0.0080579063, 0.0009876289, 0.0199575834, -0.1885437667, -0.0966284499, -0.2835953832, -0.0645201728, -0.0012348406, 0.0822294131, -0.0110764336, -0.0057509062, 0.0427040868, 0.0761894584, -0.0342658497, -0.2043758780, -0.2040070891, 0.0023237912, -0.1598121971, 0.0449485108, -0.2864196897, 0.1055034101, 0.0304981116, 0.0414558649, 0.0758457631, 0.0510659553, -0.0632429495, -0.0733596981, -0.0861203521, -0.0235220324, 0.0265850220, -0.1487748176, -0.0837890059, -0.0756509900, -0.0501979105, -0.1075123996, -0.0946749151, -0.0077198460, -0.1275646836, 0.1322470605, -0.0801121444, 0.0047333222, -0.0120421657, -0.1295439452, 0.0378819108, -0.0403788276, -0.0147655578, -0.1282329559, -0.2163782269, -0.0545011535, 0.0571892448, -0.1091236249, 0.0610089749, -0.0267423838, -0.1255071908, -0.0430744179, -0.0660432056, -0.0823421553, -0.0031062562, -0.1406087428, 0.0490659028, -0.0959312990, 0.0504731797, 0.1561742276, -0.1215274855, -0.0230264049, -0.0000674051, -0.0171787124, -0.0497763231, -0.0686470121, -0.0317358710, 0.1478955150, -0.0011136723, -0.0973840877, -0.0165797733, -0.1229100004, 0.1325752586, -0.1178109646, 0.0171067677, 0.0385332778, -0.1478434652, -0.1178723946, 0.1707186103, -0.0384639688, 0.0332733318, -0.0829025880, -0.0772792324, -0.0026910026, -0.0504377224, 0.0223539323, 0.1304533631, 0.0168381426, -0.0394274071, 0.0159716848, -0.0015961954, 0.1613442451, 0.0178345237, 0.0100095486, -0.0981932357, -0.0808170810, -0.0663385913, -0.1169171035, -0.1388505101, 0.1068145782, 0.0278959740, -0.1568994075, -0.1381732821, -0.1222910583, 0.1328228265, -0.1091862693, 0.0789956078, 0.0859224424, -0.1297612190, 0.0405847952, 0.1806955636, -0.1125587821, 0.0976869985, -0.0419121943, -0.0877741650, 0.0673734322, -0.0275278445, 0.1225729883, -0.0238472018, -0.0516250581, 0.0423395522, -0.0830740407, 0.0542876646, 0.1066073477, -0.1786122620, -0.1075781286, 0.1687376201, -0.0778717101, 0.0333460644, -0.0217703860, -0.1119388640, -0.2252112180, -0.1233354658, -0.1110785231, -0.0412452482, -0.0531424172, 0.0019841092, 0.0253875218, 0.0466468148, 0.1955189854, -0.0771669745, -0.2132912874, 0.0088103358, 0.1488177627, -0.0613194555, 0.0984866470, -0.0793139562, 0.0171551872, -0.0939465687, -0.0604832694, 0.0468609147, 0.0194568988, -0.0405040830, -0.1238718256, -0.2063262165, -0.0752847269, -0.1534707993, -0.0998740569, -0.0459879451, -0.0892814323, 0.1029161140, -0.2339820117, -0.1681295484, 0.1678327769, -0.0954460949, -0.2312980592, 0.0884424895, -0.1109094694, -0.0177951958, 0.0528564043, -0.0440244041, -0.0860196799, -0.0151572097, -0.0810016543, 0.0147025092, -0.0311464779, -0.0039299945, -0.0202653911, 0.0404262915, 0.0228353962, -0.0386696868, -0.0330768526, 0.0847694203, -0.0628406405, -0.0387880467, -0.0066630482, 0.1630299389, 0.1887701899, 0.0304185692, 0.1469956785, 0.0842920020, -0.0390058048, 0.0383518450, 0.0572553053, 0.0055717919, -0.1371293664, -0.0157482214, -0.0434780568, -0.0363107771, -0.0285121724, 0.0089035705, 0.0624398291, -0.0361065194, 0.0392625816, -0.1012807637, -0.0729451999, -0.0912095979, 0.0661130250, -0.0428644307, -0.0209666938, -0.2058070451, -0.0054935236, -0.0680228695, -0.1073274612, -0.1633291841, 0.0488503054, -0.0589770898, -0.2348051965, -0.2163449675, -0.0683989227, -0.0424719937, -0.0466008857, -0.0122413253, 0.0404210836, 0.0262654293, 0.0665277690, -0.1959446222, 0.0716634393, -0.0880711898, -0.0934944004, 0.0406077728, -0.0152582061, 0.1026324108, -0.0250510070, 0.0236783978, -0.0656317323, -0.1314043552, 0.0073649860, 0.0187968109, -0.0737209916, 0.0068399855, -0.1295366436, -0.0486634374, -0.0601262935, -0.0218482651, -0.0335406177, 0.0195851997, 0.0635223016, 0.0145907309, 0.0100525972, 0.1242702529, 0.0095334463, -0.1728112400, 0.1685712337, -0.1988386065, 0.0447009355, 0.0203952957, 0.1443625391, -0.1639046371, 0.0193480235, -0.0120693445, -0.0930274129, -0.1745267510, 0.0880233049, 0.0572714210, -0.1168461591, -0.0506492332, -0.0857868046, -0.0828997865, -0.0974353179, -0.0810777172, -0.0117038973, -0.0784524977, -0.0995193273, 0.0445166938, -0.1298117191, -0.0539859645, -0.1977419406, -0.0638113320, -0.0660751387, 0.0024455914, -0.1345795691, -0.0122796679, -0.2041523606, 0.0244139265, -0.1013940051, 0.0545182601, 0.0753838941, -0.1003147885, 0.0711066574, -0.0992230847, -0.1975940764, -0.0874565989, 0.0603107475, 0.0299447421, -0.1280862093, 0.1437750757, 0.0142846499, 0.1053425968, -0.1558182091, -0.1107631028, -0.1413322985, -0.1366737634, 0.0685064271, -0.2123621851, 0.0130292885, -0.0879222825, 0.0747037083, 0.0335658565, 0.0779162869, 0.0793496892, 0.0538703054, -0.0584469810, -0.0721241236, -0.0313051678, -0.0025133812, -0.1043831632, 0.0830293372, 0.0990050212, 0.0688740164, -0.0177953094, 0.0634790286, -0.2476015538, -0.0419903807, -0.0057994528, -0.0672032684, -0.1517378539, -0.0562750772, 0.0404309891, -0.1099610105, 0.0526531823, -0.0918927565, -0.2024738938, -0.1507309228, -0.3335935473, 0.0039866520, -0.2149504721, 0.0954780579, 0.0100810025, 0.0481768511, 0.0618272610, -0.0524281934, -0.0318792425, -0.0109073352, -0.0654316470, -0.1029506922, -0.0998859927, -0.1084806398, 0.0485491045, -0.0611828044, -0.0783946514, 0.0606486648, 0.0297875088, 0.0295525417, 0.1007082835, 0.0028618476, -0.0483192168, 0.0323024578, -0.0330846794, 0.0540011190, -0.0819800049, -0.0451548733, -0.0428068973, 0.0118476730, 0.0004459506, -0.1197757795, -0.0677662194, 0.0290084053, 0.0089222938, -0.0369446836, -0.0963090733, -0.0550491773, -0.0716166571, -0.0366145819, 0.0771228820, 0.0035800829, 0.0237263329, -0.0865251124, 0.0593291111, 0.0498251393, -0.1641492099, 0.1035582423, -0.2170642912, -0.0348570496, 0.0712391064, -0.1282923818, -0.1071751416, 0.2406030595, 0.0127601810, -0.0823581219, -0.0194949340, -0.1041441113, 0.0980320200, -0.0314946137, -0.0654973388, 0.0195021573, -0.0531527810, -0.0213717707, 0.0391559787, -0.1824652255, 0.0683856905, -0.0265340842, 0.0248999372, -0.0663760304, -0.0501863956, 0.1117766351, 0.1884770840, -0.1802906990, 0.0993524194, -0.1412781477, 0.1347532719, 0.1547277421, -0.0903202519, -0.1877060831, 0.0445350520, 0.0314631350, -0.1133081988, 0.0661276877, -0.0356349498, -0.0363821499, -0.1279189885, -0.1312326938, 0.0837658867, -0.1612615287, 0.0775675476, -0.0800793394, 0.0504486375, -0.1066306755, -0.1660670936, -0.1295949370, -0.1289590597, 0.0547966622, -0.0615692399, 0.0589454584, -0.0926935375, -0.0712085441, 0.0940250158, 0.0397941731, 0.0690630451, -0.0808859766, 0.0447405912, -0.0455991365, -0.0085947514, -0.0187063776, -0.0851459727, 0.0288428329, -0.0405613482, 0.1913608313, 0.0087180957, 0.2304260135, 0.1278892159, 0.0205311067, -0.0569901280, 0.0043037394, 0.0774472877, 0.2104317546, -0.0678848252, 0.0174640380, 0.0352508277, 0.0176162571, 0.0492418669, 0.1165872738, -0.0238180403, 0.0359271392, 0.0696363598, 0.0352151841, -0.0972496644, 0.0430756919, 0.1521157026, 0.0431739688, 0.0693371296, -0.0194770154, 0.0067108870, -0.0239480287, 0.1189044341, 0.0664552823, -0.0926089212, 0.0862284750, 0.0980153829, 0.0869755968, 0.0356309675, 0.0571064614, -0.0752584785, -0.0100190705, -0.0339909419, -0.0183933452, 0.0165452994, 0.0779169500, -0.0292587820, 0.0735679492, 0.0375740230, -0.0331637450, -0.0076113255, -0.0700545013, 0.0317300484, -0.0006129784, 0.0799114704, -0.0099693276, 0.0263048317, 0.0280571524, 0.0441624261, 0.0475042015, 0.0911321044, 0.0986063927, 0.0541658923, 0.0176657289, -0.0867034942, -0.0183538608, 0.1098575369, -0.1859656572, -0.0903337002, -0.2007641643, 0.0306989774, 0.0656622872, -0.0015651041, -0.1383336484, 0.0560062900, 0.0384665206, -0.1227857545, 0.0759009123, -0.0118201859, -0.0037584752, -0.0012030054, 0.1610408127, 0.0986999497, -0.0282299221, -0.0806991532, 0.1333612204, -0.0370722897, 0.0940264985, 0.0162282530, -0.0588595308, -0.0622791834, 0.0816412270, -0.0290303230, 0.0530122370, -0.0629770830, -0.0627944469, -0.0651689246, -0.1510489434, 0.0064557069, -0.0159416199, -0.0594244301, -0.1166994497, -0.1012476608, 0.0276891403, -0.0704890862, -0.1053571850, -0.0168335736, -0.0671734139, -0.0430685021, -0.0616327673, 0.0575405695, -0.0438887365, 0.1023626551, 0.1450679600, -0.0496781915, -0.1764256805, -0.0650276542, 0.0460943915, -0.0811944008, -0.0052382029, -0.0515317470, 0.0459459238, 0.0692309961, 0.1326964349, 0.0830738544, -0.0200400334, -0.0646020100, 0.0160134230, 0.0381463766, -0.1295519322, 0.0421860255, -0.1942588687, -0.1279567480, -0.2339216620, -0.0888643116, 0.1676193178, 0.0147462068, -0.0387964323, -0.1222541630, -0.0569101535, -0.1532370299, 0.1684515029, 0.1205606908, 0.1489153802, 0.0481987372, 0.1385250837, 0.1393826753, -0.0452431552, -0.0269977413, 0.0565602034, 0.0636749268, 0.1049222499, 0.0434320457, 0.0071334830, 0.0021818809, 0.1557228565, -0.0592658482, -0.1176659688, -0.0670293421, 0.0339674316, -0.0066864952, -0.0977102891, 0.0708079562, -0.0926787406, 0.0550606661, -0.0968973041, -0.1150049418, -0.0863475427, 0.0381894261, -0.0991833284, -0.1071657240, -0.0687420368, 0.0172159225, 0.2031893730, -0.0115632750, 0.0698336288, -0.0252597108, 0.1313821673, -0.0782399178, -0.0561568178, -0.0797243193, 0.1269962043, 0.0230267737, 0.1530038267, 0.0876256526, -0.0367066078, 0.0534089319, 0.1360744685, 0.0744163319, -0.0767812133, 0.0226697866, 0.0773093179, -0.0596485846, -0.0661457330, 0.2486110181, -0.0752601027, -0.0936822370, -0.1331852973, 0.0416863635, -0.0091668935, -0.0241768844, 0.0134997778, -0.0307215899, -0.0252752025, -0.1212228984, 0.1715608686, -0.0241033081, 0.0331615359, 0.0083278846, 0.0779274553, 0.0599110387, -0.0620921552, 0.1204362363, 0.0489881709, -0.0475482196, 0.1826530695, -0.0254828054, -0.0598621964, -0.1225072742, 0.1343867034, 0.0765224770, -0.1015349999, -0.0450270176, 0.0355896540, -0.0815432891, -0.0558038764, 0.0610644706, 0.0634687394, -0.0020020467, -0.0612308756, -0.1527746618, 0.0216532871, 0.1141618639, -0.1074260101, 0.0204756111, 0.0947761238, -0.1426753551, -0.0173701141, 0.0285543501, -0.0067050476, 0.0809630305, 0.0531680733, 0.0726051331, -0.0520440489, -0.0548271872, -0.0761241093, 0.0863051414, 0.1487748921, 0.0386682414, 0.0860150978, -0.0276550632, 0.0924654156, -0.0607576557, -0.0272280686, 0.0486968607, -0.0126202768, -0.0593772642, -0.0039198124, 0.0000832424, -0.0769907534, -0.0815731063, -0.0518056564, -0.0425446033, 0.1262720972, -0.2243682444, -0.0730019361, -0.0649735928, -0.0401934981, -0.2331437469, 0.0273765791, -0.0066236155, -0.0554472581, -0.1568458676, -0.1140444875, -0.1147670373, 0.1316465586, -0.0082947444, -0.1517269611, -0.0357949249, 0.0016586641, -0.0095440885, -0.0273265149, -0.0808055028, 0.0651656017, 0.0124507612, -0.1146285012, -0.0542636961, -0.0728351921, 0.0107065421, -0.0632745400, -0.1585438848, -0.0684405938, 0.0349436775, 0.1229240745, -0.0203917138, -0.0107561238, 0.0131938718, 0.0452138409, -0.1110005900, 0.0828731880, -0.1239054278, -0.2190099806, 0.0045007193, -0.0678970963, 0.0921555236, 0.0188389216, -0.0007350304, -0.0282113794, -0.1394776255, 0.0630920827, -0.2133494765, 0.0308617223, 0.1126760319, -0.1115565747, -0.0308163594, -0.0543530807, 0.0424577519, -0.0216614045, 0.0193018783, 0.0695984587, -0.0963361710, -0.0258878917, 0.1829118133, 0.0495533608, -0.0969599783, -0.1931602508, -0.0758263171, 0.0396847539, 0.1893588006, 0.0129146501, -0.0731609017, -0.0127304820, -0.0386131518, -0.0580357462, 0.0069670561, -0.0393682346, 0.0792516023, 0.0111776190, 0.1106471270, 0.0332959443, 0.1107735857, -0.0578838699, 0.1966050416, 0.0456694216, 0.1062392443, 0.1303389519, 0.0989659280, 0.0194960143, 0.0698212832, -0.1688333750, 0.0097517688, 0.0519184135, -0.0742960051, -0.0479617454, -0.0702840984, 0.0069365273, -0.0250144992, -0.0950255021, -0.0467126183, 0.0348997265, -0.0205935482, 0.0858366638, 0.0106425826, 0.1820216030, -0.0696604699, -0.0580082163, 0.0926908553, -0.0751183257, -0.0899067000, -0.0573999174, 0.0851280913, -0.1229406893, -0.0592800565, -0.0097359829, 0.0546165146, -0.0691659823, 0.1063217595, -0.0751325041, -0.0600328371, 0.0096069798, -0.0854923800, 0.0391469821, -0.0535936765, 0.0431982502, -0.0419371091, 0.0400652327, 0.0880037695, -0.1421446353, -0.0532335751, -0.2166197002, -0.1120338961, 0.0014549980, -0.0513592996, -0.0279007684, -0.0652091205, -0.0692521706, -0.0998179764, 0.0436162949, 0.1260392070, 0.0546355397, 0.0035277188, 0.1434435099, -0.0124601275, 0.0832440779, 0.0101470323, 0.1384485662, 0.0358172245, 0.1355606765, 0.0500158407, 0.0359463803, 0.0033503640, 0.1226334721, -0.0248160511, 0.0348753296, -0.1423826516, -0.0042867721, -0.1034774855, -0.0380378067, 0.0282655060, -0.0514609106, -0.0474432260, 0.0427924395, -0.0221018605, -0.0727394819, -0.0461351573, 0.0873278752, 0.0693924949, 0.0788091943, -0.0422570035, 0.0786677524, 0.0237822831, 0.0724103600, 0.0092562195, -0.0264390800, 0.0242688730, 0.0187570602, -0.0182114616, 0.0876257569, -0.0733914748, -0.0050509945, 0.0741771907, -0.0802395567, 0.0162250195, -0.0547068939, 0.0154146031, -0.0956157297, 0.0230464358, 0.0099599538, -0.0202343650, -0.0982118845, -0.0682634041, -0.0446315929, -0.0694660619, 0.1105264127, -0.0593409091, -0.0995867625, -0.0832794309, -0.0107920635, -0.0487960055, -0.2301641405, -0.1662857682, -0.0960452557, 0.0746564269, 0.0529899895, -0.1436353773, -0.1342902929, -0.0095004244, 0.0144565916, 0.0148328580, -0.0627922416, -0.1557621658, -0.0713406578, -0.0009058779, 0.0636709481, -0.0825821236, 0.1061702147, -0.0129958643, -0.0997544155, -0.0902434289, -0.1422802657, -0.0624447316, -0.1193856671, -0.0820522010, -0.0897759944, -0.1216640249, 0.1401081979, -0.1050530225, -0.0387240201, -0.0368895940, -0.0413590558, -0.0676177293, 0.0286137369, 0.0379879624, -0.0940752178, 0.0179962087, 0.0230877139, 0.0146343252, -0.0913134888, -0.1108780652, -0.0101650599, -0.0761153772, -0.0031837050, -0.1481215060, 0.0402459688, 0.1244270876, 0.0033036496, -0.0400364920, -0.0878411382, 0.0127017051, -0.0338659734, 0.0597272813, 0.0279788338, -0.0390767790, -0.0185430143, 0.1543342173, 0.0130119510, -0.0058120121, -0.0542952567, -0.0905652121, 0.1884070635, 0.1728059053, -0.0563576967, 0.0516666323, -0.0265146103, 0.0041689556, 0.1813420653, -0.0226966869, 0.1049179211, 0.0665714145, -0.0432701856, -0.0328318961, 0.0830787569, -0.0330248140, -0.0473813228, 0.0425611176, 0.1531936973, -0.0614099838, -0.0646938682, -0.1195893362, 0.1387297958, 0.0040111458, 0.0454346873, 0.0823414251, -0.0188895427, -0.1419369578, -0.0176591761, 0.1911786050, -0.0544707291, 0.0344864167, -0.0315325074, -0.1169624627, 0.1535453945, -0.0412628837, -0.0053990092, -0.0595606640, 0.1054592878, -0.1562833786, 0.0877538621, 0.0786627382, 0.1039582938, 0.0809971765, 0.0736052170, 0.1554894000, 0.0133242235, 0.0698047951, -0.0120677743, 0.0358648002, 0.0292131156, -0.0172145814, -0.0303346124, -0.0607481971, 0.1607542336, -0.0676654279, -0.1038851589, -0.0359468721, -0.1425293684, -0.0582409948, 0.0135131199, -0.1522516608, -0.0580622144, -0.0908800140, -0.0462869331, -0.0506695434, -0.0800005347, -0.0796280429, -0.1322920620, -0.0666694865, -0.1924679130, -0.1172307506, -0.1078973189, 0.1126536950, -0.0024580776, 0.1247653514, -0.0036497035, -0.0929125547, 0.0126929972, -0.0737170205, 0.0063700080, -0.1053402722, -0.0586896762, -0.0403950475, 0.0108694294, 0.0470411815, 0.1514108330, 0.0579459183, -0.1020815894, -0.0979274660, 0.0807523429, 0.0298365727, 0.0316291638, 0.1960099339, -0.0622500628, 0.0492690392, -0.0946647897, -0.0068141073, 0.0668243766, -0.0569031648, -0.0412990414, -0.0919639170, -0.0202878844, -0.0452723466, 0.0948791131, -0.0518676266, 0.0559892841, 0.0137798730, 0.1107343584, 0.0313963480, 0.0979732573, -0.1134313866, -0.0333438255, 0.0321766026, 0.1551786214, -0.0241233259, -0.0973723009, -0.0215975828, 0.0861471593, 0.0163467433, -0.1173112094, -0.0740374699, -0.0617261752, -0.1743144691, -0.1269970387, 0.0438804068, -0.0683468878, -0.0609470345, -0.1477001607, -0.1599776745, -0.0320111513, 0.1461377889, -0.0644910410, 0.0813058689, -0.0086640669, -0.0084068021, 0.0071125901, 0.0671465844, 0.1038529798, 0.0532697029, 0.0295792278, 0.0528104194, 0.0021662496, -0.1413501203, -0.1165956557, -0.0418633260, 0.0589715727, -0.1006482318, -0.0016002299, -0.0127243446, 0.1692534834, -0.0542853028, 0.0283194818, 0.0814601928, -0.0637065768, -0.0925284848, -0.0711545795, 0.0684244484, 0.0276733544, -0.1531588286, -0.1644653231, 0.0529078543, 0.0990234986, -0.0356103964, -0.0658035278, 0.0798034668, 0.0259426590, 0.0018148276, 0.1283699572, 0.0960892662, 0.1387386471, -0.0158186425, 0.0706734583, 0.1109745130, -0.0930467546, -0.0458094068, 0.0725852400, 0.0778331384, 0.0971974134, -0.1236129105, 0.0406908318, -0.0134746525, 0.0486718826, -0.0820714310, 0.0366588831, -0.0286049526, -0.1181857064, -0.0234994795, -0.0211218223, -0.2246534377, -0.0474401079, -0.0703177452, 0.0716734454, -0.1847724915, -0.1367278546, 0.0704952180, -0.0129647534, -0.0376651734, -0.1251654923, -0.1196589246, -0.1455156207, -0.0084505593, -0.0956597328, -0.0266111642, 0.0187462233, 0.0018904292, -0.1576537639, -0.1616818607, -0.0293037761, -0.2301021516, -0.1037228331, 0.0563929081, -0.0789317042, -0.0680962577, -0.0402523652, 0.1776955724, -0.0211129840, 0.0034859257, 0.1008277461, -0.1028161570, 0.0070566023, 0.0759814307, -0.1112641022, 0.0064217602, -0.1809206307, -0.0012944284, -0.0563106388, 0.1154787317, -0.0459590107, 0.0265518446, -0.0792905465, -0.1716789901, 0.1360602081, 0.0158104450, 0.1896765977, 0.0010995863, 0.1348555535, 0.0021354661, 0.0534295850, 0.0246515293, -0.0378784314, 0.0581467710, 0.1988606155, -0.1070186645, 0.0517020971, -0.0355185196, 0.1242137700, 0.0046913093, -0.1436624527, -0.0920048058, 0.0413084514, 0.0447322540, -0.1785193682, -0.1439410001, -0.1298629642, 0.0846279114, 0.0645679906, -0.0097381892, -0.1434000582, -0.1257949769, 0.0957426727, -0.0150363278, -0.0329017155, -0.0831046402, -0.0321631283, -0.1560095996, -0.1121385470, -0.0875198990, -0.0367865078, -0.0479009189, -0.1518561542, -0.0089649009, 0.0608396046, -0.1579022259, -0.0222817305, 0.1071400270, -0.0929469541, 0.0377724767, -0.0255389288, 0.0713804066, -0.1245978102, 0.0129430043, -0.0368355997, 0.0152408853, -0.0064067640, 0.1271581501, -0.0875373036, -0.1525610089, -0.1139007807, -0.1556501687, -0.0323728211, 0.1164545640, -0.1328377128, -0.0141885644, 0.0418893769, -0.0586851686, -0.0849184245, 0.0151251992, 0.0413895473, 0.0386933163, -0.0706123710, 0.1324054152, -0.1262567490, -0.0933108330, 0.0117112184, -0.0683608651, 0.0012504262, 0.0542808920, -0.0000485510, -0.0521687269, 0.1542654932, -0.0828268081, 0.0497129224, -0.0601610504, -0.0937483683, 0.0222621672, 0.0386638492, -0.1079017445, -0.1255292147, -0.0309672579, 0.0935830548, -0.1296464503, -0.0708956346, -0.0547281131, -0.0922672600, 0.0837705508, -0.0004859494, -0.0523890443, -0.1236984879, -0.0847034901, -0.0391275585, -0.1192501634, -0.0685465932, -0.0752146542, -0.0619953237, -0.2582798898, -0.0789061561, -0.0972272307, 0.0377396904, 0.1670432538, -0.0298366360, 0.0005231078, -0.0831143484, 0.0059342426, -0.1239300892, 0.0463397466, -0.2179076821, -0.0210978948, 0.0687589347, -0.0946312323, -0.0194096398, -0.0611166209, -0.1451989561, 0.0197249204, -0.0920303762, -0.1040328667, 0.0595878176, -0.0791540369, -0.0144907599, -0.1245198548, 0.0434707776, 0.0043736291, -0.0579462945, 0.1158990189, -0.0073120990, -0.0483215190, 0.0957942978, 0.1213768423, -0.1374561489, 0.0361763351, -0.1721318662, -0.0223427359, -0.0423117317, -0.0646174476, -0.0278431121, -0.0732031763, -0.0823253989, -0.1015950143, -0.0462131351, 0.0782859847, -0.0261241943, -0.1428493261, -0.0507808477, -0.1908320636, -0.0877304822, -0.0841950327, -0.0321687907, -0.0746299624, 0.0551168583, 0.0688902810, -0.2526101768, -0.1687547714, -0.1819209754, -0.0519230925, -0.1261726320, -0.1562761068, -0.1220125556, -0.0343749486, -0.1005575061, -0.0584508777, -0.1483398825, -0.2378091365, -0.0493221506, 0.0755277947, 0.0276072416, -0.0500106774, 0.0476555564, 0.0242915675, -0.1068763584, -0.0358937085, -0.2404818237, 0.0180302337, 0.1309272349, -0.0342122465, -0.1085419804, -0.0385498814, 0.0749123171, 0.0499662310, -0.0110579319, 0.0437622778, 0.0498493612, -0.1030637920, 0.1212428138, 0.0529337190, -0.0487288423, -0.0090178885, -0.0856203586, -0.0383006968, -0.0930671170, 0.0755560994, -0.0326262191, -0.0329126455, -0.0883387998, 0.0771678612, -0.0059065078, -0.0285097491, 0.0401981995, -0.0611564703, -0.1138945892, 0.0243861265, -0.0683358982, -0.1044464484, 0.1037053913, 0.0350102857, 0.0019461523, 0.1467587650, -0.0421845354, -0.0634322613, -0.2404903620, -0.0000206982, 0.0827454701, 0.1133271009, 0.0184265003, -0.1103032082, 0.0654877797, -0.1010614559, 0.1528909653, -0.0585022233, 0.1822591722, -0.0821308196, -0.0350410789, 0.1513461173, -0.1294850707, 0.0575792007, 0.0794930756, 0.0606907830, 0.2166260332, 0.0429123528, -0.0924035981, -0.1194064096, 0.1495824456, 0.0249771383, 0.0067639924, 0.0456770360, -0.0497911870, -0.0781293586, -0.1791072488, -0.1831928045, 0.0496056937, -0.0467774980, 0.0191149823, -0.1038464978, -0.1714746952, -0.0530711971, -0.0147768697, -0.0374998562, 0.1193136871, -0.1720943898, -0.0225863028, 0.1053601354, 0.0185138881, 0.0252547506, 0.0100562964, -0.0166552085, -0.0786847994, 0.0397686362, 0.0506322570, -0.0466219187, -0.0076038614, -0.0933560058, 0.0553622842, -0.0989099517, 0.0418187156, -0.0099944472, -0.0180174485, -0.0195236783, 0.0498103648, -0.0714520738, -0.0459133349, 0.0342363343, -0.0077642063, -0.0666230768, -0.0749689713, 0.0536605380, 0.0853728428, -0.0757708624, 0.1723788977, -0.0784224942, 0.0125398897, 0.0110248979, 0.0310634710, -0.0525125116, 0.1020882130, 0.0036432459, -0.0363065973, 0.0476338416, -0.0520579070, -0.1095996797, 0.0287136491, -0.0368235894, 0.0934353024, 0.0622299239, -0.1168630421, 0.0302735828, -0.0404058807, -0.1201801673, -0.0738322586, 0.0594073161, -0.0894799903, -0.1821746826, -0.1259176880, -0.0566583201, -0.1373918951, 0.0583460070, -0.0372496396, -0.0537947007, 0.0139896432, -0.0549145564, 0.0080121728, -0.0619505160, -0.0558155812, 0.0669802725, -0.0604869388, 0.0427822396, 0.0836474150, 0.0483828783, -0.0628049895, 0.0084272819, 0.0400403962, 0.0162253361, 0.0930848420, 0.0223436709, -0.0298851226, 0.0298968516, -0.0070200483, 0.0288157854, 0.0961296409, 0.0108464146, 0.0916766375, -0.1331187487, 0.1657729000, 0.1194590703, 0.1140568331, 0.0705537498, 0.1270739287, 0.0288841240, -0.0374382809, 0.0644374490, 0.0019313802, 0.0130086085, 0.0308497138, 0.0111490926, 0.1143135056, -0.0623939373, 0.0146158310, -0.0835662559, 0.1189837456, -0.0012502564, 0.1461305320, 0.0669341013, -0.0471219011, 0.0819163918, 0.1388953477, -0.0041627116, 0.0844828337, -0.0476319492, -0.0796808600, -0.0896734446, 0.0674740672, -0.0279089082, 0.0929142460, 0.0658817217, 0.0619021542, -0.1851032227, -0.1551624686, -0.0114553748, -0.0116723040, -0.1401261538, -0.0462567210, -0.0887421221, 0.0548572242, -0.0376625098, -0.0474058166, 0.0206192099, -0.0376038030, 0.0393914096, 0.0247647222, 0.0709613115, 0.0509589799, 0.0255720243, -0.0063627209, -0.1301299334, -0.2282218337, -0.0296033174, 0.0777401254, -0.1374446750, -0.0289941020, 0.0997484326, 0.0779570937, -0.0166088045, -0.0140197873, 0.0218585543, -0.0910688415, -0.0511943512, -0.1160720140, 0.1088059396, -0.0388265923, 0.0622519031, 0.0698028728, -0.0052809552, 0.0211668052, -0.0026410504, -0.0519131273, -0.0047983420, -0.0735886097, -0.0209634341, 0.0018698238, -0.1267527342, 0.0860044360, -0.0301342029, 0.0421000607, 0.1065941826, 0.1998792291, 0.0226584133, -0.0788845941, 0.0516829304, 0.0913542062, -0.0040586493, -0.0000498915, 0.0267030373, 0.0881754681, -0.0021574718, 0.0507582463, -0.1190729067, 0.1824619025, 0.0042538564, -0.0061602578, -0.0972895473, -0.1522610039, -0.0939279720, -0.0701638982, 0.1423790753, 0.0824113861, -0.1039963141, -0.0630645975, -0.1324058622, -0.0933841318, 0.0405015722, 0.0079577714, -0.0450295061, 0.0268745665, -0.1137281060, 0.0023233078, -0.0498951785, 0.1547357738, 0.0417983755, 0.0262589119, 0.1056092754, 0.0988848209, -0.1026879549, 0.0851530358, 0.0544151515, -0.0421237797, -0.0269775055, 0.0451686792, -0.0328636691, 0.0748645812, -0.1630566120, -0.0203784220, -0.1701385081, -0.0662697852, -0.1050675735, -0.1459338069, 0.0750535205, 0.0248069428, 0.0326728038, -0.1326224208, -0.1152265668, -0.0272774566, 0.0215152763, 0.1423325837, 0.0168195739, -0.0553397350, -0.0781785250, 0.0184770636, 0.0639426336, 0.0088367881, 0.0489660092, -0.1169537827, 0.1829641312, 0.1341161877, -0.1054393053, -0.0477164611, 0.0495887771, -0.0218246896, -0.0858294144, -0.1015232205, -0.0011560640, -0.0193278268, -0.0555731207, -0.0104607558, -0.0751803219, -0.0138285337, 0.0686386079, -0.0965010077, 0.0277776234, -0.1172845289, -0.0156022841, 0.0301207434, 0.0652388483, 0.0117618321, 0.0426436327, 0.0696719438, -0.1222820655, 0.0137823075, -0.0436366461, -0.0800707564, -0.0834364817, 0.0622709356, 0.0625467226, -0.0594207123, 0.0339032561, 0.1499216855, 0.1070087925, 0.0178365670, -0.0218694359, 0.1480513960, 0.0535412394, 0.0996507332, -0.0790344477, -0.0699768737, 0.0166373476, 0.0692415535, -0.1355287284, 0.0075776572, -0.1068182439, 0.0047030994, -0.2302489430, 0.0511141270, -0.1180461869, 0.0713992715, -0.1248851418, -0.1196116433, -0.0856381357, 0.1490523368, -0.1651911438, 0.0087058628, 0.0077193235, -0.0366772711, -0.0485471934, -0.0635907724, 0.0326711275, -0.0483104624, -0.1196220741, -0.0222975910, -0.1190338284, -0.0395257026, -0.0258206930, 0.1336563528, -0.0437221713, -0.0832509995, -0.0205516350, -0.0267332550, -0.0161396191, -0.0925329775, 0.1054090559, 0.0027108546, -0.2347549945, -0.0071508610, 0.1436321288, -0.2639192343, -0.1284780651, -0.1685201675, -0.0544683002, -0.1322840303, -0.0430200994, 0.1250826120, -0.0454729646, -0.1327385008, -0.1650357842, 0.0502632819, 0.0156398639, 0.1085745320, -0.0332031138, -0.0204815231, -0.1372022778, -0.0690165162, -0.1484801471, -0.0448289849, -0.0676434487, 0.0629492477, 0.0025151547, -0.0886139795, 0.0157160852, -0.0475125723, -0.1422203779, -0.0643691048, -0.0907658562, -0.2027821988, 0.0414554514, 0.0165666249, 0.0059091556, 0.0305903815, -0.0305084586, 0.0827054754, -0.1077141687, -0.0016571698, -0.0870992914, -0.0160437208, -0.1415554881, -0.0336694568, 0.0656449199, -0.0192126557, -0.0213893987, -0.0919435397, 0.0968577266, 0.0085486686, 0.2058727145, -0.1079181880, 0.0493559130, -0.0201406386, -0.0625397563, 0.1400541663, 0.1618580818, 0.1074096933, -0.1276006848, -0.0722727254, 0.0394459888, 0.0857768208, -0.0582805611, -0.0875398740, 0.0455129780, -0.0098495334, 0.0020786601, 0.0040677483, 0.0178642981, -0.0695159584, -0.0037190684, -0.0028652833, 0.0038187185, 0.0654968917, -0.0191233270, -0.0059066657, 0.1301653981, 0.0280159600, 0.0059742127, -0.0566939041, 0.0101525262, -0.0631797239, -0.0997076854, -0.0024549740, -0.0625522509, 0.1695699096, 0.0531910025, -0.0637890622, 0.0396794826, 0.0681034029, 0.0899425223, -0.0156089831, -0.1402712315, 0.0415845364, 0.0774570405, 0.1192945167, 0.0931598917, -0.1103352234, 0.1055313796, -0.0732285008, -0.0582636297, -0.0326381512, -0.1155741960, -0.1059150100, -0.0776040778, -0.0141440807, 0.0501699932, -0.0178370792, -0.0194215365, 0.0821892098, -0.0526129827, 0.0517585725, 0.0860774368, -0.0187071636, 0.0564897880, 0.1567226201, -0.0241785105, 0.0749046206, 0.0491974205, 0.1122576371, 0.0397686400, 0.1001760140, -0.0034468512, 0.1121105701, 0.0421698913, 0.0958546251, -0.0074122418, -0.0544272065, -0.0372974910, 0.0720163137, 0.0969985053, -0.0844587237, -0.0283919573, -0.0651783869, 0.0979651958, -0.0238609146, -0.0836165845, 0.0195785314, -0.0845854282, -0.0209459011, 0.0925884247, -0.0387313105, 0.0744779557, 0.0057541067, 0.0825444609, -0.0627848282, -0.0536817648, -0.0026574805, 0.1041570604, 0.0899625719, 0.0397172347, -0.0361077785, 0.0401117764, -0.0561812520, -0.0644825920, -0.0379822440, -0.0481588654, 0.0067851134, -0.0623542294, -0.0495135933, -0.2220517993, 0.0309535302, -0.0349856541, -0.0581530519, -0.1231234595, -0.1460881233, -0.0543511026, -0.0944442824, 0.0233457163, -0.0449347235, -0.1460389793, -0.2345325798, 0.0725639015, 0.1006252095, -0.0192285795, 0.1505042464, -0.0243860465, -0.1215230301, -0.0140735637, -0.0636290237, -0.1294091791, 0.0175202750, -0.0679968446, -0.0940680057, -0.1946620345, -0.1302495450, -0.0029584169, 0.0051845489, -0.0555026755, -0.0143286521, -0.1110379025, -0.0418832973, -0.1273518503, -0.0677214339, 0.1377292871, -0.0734351799, -0.1296326816, -0.0552236326, 0.0114805140, -0.1367145330, -0.0955440998, -0.0334262885, -0.0186205488, -0.0726494864, 0.0300950091, -0.0805677772, 0.0892707333, 0.0608622693, 0.0220205449, -0.1229411811, -0.0604422279, 0.1101611406, -0.1498430073, 0.0297323931, -0.0166627523, -0.0767726451, -0.1520356536, -0.0215105843, 0.0602458566, 0.0557285473, 0.0093255946, 0.0356893167, -0.1375003010, -0.1528208554, -0.0467844792, 0.0001784375, 0.0243327580, -0.0631456375, 0.0252880882, -0.0032743360, -0.1348306984, -0.0353072546, -0.0765857548, -0.0008845468, -0.0342300422, 0.0335777625, 0.1308574975, -0.0697959661, -0.0334128216, 0.0157276280, 0.0192047469, -0.0777924284, 0.1285108030, 0.1235357001, -0.0507112741, -0.0140712792, 0.0033941371, 0.0775846690, -0.0279724505, 0.0300801136, -0.0328957140, 0.0038888138, -0.0825034305, 0.0007667327, -0.0740974098, -0.1776848882, -0.0103885056, -0.0184093695, -0.0798875019, -0.1099495217, -0.0469867177, -0.0327561349, -0.0280598551, 0.0753174201, -0.0058850991, 0.1543610096, -0.1294265985, 0.0315439738, 0.1204424277, 0.1053637564, -0.1001490131, -0.0849004313, -0.0178691056, -0.1442582011, 0.2025361657, 0.1405025274, 0.1024584100, 0.0973282382, -0.0081735272, -0.0464387015, -0.0249724761, 0.0275137182, -0.0760853142, -0.1073275357, -0.0699594244, 0.0086907661, -0.1527826637, 0.0076232315, 0.0036586055, 0.0359237865, -0.0366376117, 0.0769347176, -0.1275838315, -0.0284136552, -0.1871291250, 0.0070136269, 0.0255943704, -0.1683332622, -0.1533495337, -0.0646380559, -0.0036661162, 0.0255369823, -0.0886508673, -0.1064561754, -0.1327304244, -0.1872236133, -0.0669774637, -0.0649010539, -0.0069636726, 0.0320535563, 0.0508755296, 0.1035659760, -0.0583605841, 0.0455991589, -0.0333709829, -0.1845327169, 0.0424252115, -0.0558788702, 0.0788984075, -0.1250261068, 0.0264308155, 0.0560605600, 0.0265868753, 0.0833832175, 0.0699049085, -0.1038430184, -0.0744967982, 0.0663652495, -0.0384220965, 0.0018917634, -0.0561297350, -0.0583810024, 0.0528950803, 0.0800747052, -0.0459471047, -0.0429192856, 0.0224059206, -0.1030621752, 0.1648794711, -0.0066995951, 0.0159091745, 0.0603977963, 0.0255355872, -0.0805867985, 0.0192002375, 0.0086326143, -0.2199773490, -0.0156918336, 0.0400651693, -0.1515977085, -0.0035766358, 0.0496788323, 0.0533048734, -0.0110831819, -0.0502641350, -0.1034270152, -0.0720650405, -0.0260371100, -0.0565040968, -0.0268934052, -0.0853342116, 0.1352540851, -0.0489424318, 0.0654229447, 0.1096714586, 0.1446856409, 0.0877234265, 0.1062076241, 0.1233719215, 0.0031069540, -0.0234403908, 0.1929699630, -0.0158371255, -0.0028916569, -0.0927999169, -0.0041819732, -0.0257166885, 0.0207974855, -0.0189228579, -0.0310677681, 0.0405517556, -0.0164403692, -0.1325463951, -0.0730062425, 0.1545715630, -0.1075423658, 0.0105907572, 0.0042448505, -0.0366103575, -0.0315551981, 0.0344830826, -0.0000483051, -0.0302313287, -0.0077660740, -0.1361197680, 0.1770190001, 0.0530839004, -0.0113071138, 0.0620286167, 0.1016702279, 0.0655378476, 0.0520661324, 0.1723107696, 0.1537438035, -0.0012671314, -0.0430687070, -0.0233047698, 0.0341865346, -0.0554701276, 0.0266864821, -0.1272558570, -0.0192108732, 0.0722685680, -0.1279112548, -0.1121713966, -0.1237603053, -0.1572239250, 0.0415055081, 0.0499057807, -0.1139696538, 0.0596880279, -0.1363436282, -0.0365846045, 0.0094197933, -0.0809164941, 0.0267718136, -0.0330353640, -0.0720287412, -0.0465385094, -0.0753021911, 0.0109185008, 0.0884783268, -0.2073707879, -0.0094899768, -0.1880583167, -0.0068657529, -0.1643331349, -0.1122987419, 0.0316173621, -0.1224851385, 0.0124773365, -0.0814229324, -0.0127435084, 0.1230519190, -0.0111109726, -0.0453517772, 0.0029389595, -0.1080859974, 0.0484732687, -0.0136852283, 0.0525666960, -0.0257283431, 0.0866728649, -0.0071198274, -0.1372454017, -0.0140605727, -0.1152248234, 0.1189409047, -0.0793928504, -0.0512024015, 0.0029947774, -0.0189976878, -0.0614272095, 0.1009149998, 0.0984820500, -0.0067683426, 0.1080978513, 0.1775739789, -0.0538345575, 0.0585525893, 0.0165341515, 0.0397923775, 0.0096509140, -0.0265009888, -0.1688637733, 0.0659218282, 0.0006151961, -0.1273763627, -0.0111573646, -0.0601286553, -0.1569838524, 0.0352101699, 0.0169369169, -0.0926202014, -0.0168278944, -0.2795551717, 0.0162313767, -0.0712153167, -0.0088669872, 0.0325022303, -0.1464300007, -0.1798262447, -0.1746730059, -0.0276509095, 0.1092204303, 0.0218459275, -0.1778032929, -0.0668336749, -0.1348310858, 0.1030674502, -0.1606398672, -0.1190104708, 0.0393490419, 0.0055682161, -0.0866416618, -0.1559144855, -0.0991654247, 0.1145544574, -0.1157557219, -0.0137075158, 0.0465653762, -0.0239215381, -0.0159603413, -0.0635033622, -0.0360054411, -0.0679071769, -0.0691908449, -0.0465290621, 0.0269070044, -0.0609706566, -0.1284611076, 0.0442140959, 0.0633457974, -0.1496019959, -0.0313693844, -0.0944118351, 0.1088105664, -0.0802508816, -0.0009335665, -0.1707821637, 0.0041659935, -0.0029723090, -0.0697566718, -0.0474238247, -0.0119115273, -0.0268043261, 0.0994421840, -0.0216484964, 0.0054852697, -0.0900367722, -0.0618926547, -0.0350414626, 0.0306032319, -0.0193891395, -0.0844230726, 0.0674513876, -0.1575719118, 0.0686101019, -0.0574202985, -0.0303870235, -0.0293352939, -0.0143343424, -0.1328819990, -0.0939308107, -0.0912159532, 0.0265990291, -0.1387199908, 0.0026565078, -0.1539370418, -0.0457428768, -0.1833420247, -0.0142374663, -0.1529562175, -0.0576308928, -0.0450059585, -0.0266644023, 0.1031176969, -0.0889853612, 0.0037492199, -0.1895424277, 0.0506049842, -0.0470590591, -0.0275983606, -0.0090797134, 0.0352509469, 0.1050515324, -0.0899982601, -0.1419783831, -0.1821247488, -0.0654797330, 0.0428242534, -0.0078966869, -0.1020691842, -0.1020265371, -0.0084107704, -0.0073644808, -0.0820294395, 0.0128412480, 0.1270921975, -0.1166794747, -0.0839519724, -0.0913461447, 0.0507665016, -0.1555671990, -0.2121123224, -0.0530028492, -0.1422014534, -0.0370231159, 0.0668189973, 0.0642472133, 0.1692137420, 0.0617743842, -0.0106916595, -0.0259468071, 0.0908032060, -0.0880740955, 0.0839222297, -0.1207773536, -0.1715109348, -0.0174522325, -0.0721826553, -0.1319690198, -0.0512344725, 0.0723671019, -0.0984839648, -0.1265241057, -0.0084984796, -0.0116347522, -0.2317890823, -0.1926448643, -0.0258527566, -0.1356753111, -0.1115315035, -0.0706546307, -0.0095776636, -0.1138629392, -0.1102680862, 0.0368528105, -0.2885736823, -0.1229554340, 0.0184455346, -0.0024133958, -0.0639239773, -0.0602950156, -0.0134130213, -0.0060678395, -0.0666011870, -0.0786023140, -0.1199669689, -0.0203377549, -0.0185137428, 0.0347469151, -0.0892191902, -0.0114022782, -0.0254146941, 0.0379361846, 0.0884117484, 0.0088069569, -0.0429776423, 0.1283500195, -0.0986431241, -0.0616976172, -0.0416827723, -0.0669658035, -0.0599921383, 0.0573116615, -0.0644043460, -0.1274720579, -0.0319516808, -0.0539095663, 0.0239655562, -0.0988771245, -0.0014734109, -0.0668948889, 0.0325825997, 0.0533597432, 0.0270824116, -0.0162068885, -0.0411214046, -0.0443366654, 0.0353742242, -0.0473784097, 0.1162429526, 0.0043861563, -0.0401704460, -0.1062470376, -0.0276180189, 0.0035683934, -0.0179095473, 0.1010010540, 0.0454420336, 0.0611623228, -0.0365928300, -0.0060524903, 0.0060132486, 0.1003850624, 0.0206018332, -0.0325928032, 0.1032838225, -0.0349852256, 0.1799747944, 0.0135939904, 0.1783877313, 0.1270536035, 0.0015187040, -0.0569707341, -0.1412369907, 0.0116069894, -0.1516925544, -0.0201704074, 0.0482513011, -0.1076168343, -0.1098680049, -0.1201974601, -0.0803268775, -0.0082374159, -0.2266696095, -0.0725788176, 0.0092218984, -0.0276776757, -0.1065177470, -0.0407955498, 0.0346066207, 0.0790762603, -0.1615341753, -0.1922740638, 0.0975181460, -0.0635945052, -0.0657454282, -0.1072680280, 0.0189839732, -0.1656291187, -0.3114567399, -0.0568898059, -0.0633253083, -0.1385462582, 0.0223260280, 0.1702314615, -0.0094391601, 0.0775578767, -0.0361244306, 0.0176232606, 0.0325977243, -0.0085443519, 0.0508950688, -0.1313059330, -0.0522954762, -0.0768404603, -0.0477732457, -0.0519567244, -0.0115347253, -0.0392756164, 0.0717693567, -0.1579881459, -0.0109929778, 0.0503524058, 0.0083822999, -0.0944866017, -0.0015228820, -0.0427096561, 0.0867046192, 0.0627591237, -0.0323169641, -0.0808491111, -0.0704867542, 0.0600926504, -0.0813525692, -0.1007525995, 0.0565275997, 0.1109498441, 0.0351104066, 0.1199832782, -0.0177840367, -0.0415632389, -0.1089746580, -0.0024757704, -0.1279357970, -0.0312392041, 0.0066644526, 0.0133657819, -0.0143857822, -0.1000489965, -0.1171804219, 0.0713144019, 0.0842019916, -0.0171540659, -0.0915648565, 0.0179844052, 0.0108288834, 0.0140557894, -0.0343951546, -0.0916370004, -0.1259998530, 0.0894377083, -0.0887610987, -0.0632902682, -0.0143911177, 0.0007962598, 0.0413129292, -0.0794017315, 0.0375962816, 0.0690974146, -0.0417987406, 0.0862784237, 0.1665741056, -0.0244373009, 0.0123294005, -0.0287222248, 0.0884190723, 0.1408825219, -0.1395511925, 0.0389777012, 0.0491725020, -0.0056841648, 0.0552256666, -0.1259116232, -0.0253532007, -0.1438064277, -0.1132436469, 0.1743367314, 0.1631361693, -0.0833460093, -0.0735949948, -0.1927847862, 0.0321932994, -0.0914666131, -0.1712913364, -0.0732464492, -0.0105564473, -0.1056644320, -0.0260985661, -0.0684311837, -0.0349867195, 0.0174107887, 0.0138495667, -0.1379703432, -0.0282284506, -0.0148883341, 0.0307842903, -0.0392309614, -0.0055259191, 0.0531248227, -0.0779033601, -0.0393706188, -0.0167167149, 0.0082303695, 0.0432779118, 0.0503835119, -0.1644126475, 0.0030588282, -0.0278983694, 0.0743035749, 0.0108825229, 0.1044006348, -0.0857647583, -0.0011042664, 0.0628005862, -0.0547492914, -0.1803532690, -0.0075943246, -0.2036518753, 0.0879458860, 0.0133809652, 0.0013904071, 0.0013322090, 0.0960725099, -0.0400937125, -0.1525096893, -0.0847888514, 0.0050800252, -0.0077279564, 0.0065780180, 0.0902088061, -0.0696628913, -0.1847091019, 0.0427413546, -0.0883532166, 0.1309222579, 0.0425159521, -0.0579243302, -0.0886178464, 0.0605118722, -0.1674066931, 0.0771947727, 0.1244429871, -0.1742302030, -0.1559855193, -0.0635050982, 0.0991262719, 0.0126857692, -0.1358784735, -0.1589303911, 0.0467546247, 0.0164364520, -0.1603717804, -0.0988715291, -0.0410302691, -0.0643660948, -0.1052948609, -0.0865747705, 0.0055519720, 0.1601027697, -0.0003933264, -0.1734624654, 0.0327091664, 0.0448470451, -0.0036070158, -0.0640303269, 0.0883124322, 0.1359112710, -0.0200618356, -0.0399639420, -0.1240791529, -0.0869004577, 0.0502429307, 0.1427589506, 0.0147383297, -0.1133411825, -0.1613104939, -0.0386209972, 0.0033256689, -0.0103755957, 0.0525923558, -0.0953160375, -0.0936834663, -0.1274112612, -0.1399695873, 0.0523919351, -0.0400094204, -0.1669297814, 0.0299611874, -0.1006807536, -0.0101312185, 0.0308105256, 0.0239325017, -0.0381759591, -0.0040842635, -0.0579481907, -0.0633749887, -0.0544788204, -0.0343549922, 0.0541195981, -0.1269726157, 0.1022604704, 0.0386053510, 0.0756127536, 0.0581013076, 0.0187534224, 0.1716193259, -0.0926204547, -0.0281687528, 0.0271514691, -0.0184066501, -0.0388759784, -0.1186195686, -0.0999884084, -0.0176596679, -0.1083904952, -0.1496470273, -0.0694054589, -0.0992404372, -0.0614622310, 0.0649900958, -0.0804103687, -0.0683450773, -0.0848681182, -0.0831390172, 0.0010098573, 0.1155013219, 0.1331118047, -0.1569420248, -0.0890723914, -0.0109872082, -0.0362546332, -0.0031181318, -0.0881592482, -0.1820329726, -0.0956625119, -0.1334261000, -0.0199614018, -0.0146348681, -0.1543438733, 0.0385551900, -0.1648115665, -0.0999926403, -0.0177012868, -0.0615228675, -0.1980612576, 0.0483740941, -0.0167877413, -0.1005652100, -0.0194546971, -0.0639525875, 0.0221420638, 0.0676115230, -0.0887187719, 0.0773319006, -0.0722941533, -0.1330821663, -0.0673051253, 0.0031570161, 0.0052575259, -0.3656880856, -0.0173322447, -0.1511076093, 0.0369701944, -0.0471968651, -0.0789499804, -0.2217236608, -0.0250709653, -0.0810629576, 0.1789386421, -0.0827715024, -0.1113780662, 0.0761967897, -0.1206612810, -0.0467268489, -0.0171799995, -0.0472146906, -0.1357381791, -0.1400907040, -0.1814332008, -0.2877923250, 0.0023855611, 0.0507706180, -0.0090493830, -0.0679821745, -0.2289464027, -0.1904007792, 0.0254257582, 0.0311460942, 0.0810525566, -0.1015477702, -0.1420075744, -0.1711317897, 0.0119104497, 0.0675718337, -0.2725000083, 0.0091737257, 0.1166432351, 0.0566585697, -0.0222737808, 0.0004545094, -0.0087065119, -0.0734502971, -0.0696893036, -0.0412035547, -0.0654892251, -0.0391597487, -0.1076798663, -0.1124556214, -0.1340337396, 0.0174810365, -0.0045931106, -0.0476835705, -0.0934009552, -0.0320812911, -0.1083278582, -0.0836990103, -0.1263207346, -0.0274311528, -0.0033451645, -0.0209051054, 0.0518278964, 0.0064331507, -0.0287599843, -0.1176936254, 0.0278193168, -0.0843891129, 0.0848708525, 0.0119226249, -0.0428489000, -0.1068443656, -0.0266363900, 0.0485873856, 0.0975625664, -0.0223709736, 0.0700324550, 0.0024953755, 0.0593580678, -0.1506337374, 0.0189313963, -0.1553627849, -0.0298312064, 0.0768842921, 0.0244413912, -0.1216823384, -0.1194127128, 0.0603338853, -0.0048031788, -0.0676392764, -0.1557164341, -0.0518229455, -0.1481138468, -0.0869492143, 0.1270860136, 0.0536395162, 0.2053035796, 0.0397622511, -0.0600677431, 0.0415459536, 0.1514493525, -0.0857582837, 0.0147756254, -0.1130948067, -0.0442135893, -0.1175601184, -0.0737650022, 0.0691621155, -0.1003286391, 0.0054932432, 0.0316876061, -0.1410325766, -0.0295160078, -0.0074769119, -0.1164335012, -0.0422967412, 0.0849606544, 0.1076865867, -0.0310015026, -0.0754821599, 0.0744181126, 0.0041414192, 0.0102842059, 0.0598402247, 0.0027195988, -0.1357477158, 0.0504460037, 0.1120378748, -0.0433705710, -0.1738396287, 0.0220865309, -0.0582258143, 0.2050778121, 0.0601394773, -0.0968410224, -0.1373004317, -0.0521447770, 0.0287091769, 0.0395030975, 0.1304982752, -0.1477331370, -0.1477894783, -0.1145344302, 0.0417217463, -0.0731244609, 0.0167037006, -0.1631453931, 0.0794703811, 0.0431233048, -0.2186214179, -0.0725434646, -0.0305724367, -0.0429472104, 0.0549548864, -0.1921923459, -0.1005548239, 0.0981973410, 0.0301548224, -0.0234396290, 0.0857532173, 0.1312741786, 0.0398800671, 0.0196682774, 0.0230258480, -0.0027519101, 0.0804087892, -0.0334902517, 0.0916973203, 0.0812874213, 0.0431712344, -0.0426464193, 0.0084587792, 0.0927353129, -0.0649818331, 0.0301442631, 0.0694862530, -0.1031692103, -0.0819611400, 0.0131321670, -0.0068415091, 0.0369751975, -0.0678604916, 0.0833999217, 0.0480190441, 0.0836265832, -0.0623638593, -0.0817447156, 0.0667175427, 0.0033361192, 0.0516792499, 0.0577695630, -0.0308618452, 0.0918143615, -0.2145516276, 0.0227480587, 0.1072888896, -0.2282616347, -0.1303792149, -0.0742626786, -0.0940799415, -0.0761543661, 0.0229819957, -0.0410864167, -0.0381963626, -0.1629790962, -0.0667857081, -0.0962442458, 0.0533916838, 0.1444556415, -0.2078551203, -0.1607513577, -0.0405614637, -0.0574123897, -0.2011398524, -0.0373979099, 0.0382298008, -0.1136440635, -0.0271951947, -0.1201403588, -0.1135993451, 0.0768176690, 0.0046934155, -0.0538855046, -0.0812285170, -0.0411823802, -0.2061234117, -0.0439951792, 0.0626096427, -0.1472794861, 0.0312588215, -0.1006679386, 0.0670060888, -0.0880224183, -0.1000677198, -0.0112304017, -0.1313091516, 0.0362210758, -0.0664560646, 0.0607184991, 0.0113040768, -0.0466704257, -0.0965455845, -0.2355626673, -0.0982416123, 0.0256268587, -0.0212841295, -0.0941039324, 0.0453726128, -0.0101113906, -0.1352141798, -0.0261788927, 0.0015588205, 0.0501525067, 0.0125705851, -0.1265756041, -0.0686734542, 0.0393536389, -0.1464459449, -0.1216826886, -0.1348321289, 0.0463104732, 0.0444075316, -0.1628820598, -0.1944773793, 0.0321436338, -0.0862018242, 0.1627642065, -0.0131499171, -0.1821662486, 0.1401186138, 0.0334337130, -0.0530536622, 0.0371439084, -0.0061418791, -0.0781228691, 0.0804862976, -0.0563746691, -0.1776497364, -0.1522618383, -0.1080061793, -0.0602364577, 0.1082817987, 0.0357618146, 0.0950691700, 0.0336153507, -0.0702598095, -0.0717186779, 0.1149421185, 0.2101325989, -0.1650824696, 0.0805439055, -0.1093610376, 0.0157249700, 0.0422373116, -0.1176129505, -0.1231388077, 0.0906893387, -0.0108427443, 0.1409786493, 0.0049320124, -0.0619363263, 0.0507690869, -0.0346996486, -0.0599378459, -0.0079500768, -0.0627899915, -0.1214358658, 0.0789749250, 0.0233318359, -0.1038070247, -0.0387315974, -0.0688181296, -0.0873679146, -0.1111652553, 0.0071372068, 0.0549481958, -0.0023840184, 0.0556301288, 0.1147743240, 0.1557669640, 0.1637570113, -0.1967009008, 0.0456608497, -0.1408360153, 0.1230397969, 0.0047657909, 0.0550123714, -0.2979906797, -0.1723327041, -0.0990166739, -0.1142689064, -0.0873918310, 0.0536730215, 0.0361714512, -0.0143023087, 0.0429938324, 0.1026283503, -0.0830824152, -0.1824963987, -0.1898432523, 0.0963659883, -0.2948195338, 0.0688480958, -0.0693375170, 0.0934668407, -0.0860476643, -0.0939498618, -0.1926630735, 0.0201865435, -0.0304981004, -0.0809414536, -0.1248840317, -0.0733900070, -0.1539932936, 0.0782471821, -0.0417859554, 0.2372007519, 0.0818595663, 0.0269759111, -0.1169334427, -0.1188497543, 0.0505130328, 0.0203442220, 0.0867212191, -0.1521705538, -0.1238679886, -0.0634934828, -0.0290505476, -0.1373964399, -0.1376916617, -0.0622261018, 0.1333598197, -0.0319681428, -0.1832958758, -0.1301712543, -0.0778799579, 0.0559321865, 0.0436311513, -0.2024328858, 0.0333102085, 0.0213944484, -0.0388399959, -0.1077522933, 0.1347121596, -0.0117350053, -0.0738558620, -0.0655876696, 0.0991190970, 0.1412522644, -0.0259249918, -0.0359151065, -0.2355739474, 0.0961625427, -0.1376707703, 0.0004379371, -0.0349829644, -0.0696107149, 0.0586185418, -0.1355501264, 0.0357214548, 0.0500981845, -0.0904068425, -0.1563390344, 0.1079042330, -0.0448960923, -0.0363472700, -0.0503339767, -0.0846409798, -0.0174747277, -0.0545992814, -0.0634963438, 0.0542709604, 0.0608538650, -0.0852762014, -0.0798745528, 0.0470158383, 0.1135651097, -0.1248880178, -0.0855203941, -0.0944094062, 0.1722411662, -0.0990773663, 0.0197205655, -0.1170121059, 0.0028833235, -0.0926822945, 0.1043846309, 0.1420388818, -0.0322932079, -0.0355037600, 0.0529030524, 0.0755019337, 0.0031492002, -0.0017170275, -0.1046974733, 0.0727238134, -0.0208690595, 0.0011204233, -0.0652358606, -0.0824213400, 0.0536334366, -0.1440480053, -0.1770769358, -0.0998521075, 0.0310856774, -0.1074278131, -0.1539245099, 0.0185326207, -0.0328766853, -0.1014933586, -0.0737872198, 0.1574342549, -0.2972980142, -0.0325171985, -0.0512335114, -0.0128512420, 0.0267238244, -0.0080334647, -0.0101503925, -0.1893951595, -0.0529335365, -0.0860212967, -0.1647909731, 0.1099335328, -0.0622435026, -0.1893450916, -0.2080130577, -0.0810832456, -0.0054304833, 0.0631142557, 0.0050032344, 0.0899173021, -0.0682711154, -0.1782568544, -0.1067624316, -0.0215140693, 0.0503644198, 0.0235091373, -0.2150463611, -0.1133683547, -0.0220874995, -0.2062170208, -0.0585504957, 0.0556294844, 0.1644736528, -0.0666283071, -0.1529865861, -0.1572677940, -0.0287309270, 0.0180283524, 0.1169251204, 0.1573506147, -0.1059857309, -0.1364548802, -0.1091565937, -0.0306464788, 0.0336394869, -0.1321672350, -0.1104433313, 0.0175228436, -0.0764701217, -0.1616352201, -0.1098911688, -0.0129565466, -0.0699052215, -0.0273053888, -0.1176545471, 0.0777999014, 0.0024097958, -0.0292913429, -0.0369393937, 0.0428115577, 0.0557236709, -0.1320149451, -0.0461034440, -0.0295155663, -0.2335086763, 0.0016936854, 0.0190722644, -0.0700399280, 0.0945666134, -0.1012536287, -0.0498329327, -0.1881772578, -0.0865971819, -0.0454660803, -0.1588307023, -0.1225931048, -0.0056955367, -0.1168252528, -0.0434613787, -0.0927416533, -0.0963588208, -0.0535297953, -0.0240548942, 0.0235207900, 0.0335752107, -0.0139180897, -0.0643283054, -0.0571613349, 0.0717362911, 0.0367193855, -0.0083034923, -0.0707696006, 0.0341351517, -0.0056090080, -0.0496917889, -0.1488443017, 0.0638123229, -0.0067125587, 0.0033852437, -0.1363895237, -0.0444384515, 0.0483050384, -0.0256229099, 0.0414775237, -0.0489433259, -0.0142328767, -0.0546756051, -0.0576284938, -0.0097186705, -0.0503503233, -0.1229441538, 0.0377265178, -0.0783137903, 0.0356122330, -0.0794560313, 0.0842948407, 0.0103539610, 0.0896621495, -0.0846255794, -0.1251337826, -0.1194550917, -0.0991887301, 0.0377277918, -0.0043556369, 0.1039716899, -0.1046756431, 0.1027955487, -0.1558229029, -0.0721999258, 0.0539205484, 0.0727888718, -0.0289828163, -0.1507911235, 0.0471945517, 0.0208656061, -0.1987052858, -0.0284179281, -0.1324187070, -0.1158256978, -0.0648784935, -0.0575517640, -0.0439473055, -0.0023879483, -0.2010418326, -0.1699623764, -0.0132297669, 0.0133443577, 0.0416093655, 0.0094394768, 0.0165357962, -0.1995314509, -0.0747024268, 0.0254694391, 0.0515647419, -0.0284114722, -0.1615632921, -0.1730226874, -0.2035624534, -0.0490936227, -0.0822047591, 0.0814963430, -0.0671243295, 0.1074509919, -0.1789800078, -0.0577648617, -0.1074711084, 0.0397155136, -0.0136331599, -0.0862948298, -0.0198312383, 0.1011907831, 0.0304796789, 0.0226827823, -0.0235654637, -0.0805603862, -0.0233143158, -0.0051086908, -0.1885881126, -0.0087444335, -0.0807040185, 0.0642172769, -0.1085777655, -0.1839260608, 0.0469843559, -0.0174126104, -0.0320541672, 0.0277105588, -0.0063006282, 0.0475735739, -0.3043082952, 0.0954508334, 0.0884495080, -0.1400690824, -0.0214166585, -0.0105395904, -0.2179388702, -0.0384954587, -0.0507999845, 0.1235645115, -0.1455600560, -0.1764602065, -0.0976694524, -0.1121284217, 0.0429731496, -0.0656850338, -0.2245976180, -0.0953065529, -0.2065818906, -0.0936187580, -0.0346397087, 0.0802685693, -0.0082238289, -0.0804994032, -0.0967475176, -0.1115660816, 0.0299832150, 0.0188574046, 0.0018930552, -0.0972966403, -0.1645372361, -0.2586598694, 0.0352050811, -0.1078072563, -0.0801051855, 0.0743787885, 0.0216016322, 0.0044229249, 0.0877885520, 0.0193113498, 0.0490379557, 0.0104766935, -0.0782723054, 0.0300491713, 0.0201808680, -0.0427926779, -0.0331849791, 0.0813905001, 0.0821908265, -0.0380144231, 0.0046154885, -0.0684019327, -0.0095430110, 0.0522318743, 0.1066291407, -0.0305299796, 0.0498604402, 0.1132334694, 0.0192012656, -0.0489858575, -0.0962772816, 0.0404675864, -0.1164013669, 0.1184682474, -0.1150969416, 0.1034631580, -0.0101653654, 0.0132315010, 0.0838641599, -0.0938108414, -0.1696428508, 0.1273108572, -0.0921641812, -0.0049924464, -0.0038629149, -0.1258618534, 0.0623720512, -0.0328829661, -0.0702775046, -0.1517427713, -0.0619231537, -0.0363720581, 0.0460164696, -0.1160151213, -0.1872772723, -0.0680257306, 0.0488108546, 0.0751020089, -0.0995374694, -0.0668140277, -0.1007279679, 0.0286991168, -0.0270114522, -0.0156993978, 0.2038663179, 0.1268392056, -0.1698111892, -0.0548644103, -0.0463511422, 0.0376933739, 0.0426197499, -0.0424070321, -0.0221386030, -0.0860110447, -0.0437938906, -0.0539662242, -0.0401056483, -0.0166576095, -0.0292575341, -0.1458508968, 0.1219586432, -0.0140346996, -0.0430148393, -0.0510578007, -0.0946683511, -0.0933149084, -0.1419701129, 0.0851076543, 0.0359594971, 0.1099078804, -0.0329535604, 0.0027437278, -0.1797130555, -0.0997993127, 0.0823149160, 0.1418669522, -0.0441697836, 0.1342288256, 0.0595070943, -0.1407498568, -0.1907299161, -0.0983789712, -0.0246641766, 0.0032131714, 0.1356066167, -0.0624508969, -0.0396546759, 0.1237790734, -0.1094105244, 0.1470835805, -0.0515988357, -0.0324822776, -0.0903645903, -0.0399598517, -0.0176621377, 0.0563678034, -0.0218876693, -0.1321757585, 0.0301998388, 0.0613036267, 0.0997549742, -0.1242188513, 0.1633207649, 0.0232539829, 0.0901320651, -0.1110132635, -0.0643325225, -0.0892590061, -0.0731710121, 0.0970758349, 0.0433764867, -0.0107561667, 0.0998676717, -0.0710224584, -0.0851827264, 0.0676435977, -0.0040334109, 0.0991237983, -0.1229199171, 0.0835449323, -0.0656217486, -0.0925853774, -0.0670194402, 0.0686403736, 0.0413088500, -0.0338298492, -0.0329135582, -0.0082260184, -0.0840786323, 0.0013940281, -0.0807513595, 0.0809943154, 0.0692736208, 0.0736095384, -0.0518631488, 0.0773765221, 0.0117453067, -0.0549751222, -0.1118803993, 0.0986585692, 0.0239354894, -0.0736022666, -0.0158387627, -0.1229890063, 0.0641191900, 0.0636403039, 0.0153644877, -0.0196657944, 0.0225259978, -0.1845024526, 0.0809383541, -0.1184055582, 0.0488948189, 0.0744978189, -0.0607770272, 0.0038262026, 0.0138940793, 0.0404403135, -0.0574430712, 0.0407891683, -0.1484914273, 0.0185175352, -0.1912968010, -0.0254652686, 0.0241704565, -0.1022484004, 0.0315213054, -0.0447979867, -0.0627799779, 0.1185379773, -0.0270253979, 0.0986082628, -0.0306029730, 0.0813625231, 0.0045681992, -0.1449148208, -0.0858486593, 0.1113345996, -0.0272533130, -0.0367590375, -0.0577035882, -0.1523710489, -0.0816120207, -0.0338000357, 0.0532408431, 0.0134646259, 0.0346421376, 0.0719418973, 0.0968716070, -0.0524443202, -0.0487929918, -0.1045866460, -0.1795599163, -0.1207890213, -0.1030885950, -0.1282297373, -0.0372974761, 0.0571439862, -0.1254910231, -0.0049848109, 0.0303972829, -0.0183526054, -0.0050350018, 0.0985778719, 0.0216419473, 0.0923694521, 0.0758206099, -0.1036651954, 0.1172152236, 0.0508438833, 0.0204197876, -0.0231988821, -0.0331625491, -0.0962122977, -0.0595546588, -0.1587814987, 0.0512293428, 0.1820585728, -0.1904690564, -0.1512484401, 0.0333883464, 0.0279852040, -0.1995658576, 0.0237027109, -0.1614487022, -0.0359747857, -0.1743643880, -0.0208064150, 0.1061845347, 0.0287306141, -0.0048034508, -0.0270789694, -0.0323488973, 0.0584962480, -0.1036409214, 0.0374283642, 0.0077816476, 0.1866063327, 0.0700308308, -0.0752429739, 0.0231875591, 0.0175933354, -0.0777791664, -0.0944544077, 0.0167101454, -0.0400178768, -0.0509485193, -0.1624982953, 0.0655822530, 0.0322303586, -0.0828998387, -0.0207505077, -0.0459391661, 0.0389386304, -0.1389429867, 0.0196050536, -0.0109643508, 0.0694710240, 0.0000820913, -0.1140131280, 0.1097815186, -0.0355443507, -0.0259284563, -0.0227879044, -0.0294282492, -0.0399467871, -0.0890510604, 0.1181543544, -0.1141622290, 0.1457180530, -0.0027118225, -0.0861742571, 0.0485402495, -0.0558907315, -0.1328505427, 0.1538451910, -0.0768860951, -0.1260675639, -0.0478797741, -0.1488626897, 0.0393080600, 0.2175450474, -0.0965298936, -0.0448503047, 0.0704022795, 0.1229565740, -0.0387019850, 0.2101167589, -0.1778714955, -0.0760068744, -0.1930636913, -0.0309031438, -0.0570033006, -0.0736733973, -0.0217644274, -0.0395814367, 0.0819701031, 0.1129566804, 0.0445677005, 0.0563629828, 0.0666195527, 0.1666601598, 0.0436096005, -0.0135321496, 0.0659887567, 0.0213193409, 0.0103224786, 0.0142396502, 0.0217042603, -0.2050891221, -0.1193092167, -0.1739512086, 0.0662958547, 0.2304315418, 0.0471601672, -0.0412031971, 0.0685544088, -0.0610942021, -0.0929821059, 0.0386896431, -0.1280935556, -0.0314127095, -0.1097297445, -0.0832906440, 0.0138779059, 0.0140769817, -0.1229389012, 0.0738083869, 0.0534635819, -0.0721943900, -0.0243885033, -0.0402751826, -0.0681652948, 0.0293455534, 0.0870626494, 0.0210854709, -0.0055747265, -0.0431707129, -0.1069722995, -0.1481102258, -0.1316250265, 0.0535297729, -0.0457976013, -0.0900171101, -0.1818264723, -0.1327601969, 0.0542973466, -0.0279943701, -0.0278056934, -0.0177459363, -0.0652607977, -0.0444360673, -0.2058637440, -0.0168296769, -0.2180207372, -0.1356756538, 0.0635686740, -0.0017275640, -0.0687637404, 0.1069191918, 0.0803824216, -0.2308477163, -0.0133072296, -0.1600301862, -0.0115110865, 0.0206561964, 0.1091340557, -0.0921906009, 0.1029255390, -0.0965396091, 0.0767483935, 0.0028350006, -0.0201995857, -0.1406424940, -0.1514590085, -0.0388360694, 0.0299251173, -0.0400649644, -0.0595002063, -0.1564273983, 0.1464182436, -0.0811185837, -0.0504426509, -0.1049111485, -0.1271261424, 0.1094128340, -0.0938625559, -0.1578327566, 0.0566710792, -0.0602999218, -0.0249384418, 0.0316275023, -0.0792839527, 0.0492417105, -0.0441007465, 0.1919919103, -0.1056893617, 0.0549735762, 0.1607275307, 0.0166533664, 0.0226011984, -0.0461467206, -0.0811803713, -0.1042640880, -0.0124327056, -0.1358170509, 0.0397121795, -0.1473203450, 0.0521591976, 0.2460014671, 0.1262170970, 0.1425910443, 0.0227815956, 0.2188853621, 0.1165087000, 0.2513697147, 0.0306020025, 0.0436819643, 0.0631105900, 0.1319507957, -0.0189022850, 0.0187297892, 0.0143866595, 0.1888114959, -0.0038362413, -0.0549542345, -0.0972995013, -0.0156058092, 0.0011667480, 0.0337537713, 0.0566703305, 0.0119420942, 0.0931257457, 0.0299121644, -0.1558388174, 0.0725255311, 0.0498390421, -0.0473975986, -0.0913628936, 0.0080170836, -0.0416410118, 0.0277833901, 0.1108203903, 0.0247896668, -0.0765983388, 0.0528286174, 0.0379953906, 0.1049383506, -0.0576522388, 0.0191661008, -0.0651448816, 0.1604904979, 0.0715253651, 0.0794056207, 0.0489040017, -0.0374757051, 0.0414588153, -0.0135384435, -0.1257684976, 0.0796129853, -0.0944450870, 0.0247663949, -0.0922616646, -0.0287906770, 0.0298127774, 0.0171946157, -0.0935672522, 0.0323230177, -0.1148017868, -0.1476398259, -0.0778811276, -0.0224522669, 0.0751610920, 0.0452094935, -0.0197341498, -0.0951876342, 0.0058923257, 0.1028581783, -0.2324889302, 0.1521085054, -0.1499943137, 0.0352763981, -0.1533167511, -0.1195487604, 0.0508277677, -0.0404344983, -0.1314173788, 0.0802929178, -0.0417583585, 0.1157898158, 0.0351905935, 0.0916148797, 0.1016313061, 0.0678341165, 0.0969496295, -0.0650989413, -0.0325498171, -0.0004661712, -0.0827500597, -0.0252974369, 0.0490507856, 0.1047715768, 0.0282328706, 0.0768215954, 0.0714925677, 0.0868374109, -0.0140878847, -0.0875577107, -0.0557082593, -0.0115510244, 0.0480940863, 0.0983864591, -0.1278675348, -0.0639090389, 0.0996273533, -0.0627042204, 0.0373213217, 0.0095615108, 0.0690826327, -0.0795731843, -0.0098762782, 0.0116564063, -0.0459332578, -0.1094177365, 0.0713642165, 0.0222614165, -0.1108077094, 0.0495779738, -0.0139428806, -0.0355567336, 0.0096847489, -0.2148906142, 0.0333967283, -0.1124490872, -0.0810839534, -0.0685643181, 0.0784102157, -0.1549984068, -0.1229413599, -0.1028168723, 0.0587161407, 0.1054754183, 0.0885048062, -0.1408200413, -0.1857243925, 0.0791469440, -0.1870483458, -0.1920716017, 0.1147392467, 0.0822867602, -0.0143618798, -0.0258638840, 0.0377093256, 0.0658284277, 0.0885596573, -0.0293215588, 0.0605292059, -0.0053054979, -0.0620396659, -0.1027653068, 0.1159099713, -0.0417168476, -0.1163126007, -0.0322390944, -0.0883886144, -0.0096974717, -0.0879858583, -0.0291983429, -0.0421403162, -0.0484310463, -0.0960140675, -0.1265796721, -0.0710505247, 0.0543426275, -0.0728118047, -0.0021995069, -0.0113733206, 0.0056723049, 0.0304405298, 0.0402274989, 0.0873785913, 0.0125048338, -0.0056526698, -0.0842572972, -0.0930751115, -0.1094464213, -0.0829050988, 0.0758866370, -0.0132429982, 0.0007827922, 0.0893292204, -0.1190332845, 0.0226313304, 0.0557619333, 0.0137842745, 0.0914894342, -0.0896566883, -0.0391088091, -0.0721738636, -0.1079828516, -0.0456530675, 0.1547850221, 0.0481688119, 0.0144054014, 0.0268518478, 0.0137026720, -0.0541472211, 0.1365238875, -0.1336269975, 0.0336461030, -0.0708356723, 0.0482605882, -0.1075149029, -0.1237904131, -0.0362866782, 0.0656880215, 0.0045032692, 0.1156286448, 0.0195871908, -0.0862210616, 0.0841252357, 0.0771750361, 0.0768109411, 0.0629426017, -0.0876450986, -0.1164304838, 0.0289012138, 0.0313404277, -0.1455574483, -0.0586181507, 0.0273192450, -0.1396920085, 0.0262127910, 0.1900127530, -0.0180451013, 0.0297487378, -0.0087986970, 0.1019201800, -0.0503784046, 0.0862326697, -0.1110636145, 0.0792672262, -0.1779777557, 0.0025763712, -0.0420264378, -0.0659653395, 0.0459453538, 0.0354577042, 0.0741858929, -0.0221366789, -0.0836050659, -0.0877692029, 0.0584259480, 0.0399508029, -0.0447765850, 0.0690323561, -0.1157870069, 0.0124800131, -0.1210446432, -0.0088003771, -0.0324353091, 0.0133015951, 0.0726501793, -0.1055947840, -0.1436649263, -0.0854512304, 0.1739919782, -0.1536681354, -0.0569659881, -0.0848969519, -0.1228051707, -0.0171300508, -0.2168678045, -0.0543982163, 0.0091256816, -0.0865771919, 0.0964704528, 0.1363743097, -0.0079665985, 0.0727997050, 0.1386201680, -0.1148073450, 0.0022306826, -0.2185142487, 0.1770783663, 0.1552943736, 0.0932638422, -0.0917723775, 0.0277076922, -0.0459128916, 0.0002524101, 0.1084590182, -0.1020614430, -0.1620804965, 0.0103568574, -0.1685690731, -0.0410014540, 0.1925832480, -0.0553814992, -0.0446956307, 0.0437863804, -0.0099038072, -0.1704852879, 0.2363249660, -0.1128915921, 0.0756391585, -0.0793655887, 0.0494426861, 0.0033782509, -0.1139275506, -0.0659339055, 0.0330124423, -0.0594064966, 0.0989584848, 0.0214885008, -0.1107997745, 0.0966819972, -0.0134728802, 0.0022362899, -0.0959196240, 0.0958433822, -0.1954877675, -0.0717563033, 0.0153158037, -0.0807083249, -0.1972034574, 0.0884748623, -0.0457213111, -0.0839373618, 0.0599470064, 0.0836221576, 0.0026059698, 0.0323057249, -0.0229777489, -0.1206344143, 0.0043001962, -0.2082441598, 0.0382622927, -0.1611263305, -0.0911873728, -0.0909828693, 0.0708731189, -0.1926939487, 0.1089026406, 0.0552607700, -0.0857175067, -0.0160660353, 0.0104216980, 0.0196280256, -0.0564894490, -0.0001110315, -0.0145616578, -0.0123025598, 0.0079579400, 0.0213935561, -0.1047261357, -0.0534803644, -0.1442608088, 0.0177924521, -0.0544737875, -0.0556043088, 0.1810387820, -0.0363118984, 0.0519003794, -0.0442854054, -0.0175969452, -0.1574586481, -0.0144072492, -0.1723493189, -0.0367066599, -0.0182776693, -0.1555387378, -0.1399369836, 0.0005625287, -0.1000519320, 0.0068030036, 0.0348664336, 0.0668687820, -0.1084987670, -0.0428362116, 0.0302661043, 0.1572210491, -0.0332263000, 0.0437210575, 0.0713505074, -0.0710258782, 0.0524674393, -0.1388128549, -0.0486486778, -0.0859452561, 0.0438670106, -0.1782535166, -0.1145295724, -0.1130319685, -0.0667801946, -0.1642193496, -0.0026729254, -0.0245288014, 0.0574450009, 0.0300733540, -0.1494045109, -0.0400680974, -0.1092547476, -0.0645005628, 0.1660612375, 0.1015325487, -0.1243597791, 0.0009962750, -0.0699764788, -0.0083260350, -0.0258407034, -0.0626998097, -0.0429009013, 0.0974922478, 0.0938923433, -0.0596772544, -0.0529049076, -0.0606429949, 0.0538256653, -0.0268187243, -0.1160944328, -0.0846125111, 0.0557315685, -0.1240487546, 0.0309739783, 0.2825063169, -0.1103005484, -0.0259981714, 0.0315878913, 0.0188408848, -0.1092909947, 0.1310464591, -0.2394798994, -0.0198169257, -0.0928516015, -0.0195159726, -0.1090422869, -0.0584624782, -0.0430825017, 